digraph Tree {
node [shape=box, style="filled", color="black", fontname="helvetica"] ;
edge [fontname="helvetica"] ;
0 [label="ring-type_z <= 0.5\ngini = 0.196\nsamples = 48738\nvalue = [218160, 26922]\nclass = poisonous", fillcolor="#e89151"] ;
1 [label="stem-height <= -1.34\ngini = 0.186\nsamples = 47039\nvalue = [218160, 25223]\nclass = poisonous", fillcolor="#e89050"] ;
0 -> 1 [labeldistance=2.5, labelangle=45, headlabel="True"] ;
2 [label="habitat_m <= 0.5\ngini = 0.032\nsamples = 1203\nvalue = [20, 1201]\nclass = edible", fillcolor="#3c9fe5"] ;
1 -> 2 ;
3 [label="gini = 0.0\nsamples = 1199\nvalue = [0, 1199]\nclass = edible", fillcolor="#399de5"] ;
2 -> 3 ;
4 [label="season_u <= 0.5\ngini = 0.165\nsamples = 4\nvalue = [20, 2]\nclass = poisonous", fillcolor="#e88e4d"] ;
2 -> 4 ;
5 [label="gini = 0.0\nsamples = 2\nvalue = [20, 0]\nclass = poisonous", fillcolor="#e58139"] ;
4 -> 5 ;
6 [label="gini = 0.0\nsamples = 2\nvalue = [0, 2]\nclass = edible", fillcolor="#399de5"] ;
4 -> 6 ;
7 [label="cap-surface_k <= 0.5\ngini = 0.179\nsamples = 45836\nvalue = [218140, 24022]\nclass = poisonous", fillcolor="#e88f4f"] ;
1 -> 7 ;
8 [label="cap-diameter <= -0.668\ngini = 0.17\nsamples = 44104\nvalue = [216700, 22434]\nclass = poisonous", fillcolor="#e88e4d"] ;
7 -> 8 ;
9 [label="has-ring_t <= 0.5\ngini = 0.311\nsamples = 9485\nvalue = [28050, 6680]\nclass = poisonous", fillcolor="#eb9f68"] ;
8 -> 9 ;
10 [label="cap-color_o <= 0.5\ngini = 0.285\nsamples = 8621\nvalue = [28030, 5818]\nclass = poisonous", fillcolor="#ea9b62"] ;
9 -> 10 ;
11 [label="gill-color_n <= 0.5\ngini = 0.257\nsamples = 7690\nvalue = [27650, 4925]\nclass = poisonous", fillcolor="#ea975c"] ;
10 -> 11 ;
12 [label="cap-surface_i <= 0.5\ngini = 0.214\nsamples = 6236\nvalue = [26140, 3622]\nclass = poisonous", fillcolor="#e99254"] ;
11 -> 12 ;
13 [label="gill-color_y <= 0.5\ngini = 0.197\nsamples = 5864\nvalue = [26140, 3250]\nclass = poisonous", fillcolor="#e89152"] ;
12 -> 13 ;
14 [label="cap-shape_o <= 0.5\ngini = 0.176\nsamples = 5375\nvalue = [25820, 2793]\nclass = poisonous", fillcolor="#e88f4e"] ;
13 -> 14 ;
15 [label="stem-color_k <= 0.5\ngini = 0.165\nsamples = 5152\nvalue = [25780, 2574]\nclass = poisonous", fillcolor="#e88e4d"] ;
14 -> 15 ;
16 [label="stem-color_u <= 0.5\ngini = 0.157\nsamples = 4994\nvalue = [25780, 2416]\nclass = poisonous", fillcolor="#e78d4c"] ;
15 -> 16 ;
17 [label="stem-height <= -0.73\ngini = 0.149\nsamples = 4844\nvalue = [25780, 2266]\nclass = poisonous", fillcolor="#e78c4a"] ;
16 -> 17 ;
18 [label="gill-color_g <= 0.5\ngini = 0.288\nsamples = 1596\nvalue = [5130, 1083]\nclass = poisonous", fillcolor="#ea9c63"] ;
17 -> 18 ;
19 [label="cap-diameter <= -1.001\ngini = 0.449\nsamples = 1289\nvalue = [2090, 1080]\nclass = poisonous", fillcolor="#f2c29f"] ;
18 -> 19 ;
20 [label="gini = 0.0\nsamples = 538\nvalue = [0, 538]\nclass = edible", fillcolor="#399de5"] ;
19 -> 20 ;
21 [label="stem-width <= -0.944\ngini = 0.327\nsamples = 751\nvalue = [2090, 542]\nclass = poisonous", fillcolor="#eca26c"] ;
19 -> 21 ;
22 [label="cap-surface_d <= 0.5\ngini = 0.481\nsamples = 222\nvalue = [140.0, 208.0]\nclass = edible", fillcolor="#bedff6"] ;
21 -> 22 ;
23 [label="cap-shape_x <= 0.5\ngini = 0.014\nsamples = 15\nvalue = [140, 1]\nclass = poisonous", fillcolor="#e5823a"] ;
22 -> 23 ;
24 [label="gini = 0.0\nsamples = 14\nvalue = [140, 0]\nclass = poisonous", fillcolor="#e58139"] ;
23 -> 24 ;
25 [label="gini = 0.0\nsamples = 1\nvalue = [0, 1]\nclass = edible", fillcolor="#399de5"] ;
23 -> 25 ;
26 [label="gini = 0.0\nsamples = 207\nvalue = [0, 207]\nclass = edible", fillcolor="#399de5"] ;
22 -> 26 ;
27 [label="cap-color_g <= 0.5\ngini = 0.25\nsamples = 529\nvalue = [1950, 334]\nclass = poisonous", fillcolor="#e9975b"] ;
21 -> 27 ;
28 [label="cap-shape_c <= 0.5\ngini = 0.19\nsamples = 414\nvalue = [1890, 225]\nclass = poisonous", fillcolor="#e89051"] ;
27 -> 28 ;
29 [label="stem-width <= -0.547\ngini = 0.17\nsamples = 384\nvalue = [1890, 195]\nclass = poisonous", fillcolor="#e88e4d"] ;
28 -> 29 ;
30 [label="cap-surface_t <= 0.5\ngini = 0.107\nsamples = 259\nvalue = [1620, 97]\nclass = poisonous", fillcolor="#e78945"] ;
29 -> 30 ;
31 [label="stem-height <= -1.185\ngini = 0.053\nsamples = 206\nvalue = [1610, 45]\nclass = poisonous", fillcolor="#e6853f"] ;
30 -> 31 ;
32 [label="stem-width <= -0.678\ngini = 0.355\nsamples = 16\nvalue = [40, 12]\nclass = poisonous", fillcolor="#eda774"] ;
31 -> 32 ;
33 [label="stem-height <= -1.293\ngini = 0.048\nsamples = 5\nvalue = [40, 1]\nclass = poisonous", fillcolor="#e6843e"] ;
32 -> 33 ;
34 [label="gini = 0.0\nsamples = 3\nvalue = [30, 0]\nclass = poisonous", fillcolor="#e58139"] ;
33 -> 34 ;
35 [label="cap-diameter <= -0.748\ngini = 0.165\nsamples = 2\nvalue = [10, 1]\nclass = poisonous", fillcolor="#e88e4d"] ;
33 -> 35 ;
36 [label="gini = 0.0\nsamples = 1\nvalue = [10, 0]\nclass = poisonous", fillcolor="#e58139"] ;
35 -> 36 ;
37 [label="gini = 0.0\nsamples = 1\nvalue = [0, 1]\nclass = edible", fillcolor="#399de5"] ;
35 -> 37 ;
38 [label="gini = 0.0\nsamples = 11\nvalue = [0, 11]\nclass = edible", fillcolor="#399de5"] ;
32 -> 38 ;
39 [label="stem-width <= -0.934\ngini = 0.04\nsamples = 190\nvalue = [1570, 33]\nclass = poisonous", fillcolor="#e6843d"] ;
31 -> 39 ;
40 [label="cap-shape_b <= 0.5\ngini = 0.312\nsamples = 17\nvalue = [50, 12]\nclass = poisonous", fillcolor="#eb9f69"] ;
39 -> 40 ;
41 [label="gini = 0.0\nsamples = 12\nvalue = [0, 12]\nclass = edible", fillcolor="#399de5"] ;
40 -> 41 ;
42 [label="gini = 0.0\nsamples = 5\nvalue = [50, 0]\nclass = poisonous", fillcolor="#e58139"] ;
40 -> 42 ;
43 [label="gill-color_r <= 0.5\ngini = 0.027\nsamples = 173\nvalue = [1520, 21]\nclass = poisonous", fillcolor="#e5833c"] ;
39 -> 43 ;
44 [label="stem-height <= -0.733\ngini = 0.024\nsamples = 171\nvalue = [1520, 19]\nclass = poisonous", fillcolor="#e5833b"] ;
43 -> 44 ;
45 [label="habitat_l <= 0.5\ngini = 0.023\nsamples = 170\nvalue = [1520, 18]\nclass = poisonous", fillcolor="#e5823b"] ;
44 -> 45 ;
46 [label="stem-width <= -0.592\ngini = 0.018\nsamples = 163\nvalue = [1490, 14]\nclass = poisonous", fillcolor="#e5823b"] ;
45 -> 46 ;
47 [label="stem-color_n <= 0.5\ngini = 0.006\nsamples = 134\nvalue = [1300, 4]\nclass = poisonous", fillcolor="#e5813a"] ;
46 -> 47 ;
48 [label="cap-diameter <= -0.825\ngini = 0.003\nsamples = 122\nvalue = [1200, 2]\nclass = poisonous", fillcolor="#e58139"] ;
47 -> 48 ;
49 [label="season_w <= 0.5\ngini = 0.091\nsamples = 3\nvalue = [20, 1]\nclass = poisonous", fillcolor="#e68743"] ;
48 -> 49 ;
50 [label="gini = 0.0\nsamples = 1\nvalue = [0, 1]\nclass = edible", fillcolor="#399de5"] ;
49 -> 50 ;
51 [label="gini = 0.0\nsamples = 2\nvalue = [20, 0]\nclass = poisonous", fillcolor="#e58139"] ;
49 -> 51 ;
52 [label="stem-width <= -0.599\ngini = 0.002\nsamples = 119\nvalue = [1180, 1]\nclass = poisonous", fillcolor="#e58139"] ;
48 -> 52 ;
53 [label="gini = 0.0\nsamples = 114\nvalue = [1140, 0]\nclass = poisonous", fillcolor="#e58139"] ;
52 -> 53 ;
54 [label="stem-height <= -1.059\ngini = 0.048\nsamples = 5\nvalue = [40, 1]\nclass = poisonous", fillcolor="#e6843e"] ;
52 -> 54 ;
55 [label="gini = 0.0\nsamples = 1\nvalue = [0, 1]\nclass = edible", fillcolor="#399de5"] ;
54 -> 55 ;
56 [label="gini = 0.0\nsamples = 4\nvalue = [40, 0]\nclass = poisonous", fillcolor="#e58139"] ;
54 -> 56 ;
57 [label="gill-color_p <= 0.5\ngini = 0.038\nsamples = 12\nvalue = [100, 2]\nclass = poisonous", fillcolor="#e6843d"] ;
47 -> 57 ;
58 [label="gini = 0.0\nsamples = 2\nvalue = [0, 2]\nclass = edible", fillcolor="#399de5"] ;
57 -> 58 ;
59 [label="gini = 0.0\nsamples = 10\nvalue = [100, 0]\nclass = poisonous", fillcolor="#e58139"] ;
57 -> 59 ;
60 [label="stem-height <= -0.981\ngini = 0.095\nsamples = 29\nvalue = [190, 10]\nclass = poisonous", fillcolor="#e68843"] ;
46 -> 60 ;
61 [label="gini = 0.0\nsamples = 10\nvalue = [0, 10]\nclass = edible", fillcolor="#399de5"] ;
60 -> 61 ;
62 [label="gini = 0.0\nsamples = 19\nvalue = [190, 0]\nclass = poisonous", fillcolor="#e58139"] ;
60 -> 62 ;
63 [label="cap-diameter <= -0.776\ngini = 0.208\nsamples = 7\nvalue = [30, 4]\nclass = poisonous", fillcolor="#e89253"] ;
45 -> 63 ;
64 [label="gini = 0.0\nsamples = 3\nvalue = [30, 0]\nclass = poisonous", fillcolor="#e58139"] ;
63 -> 64 ;
65 [label="gini = 0.0\nsamples = 4\nvalue = [0, 4]\nclass = edible", fillcolor="#399de5"] ;
63 -> 65 ;
66 [label="gini = 0.0\nsamples = 1\nvalue = [0, 1]\nclass = edible", fillcolor="#399de5"] ;
44 -> 66 ;
67 [label="gini = 0.0\nsamples = 2\nvalue = [0, 2]\nclass = edible", fillcolor="#399de5"] ;
43 -> 67 ;
68 [label="cap-color_b <= 0.5\ngini = 0.271\nsamples = 53\nvalue = [10, 52]\nclass = edible", fillcolor="#5fb0ea"] ;
30 -> 68 ;
69 [label="gini = 0.0\nsamples = 52\nvalue = [0, 52]\nclass = edible", fillcolor="#399de5"] ;
68 -> 69 ;
70 [label="gini = 0.0\nsamples = 1\nvalue = [10, 0]\nclass = poisonous", fillcolor="#e58139"] ;
68 -> 70 ;
71 [label="gill-color_w <= 0.5\ngini = 0.391\nsamples = 125\nvalue = [270, 98]\nclass = poisonous", fillcolor="#eeaf81"] ;
29 -> 71 ;
72 [label="gini = 0.0\nsamples = 26\nvalue = [260, 0]\nclass = poisonous", fillcolor="#e58139"] ;
71 -> 72 ;
73 [label="cap-color_k <= 0.5\ngini = 0.168\nsamples = 99\nvalue = [10, 98]\nclass = edible", fillcolor="#4da7e8"] ;
71 -> 73 ;
74 [label="gini = 0.0\nsamples = 98\nvalue = [0, 98]\nclass = edible", fillcolor="#399de5"] ;
73 -> 74 ;
75 [label="gini = 0.0\nsamples = 1\nvalue = [10, 0]\nclass = poisonous", fillcolor="#e58139"] ;
73 -> 75 ;
76 [label="gini = 0.0\nsamples = 30\nvalue = [0, 30]\nclass = edible", fillcolor="#399de5"] ;
28 -> 76 ;
77 [label="does-bruise-or-bleed_f <= 0.5\ngini = 0.458\nsamples = 115\nvalue = [60, 109]\nclass = edible", fillcolor="#a6d3f3"] ;
27 -> 77 ;
78 [label="gini = 0.0\nsamples = 6\nvalue = [60, 0]\nclass = poisonous", fillcolor="#e58139"] ;
77 -> 78 ;
79 [label="gini = 0.0\nsamples = 109\nvalue = [0, 109]\nclass = edible", fillcolor="#399de5"] ;
77 -> 79 ;
80 [label="cap-surface_t <= 0.5\ngini = 0.002\nsamples = 307\nvalue = [3040, 3]\nclass = poisonous", fillcolor="#e58139"] ;
18 -> 80 ;
81 [label="cap-surface_y <= 0.5\ngini = 0.001\nsamples = 305\nvalue = [3040, 1]\nclass = poisonous", fillcolor="#e58139"] ;
80 -> 81 ;
82 [label="gini = 0.0\nsamples = 302\nvalue = [3020, 0]\nclass = poisonous", fillcolor="#e58139"] ;
81 -> 82 ;
83 [label="gill-attachment_s <= 0.5\ngini = 0.091\nsamples = 3\nvalue = [20, 1]\nclass = poisonous", fillcolor="#e68743"] ;
81 -> 83 ;
84 [label="gini = 0.0\nsamples = 1\nvalue = [0, 1]\nclass = edible", fillcolor="#399de5"] ;
83 -> 84 ;
85 [label="gini = 0.0\nsamples = 2\nvalue = [20, 0]\nclass = poisonous", fillcolor="#e58139"] ;
83 -> 85 ;
86 [label="gini = 0.0\nsamples = 2\nvalue = [0, 2]\nclass = edible", fillcolor="#399de5"] ;
80 -> 86 ;
87 [label="cap-shape_b <= 0.5\ngini = 0.102\nsamples = 3248\nvalue = [20650, 1183]\nclass = poisonous", fillcolor="#e68844"] ;
17 -> 87 ;
88 [label="gill-attachment_x <= 0.5\ngini = 0.066\nsamples = 2546\nvalue = [18770, 669]\nclass = poisonous", fillcolor="#e68540"] ;
87 -> 88 ;
89 [label="gill-color_r <= 0.5\ngini = 0.054\nsamples = 2412\nvalue = [18740, 538]\nclass = poisonous", fillcolor="#e6853f"] ;
88 -> 89 ;
90 [label="cap-shape_x <= 0.5\ngini = 0.05\nsamples = 2363\nvalue = [18710, 492]\nclass = poisonous", fillcolor="#e6843e"] ;
89 -> 90 ;
91 [label="cap-surface_s <= 0.5\ngini = 0.009\nsamples = 1070\nvalue = [10250, 45]\nclass = poisonous", fillcolor="#e5823a"] ;
90 -> 91 ;
92 [label="cap-color_w <= 0.5\ngini = 0.005\nsamples = 1051\nvalue = [10240, 27]\nclass = poisonous", fillcolor="#e5813a"] ;
91 -> 92 ;
93 [label="habitat_p <= 0.5\ngini = 0.004\nsamples = 1042\nvalue = [10240, 18]\nclass = poisonous", fillcolor="#e58139"] ;
92 -> 93 ;
94 [label="cap-color_u <= 0.5\ngini = 0.003\nsamples = 1040\nvalue = [10240, 16]\nclass = poisonous", fillcolor="#e58139"] ;
93 -> 94 ;
95 [label="stem-color_e <= 0.5\ngini = 0.0\nsamples = 1010\nvalue = [10090, 1]\nclass = poisonous", fillcolor="#e58139"] ;
94 -> 95 ;
96 [label="gini = 0.0\nsamples = 1009\nvalue = [10090, 0]\nclass = poisonous", fillcolor="#e58139"] ;
95 -> 96 ;
97 [label="gini = 0.0\nsamples = 1\nvalue = [0, 1]\nclass = edible", fillcolor="#399de5"] ;
95 -> 97 ;
98 [label="cap-surface_d <= 0.5\ngini = 0.165\nsamples = 30\nvalue = [150, 15]\nclass = poisonous", fillcolor="#e88e4d"] ;
94 -> 98 ;
99 [label="gini = 0.0\nsamples = 15\nvalue = [0, 15]\nclass = edible", fillcolor="#399de5"] ;
98 -> 99 ;
100 [label="gini = 0.0\nsamples = 15\nvalue = [150, 0]\nclass = poisonous", fillcolor="#e58139"] ;
98 -> 100 ;
101 [label="gini = 0.0\nsamples = 2\nvalue = [0, 2]\nclass = edible", fillcolor="#399de5"] ;
93 -> 101 ;
102 [label="gini = 0.0\nsamples = 9\nvalue = [0, 9]\nclass = edible", fillcolor="#399de5"] ;
92 -> 102 ;
103 [label="season_w <= 0.5\ngini = 0.459\nsamples = 19\nvalue = [10, 18]\nclass = edible", fillcolor="#a7d3f3"] ;
91 -> 103 ;
104 [label="gini = 0.0\nsamples = 18\nvalue = [0, 18]\nclass = edible", fillcolor="#399de5"] ;
103 -> 104 ;
105 [label="gini = 0.0\nsamples = 1\nvalue = [10, 0]\nclass = poisonous", fillcolor="#e58139"] ;
103 -> 105 ;
106 [label="stem-height <= 0.345\ngini = 0.095\nsamples = 1293\nvalue = [8460.0, 447.0]\nclass = poisonous", fillcolor="#e68843"] ;
90 -> 106 ;
107 [label="stem-color_n <= 0.5\ngini = 0.082\nsamples = 1225\nvalue = [8460, 379]\nclass = poisonous", fillcolor="#e68742"] ;
106 -> 107 ;
108 [label="gill-color_p <= 0.5\ngini = 0.033\nsamples = 870\nvalue = [7440, 126]\nclass = poisonous", fillcolor="#e5833c"] ;
107 -> 108 ;
109 [label="gill-color_f <= 0.5\ngini = 0.017\nsamples = 810\nvalue = [7440, 66]\nclass = poisonous", fillcolor="#e5823b"] ;
108 -> 109 ;
110 [label="cap-color_e <= 0.5\ngini = 0.015\nsamples = 800\nvalue = [7440, 56]\nclass = poisonous", fillcolor="#e5823a"] ;
109 -> 110 ;
111 [label="cap-color_w <= 0.5\ngini = 0.008\nsamples = 756\nvalue = [7270.0, 29.0]\nclass = poisonous", fillcolor="#e5823a"] ;
110 -> 111 ;
112 [label="cap-surface_g <= 0.5\ngini = 0.007\nsamples = 752\nvalue = [7260, 26]\nclass = poisonous", fillcolor="#e5813a"] ;
111 -> 112 ;
113 [label="gini = 0.0\nsamples = 642\nvalue = [6420, 0]\nclass = poisonous", fillcolor="#e58139"] ;
112 -> 113 ;
114 [label="stem-color_y <= 0.5\ngini = 0.058\nsamples = 110\nvalue = [840, 26]\nclass = poisonous", fillcolor="#e6853f"] ;
112 -> 114 ;
115 [label="gini = 0.0\nsamples = 26\nvalue = [0, 26]\nclass = edible", fillcolor="#399de5"] ;
114 -> 115 ;
116 [label="gini = 0.0\nsamples = 84\nvalue = [840, 0]\nclass = poisonous", fillcolor="#e58139"] ;
114 -> 116 ;
117 [label="cap-surface_s <= 0.5\ngini = 0.355\nsamples = 4\nvalue = [10, 3]\nclass = poisonous", fillcolor="#eda774"] ;
111 -> 117 ;
118 [label="gini = 0.0\nsamples = 3\nvalue = [0, 3]\nclass = edible", fillcolor="#399de5"] ;
117 -> 118 ;
119 [label="gini = 0.0\nsamples = 1\nvalue = [10, 0]\nclass = poisonous", fillcolor="#e58139"] ;
117 -> 119 ;
120 [label="cap-surface_g <= 0.5\ngini = 0.237\nsamples = 44\nvalue = [170, 27]\nclass = poisonous", fillcolor="#e99558"] ;
110 -> 120 ;
121 [label="gini = 0.0\nsamples = 17\nvalue = [170, 0]\nclass = poisonous", fillcolor="#e58139"] ;
120 -> 121 ;
122 [label="gini = 0.0\nsamples = 27\nvalue = [0, 27]\nclass = edible", fillcolor="#399de5"] ;
120 -> 122 ;
123 [label="gini = 0.0\nsamples = 10\nvalue = [0, 10]\nclass = edible", fillcolor="#399de5"] ;
109 -> 123 ;
124 [label="gini = 0.0\nsamples = 60\nvalue = [0, 60]\nclass = edible", fillcolor="#399de5"] ;
108 -> 124 ;
125 [label="does-bruise-or-bleed_f <= 0.5\ngini = 0.318\nsamples = 355\nvalue = [1020.0, 253.0]\nclass = poisonous", fillcolor="#eba06a"] ;
107 -> 125 ;
126 [label="gini = 0.0\nsamples = 100\nvalue = [1000, 0]\nclass = poisonous", fillcolor="#e58139"] ;
125 -> 126 ;
127 [label="stem-width <= -0.791\ngini = 0.136\nsamples = 255\nvalue = [20, 253]\nclass = edible", fillcolor="#49a5e7"] ;
125 -> 127 ;
128 [label="gini = 0.0\nsamples = 253\nvalue = [0, 253]\nclass = edible", fillcolor="#399de5"] ;
127 -> 128 ;
129 [label="gini = 0.0\nsamples = 2\nvalue = [20, 0]\nclass = poisonous", fillcolor="#e58139"] ;
127 -> 129 ;
130 [label="gini = 0.0\nsamples = 68\nvalue = [0, 68]\nclass = edible", fillcolor="#399de5"] ;
106 -> 130 ;
131 [label="stem-color_w <= 0.5\ngini = 0.478\nsamples = 49\nvalue = [30, 46]\nclass = edible", fillcolor="#baddf6"] ;
89 -> 131 ;
132 [label="gini = 0.0\nsamples = 46\nvalue = [0, 46]\nclass = edible", fillcolor="#399de5"] ;
131 -> 132 ;
133 [label="gini = 0.0\nsamples = 3\nvalue = [30, 0]\nclass = poisonous", fillcolor="#e58139"] ;
131 -> 133 ;
134 [label="stem-color_w <= 0.5\ngini = 0.303\nsamples = 134\nvalue = [30, 131]\nclass = edible", fillcolor="#66b3eb"] ;
88 -> 134 ;
135 [label="gini = 0.0\nsamples = 103\nvalue = [0, 103]\nclass = edible", fillcolor="#399de5"] ;
134 -> 135 ;
136 [label="stem-height <= -0.361\ngini = 0.499\nsamples = 31\nvalue = [30.0, 28.0]\nclass = poisonous", fillcolor="#fdf7f2"] ;
134 -> 136 ;
137 [label="gini = 0.0\nsamples = 28\nvalue = [0, 28]\nclass = edible", fillcolor="#399de5"] ;
136 -> 137 ;
138 [label="gini = 0.0\nsamples = 3\nvalue = [30, 0]\nclass = poisonous", fillcolor="#e58139"] ;
136 -> 138 ;
139 [label="cap-surface_t <= 0.5\ngini = 0.337\nsamples = 702\nvalue = [1880, 514]\nclass = poisonous", fillcolor="#eca36f"] ;
87 -> 139 ;
140 [label="stem-width <= -0.826\ngini = 0.104\nsamples = 297\nvalue = [1880, 109]\nclass = poisonous", fillcolor="#e78844"] ;
139 -> 140 ;
141 [label="gini = 0.0\nsamples = 188\nvalue = [1880, 0]\nclass = poisonous", fillcolor="#e58139"] ;
140 -> 141 ;
142 [label="gini = 0.0\nsamples = 109\nvalue = [0, 109]\nclass = edible", fillcolor="#399de5"] ;
140 -> 142 ;
143 [label="gini = 0.0\nsamples = 405\nvalue = [0, 405]\nclass = edible", fillcolor="#399de5"] ;
139 -> 143 ;
144 [label="gini = 0.0\nsamples = 150\nvalue = [0, 150]\nclass = edible", fillcolor="#399de5"] ;
16 -> 144 ;
145 [label="gini = 0.0\nsamples = 158\nvalue = [0, 158]\nclass = edible", fillcolor="#399de5"] ;
15 -> 145 ;
146 [label="cap-surface_t <= 0.5\ngini = 0.261\nsamples = 223\nvalue = [40, 219]\nclass = edible", fillcolor="#5dafea"] ;
14 -> 146 ;
147 [label="gini = 0.0\nsamples = 4\nvalue = [40, 0]\nclass = poisonous", fillcolor="#e58139"] ;
146 -> 147 ;
148 [label="gini = 0.0\nsamples = 219\nvalue = [0, 219]\nclass = edible", fillcolor="#399de5"] ;
146 -> 148 ;
149 [label="stem-width <= -0.509\ngini = 0.484\nsamples = 489\nvalue = [320, 457]\nclass = edible", fillcolor="#c4e2f7"] ;
13 -> 149 ;
150 [label="season_s <= 0.5\ngini = 0.232\nsamples = 460\nvalue = [70, 453]\nclass = edible", fillcolor="#58ace9"] ;
149 -> 150 ;
151 [label="stem-height <= -1.132\ngini = 0.149\nsamples = 457\nvalue = [40, 453]\nclass = edible", fillcolor="#4aa6e7"] ;
150 -> 151 ;
152 [label="cap-surface_w <= 0.5\ngini = 0.32\nsamples = 7\nvalue = [20, 5]\nclass = poisonous", fillcolor="#eca06a"] ;
151 -> 152 ;
153 [label="gini = 0.0\nsamples = 2\nvalue = [20, 0]\nclass = poisonous", fillcolor="#e58139"] ;
152 -> 153 ;
154 [label="gini = 0.0\nsamples = 5\nvalue = [0, 5]\nclass = edible", fillcolor="#399de5"] ;
152 -> 154 ;
155 [label="season_w <= 0.5\ngini = 0.082\nsamples = 450\nvalue = [20, 448]\nclass = edible", fillcolor="#42a1e6"] ;
151 -> 155 ;
156 [label="cap-diameter <= -0.678\ngini = 0.043\nsamples = 449\nvalue = [10, 448]\nclass = edible", fillcolor="#3d9fe6"] ;
155 -> 156 ;
157 [label="gini = 0.0\nsamples = 429\nvalue = [0, 429]\nclass = edible", fillcolor="#399de5"] ;
156 -> 157 ;
158 [label="stem-height <= -0.255\ngini = 0.452\nsamples = 20\nvalue = [10, 19]\nclass = edible", fillcolor="#a1d1f3"] ;
156 -> 158 ;
159 [label="gini = 0.0\nsamples = 19\nvalue = [0, 19]\nclass = edible", fillcolor="#399de5"] ;
158 -> 159 ;
160 [label="gini = 0.0\nsamples = 1\nvalue = [10, 0]\nclass = poisonous", fillcolor="#e58139"] ;
158 -> 160 ;
161 [label="gini = 0.0\nsamples = 1\nvalue = [10, 0]\nclass = poisonous", fillcolor="#e58139"] ;
155 -> 161 ;
162 [label="gini = 0.0\nsamples = 3\nvalue = [30, 0]\nclass = poisonous", fillcolor="#e58139"] ;
150 -> 162 ;
163 [label="cap-shape_x <= 0.5\ngini = 0.031\nsamples = 29\nvalue = [250, 4]\nclass = poisonous", fillcolor="#e5833c"] ;
149 -> 163 ;
164 [label="gini = 0.0\nsamples = 4\nvalue = [0, 4]\nclass = edible", fillcolor="#399de5"] ;
163 -> 164 ;
165 [label="gini = 0.0\nsamples = 25\nvalue = [250, 0]\nclass = poisonous", fillcolor="#e58139"] ;
163 -> 165 ;
166 [label="gini = 0.0\nsamples = 372\nvalue = [0, 372]\nclass = edible", fillcolor="#399de5"] ;
12 -> 166 ;
167 [label="stem-color_w <= 0.5\ngini = 0.497\nsamples = 1454\nvalue = [1510, 1303]\nclass = poisonous", fillcolor="#fbeee4"] ;
11 -> 167 ;
168 [label="stem-width <= -0.402\ngini = 0.161\nsamples = 1251\nvalue = [120.0, 1239.0]\nclass = edible", fillcolor="#4ca6e8"] ;
167 -> 168 ;
169 [label="gini = 0.0\nsamples = 1239\nvalue = [0, 1239]\nclass = edible", fillcolor="#399de5"] ;
168 -> 169 ;
170 [label="gini = 0.0\nsamples = 12\nvalue = [120, 0]\nclass = poisonous", fillcolor="#e58139"] ;
168 -> 170 ;
171 [label="cap-color_n <= 0.5\ngini = 0.084\nsamples = 203\nvalue = [1390, 64]\nclass = poisonous", fillcolor="#e68742"] ;
167 -> 171 ;
172 [label="gini = 0.0\nsamples = 64\nvalue = [0, 64]\nclass = edible", fillcolor="#399de5"] ;
171 -> 172 ;
173 [label="gini = 0.0\nsamples = 139\nvalue = [1390, 0]\nclass = poisonous", fillcolor="#e58139"] ;
171 -> 173 ;
174 [label="cap-diameter <= -0.867\ngini = 0.419\nsamples = 931\nvalue = [380.0, 893.0]\nclass = edible", fillcolor="#8dc7f0"] ;
10 -> 174 ;
175 [label="gini = 0.0\nsamples = 555\nvalue = [0, 555]\nclass = edible", fillcolor="#399de5"] ;
174 -> 175 ;
176 [label="stem-height <= -0.876\ngini = 0.498\nsamples = 376\nvalue = [380, 338]\nclass = poisonous", fillcolor="#fcf1e9"] ;
174 -> 176 ;
177 [label="cap-surface_d <= 0.5\ngini = 0.126\nsamples = 278\nvalue = [20, 276]\nclass = edible", fillcolor="#47a4e7"] ;
176 -> 177 ;
178 [label="gini = 0.0\nsamples = 276\nvalue = [0, 276]\nclass = edible", fillcolor="#399de5"] ;
177 -> 178 ;
179 [label="gini = 0.0\nsamples = 2\nvalue = [20, 0]\nclass = poisonous", fillcolor="#e58139"] ;
177 -> 179 ;
180 [label="gill-color_n <= 0.5\ngini = 0.251\nsamples = 98\nvalue = [360.0, 62.0]\nclass = poisonous", fillcolor="#e9975b"] ;
176 -> 180 ;
181 [label="gill-attachment_a <= 0.5\ngini = 0.095\nsamples = 55\nvalue = [360, 19]\nclass = poisonous", fillcolor="#e68843"] ;
180 -> 181 ;
182 [label="gini = 0.0\nsamples = 16\nvalue = [0, 16]\nclass = edible", fillcolor="#399de5"] ;
181 -> 182 ;
183 [label="stem-height <= -0.871\ngini = 0.016\nsamples = 39\nvalue = [360, 3]\nclass = poisonous", fillcolor="#e5823b"] ;
181 -> 183 ;
184 [label="season_u <= 0.5\ngini = 0.165\nsamples = 2\nvalue = [10, 1]\nclass = poisonous", fillcolor="#e88e4d"] ;
183 -> 184 ;
185 [label="gini = 0.0\nsamples = 1\nvalue = [0, 1]\nclass = edible", fillcolor="#399de5"] ;
184 -> 185 ;
186 [label="gini = 0.0\nsamples = 1\nvalue = [10, 0]\nclass = poisonous", fillcolor="#e58139"] ;
184 -> 186 ;
187 [label="cap-diameter <= -0.688\ngini = 0.011\nsamples = 37\nvalue = [350, 2]\nclass = poisonous", fillcolor="#e5823a"] ;
183 -> 187 ;
188 [label="gini = 0.0\nsamples = 28\nvalue = [280, 0]\nclass = poisonous", fillcolor="#e58139"] ;
187 -> 188 ;
189 [label="stem-color_o <= 0.5\ngini = 0.054\nsamples = 9\nvalue = [70, 2]\nclass = poisonous", fillcolor="#e6853f"] ;
187 -> 189 ;
190 [label="gini = 0.0\nsamples = 5\nvalue = [50, 0]\nclass = poisonous", fillcolor="#e58139"] ;
189 -> 190 ;
191 [label="stem-width <= -0.591\ngini = 0.165\nsamples = 4\nvalue = [20, 2]\nclass = poisonous", fillcolor="#e88e4d"] ;
189 -> 191 ;
192 [label="gini = 0.0\nsamples = 1\nvalue = [0, 1]\nclass = edible", fillcolor="#399de5"] ;
191 -> 192 ;
193 [label="gill-color_y <= 0.5\ngini = 0.091\nsamples = 3\nvalue = [20, 1]\nclass = poisonous", fillcolor="#e68743"] ;
191 -> 193 ;
194 [label="gini = 0.0\nsamples = 2\nvalue = [20, 0]\nclass = poisonous", fillcolor="#e58139"] ;
193 -> 194 ;
195 [label="gini = 0.0\nsamples = 1\nvalue = [0, 1]\nclass = edible", fillcolor="#399de5"] ;
193 -> 195 ;
196 [label="gini = 0.0\nsamples = 43\nvalue = [0, 43]\nclass = edible", fillcolor="#399de5"] ;
180 -> 196 ;
197 [label="gill-attachment_p <= 0.5\ngini = 0.044\nsamples = 864\nvalue = [20, 862]\nclass = edible", fillcolor="#3e9fe6"] ;
9 -> 197 ;
198 [label="gill-color_p <= 0.5\ngini = 0.023\nsamples = 863\nvalue = [10, 862]\nclass = edible", fillcolor="#3b9ee5"] ;
197 -> 198 ;
199 [label="gini = 0.0\nsamples = 862\nvalue = [0, 862]\nclass = edible", fillcolor="#399de5"] ;
198 -> 199 ;
200 [label="gini = 0.0\nsamples = 1\nvalue = [10, 0]\nclass = poisonous", fillcolor="#e58139"] ;
198 -> 200 ;
201 [label="gini = 0.0\nsamples = 1\nvalue = [10, 0]\nclass = poisonous", fillcolor="#e58139"] ;
197 -> 201 ;
202 [label="cap-color_r <= 0.5\ngini = 0.142\nsamples = 34619\nvalue = [188650, 15754]\nclass = poisonous", fillcolor="#e78c4a"] ;
8 -> 202 ;
203 [label="cap-color_e <= 0.5\ngini = 0.135\nsamples = 33421\nvalue = [187070, 14714]\nclass = poisonous", fillcolor="#e78b49"] ;
202 -> 203 ;
204 [label="stem-color_p <= 0.5\ngini = 0.123\nsamples = 31044\nvalue = [181820, 12862]\nclass = poisonous", fillcolor="#e78a47"] ;
203 -> 204 ;
205 [label="cap-shape_b <= 0.5\ngini = 0.118\nsamples = 30320\nvalue = [181010.0, 12219.0]\nclass = poisonous", fillcolor="#e78a46"] ;
204 -> 205 ;
206 [label="habitat_p <= 0.5\ngini = 0.109\nsamples = 28334\nvalue = [175480, 10786]\nclass = poisonous", fillcolor="#e78945"] ;
205 -> 206 ;
207 [label="stem-color_w <= 0.5\ngini = 0.108\nsamples = 28195\nvalue = [175480, 10647]\nclass = poisonous", fillcolor="#e78945"] ;
206 -> 207 ;
208 [label="cap-surface_e <= 0.5\ngini = 0.148\nsamples = 15981\nvalue = [85280, 7453]\nclass = poisonous", fillcolor="#e78c4a"] ;
207 -> 208 ;
209 [label="gill-attachment_d <= 0.5\ngini = 0.138\nsamples = 15414\nvalue = [85280, 6886]\nclass = poisonous", fillcolor="#e78b49"] ;
208 -> 209 ;
210 [label="cap-surface_i <= 0.5\ngini = 0.111\nsamples = 13070\nvalue = [80220, 5048]\nclass = poisonous", fillcolor="#e78945"] ;
209 -> 210 ;
211 [label="stem-width <= -0.768\ngini = 0.106\nsamples = 12814\nvalue = [80220, 4792]\nclass = poisonous", fillcolor="#e78945"] ;
210 -> 211 ;
212 [label="gill-attachment_x <= 0.5\ngini = 0.388\nsamples = 786\nvalue = [1720.0, 614.0]\nclass = poisonous", fillcolor="#eeae80"] ;
211 -> 212 ;
213 [label="ring-type_r <= 0.5\ngini = 0.196\nsamples = 380\nvalue = [1700, 210]\nclass = poisonous", fillcolor="#e89151"] ;
212 -> 213 ;
214 [label="stem-color_u <= 0.5\ngini = 0.014\nsamples = 182\nvalue = [1700, 12]\nclass = poisonous", fillcolor="#e5823a"] ;
213 -> 214 ;
215 [label="gini = 0.0\nsamples = 170\nvalue = [1700, 0]\nclass = poisonous", fillcolor="#e58139"] ;
214 -> 215 ;
216 [label="gini = 0.0\nsamples = 12\nvalue = [0, 12]\nclass = edible", fillcolor="#399de5"] ;
214 -> 216 ;
217 [label="gini = 0.0\nsamples = 198\nvalue = [0, 198]\nclass = edible", fillcolor="#399de5"] ;
213 -> 217 ;
218 [label="ring-type_f <= 0.5\ngini = 0.09\nsamples = 406\nvalue = [20, 404]\nclass = edible", fillcolor="#43a2e6"] ;
212 -> 218 ;
219 [label="gini = 0.0\nsamples = 2\nvalue = [20, 0]\nclass = poisonous", fillcolor="#e58139"] ;
218 -> 219 ;
220 [label="gini = 0.0\nsamples = 404\nvalue = [0, 404]\nclass = edible", fillcolor="#399de5"] ;
218 -> 220 ;
221 [label="cap-color_u <= 0.5\ngini = 0.096\nsamples = 12028\nvalue = [78500, 4178]\nclass = poisonous", fillcolor="#e68844"] ;
211 -> 221 ;
222 [label="stem-color_y <= 0.5\ngini = 0.088\nsamples = 11516\nvalue = [77500, 3766]\nclass = poisonous", fillcolor="#e68743"] ;
221 -> 222 ;
223 [label="stem-width <= -0.331\ngini = 0.07\nsamples = 8973\nvalue = [65070, 2466]\nclass = poisonous", fillcolor="#e68641"] ;
222 -> 223 ;
224 [label="gill-attachment_s <= 0.5\ngini = 0.15\nsamples = 1991\nvalue = [10550, 936]\nclass = poisonous", fillcolor="#e78c4b"] ;
223 -> 224 ;
225 [label="stem-height <= 1.142\ngini = 0.109\nsamples = 1662\nvalue = [10290, 633]\nclass = poisonous", fillcolor="#e78945"] ;
224 -> 225 ;
226 [label="cap-surface_l <= 0.5\ngini = 0.089\nsamples = 1535\nvalue = [10290.0, 506.0]\nclass = poisonous", fillcolor="#e68743"] ;
225 -> 226 ;
227 [label="habitat_g <= 0.5\ngini = 0.075\nsamples = 1447\nvalue = [10290.0, 418.0]\nclass = poisonous", fillcolor="#e68641"] ;
226 -> 227 ;
228 [label="gill-color_p <= 0.5\ngini = 0.022\nsamples = 1037\nvalue = [9340, 103]\nclass = poisonous", fillcolor="#e5823b"] ;
227 -> 228 ;
229 [label="stem-color_k <= 0.5\ngini = 0.011\nsamples = 974\nvalue = [9210, 53]\nclass = poisonous", fillcolor="#e5823a"] ;
228 -> 229 ;
230 [label="cap-surface_d <= 0.5\ngini = 0.01\nsamples = 969\nvalue = [9210, 48]\nclass = poisonous", fillcolor="#e5823a"] ;
229 -> 230 ;
231 [label="cap-surface_w <= 0.5\ngini = 0.004\nsamples = 918\nvalue = [9000, 18]\nclass = poisonous", fillcolor="#e58139"] ;
230 -> 231 ;
232 [label="habitat_h <= 0.5\ngini = 0.003\nsamples = 915\nvalue = [9000, 15]\nclass = poisonous", fillcolor="#e58139"] ;
231 -> 232 ;
233 [label="cap-color_k <= 0.5\ngini = 0.003\nsamples = 913\nvalue = [9000, 13]\nclass = poisonous", fillcolor="#e58139"] ;
232 -> 233 ;
234 [label="gill-color_k <= 0.5\ngini = 0.003\nsamples = 912\nvalue = [9000, 12]\nclass = poisonous", fillcolor="#e58139"] ;
233 -> 234 ;
235 [label="cap-surface_y <= 0.5\ngini = 0.002\nsamples = 911\nvalue = [9000.0, 11.0]\nclass = poisonous", fillcolor="#e58139"] ;
234 -> 235 ;
236 [label="gill-attachment_e <= 0.5\ngini = 0.002\nsamples = 901\nvalue = [8930, 8]\nclass = poisonous", fillcolor="#e58139"] ;
235 -> 236 ;
237 [label="stem-height <= 0.979\ngini = 0.001\nsamples = 897\nvalue = [8910, 6]\nclass = poisonous", fillcolor="#e58139"] ;
236 -> 237 ;
238 [label="cap-diameter <= -0.648\ngini = 0.001\nsamples = 895\nvalue = [8900, 5]\nclass = poisonous", fillcolor="#e58139"] ;
237 -> 238 ;
239 [label="stem-color_r <= 0.5\ngini = 0.03\nsamples = 30\nvalue = [260, 4]\nclass = poisonous", fillcolor="#e5833c"] ;
238 -> 239 ;
240 [label="gini = 0.0\nsamples = 26\nvalue = [260, 0]\nclass = poisonous", fillcolor="#e58139"] ;
239 -> 240 ;
241 [label="gini = 0.0\nsamples = 4\nvalue = [0, 4]\nclass = edible", fillcolor="#399de5"] ;
239 -> 241 ;
242 [label="stem-height <= -0.916\ngini = 0.0\nsamples = 865\nvalue = [8640, 1]\nclass = poisonous", fillcolor="#e58139"] ;
238 -> 242 ;
243 [label="cap-surface_s <= 0.5\ngini = 0.062\nsamples = 4\nvalue = [30, 1]\nclass = poisonous", fillcolor="#e68540"] ;
242 -> 243 ;
244 [label="gini = 0.0\nsamples = 3\nvalue = [30, 0]\nclass = poisonous", fillcolor="#e58139"] ;
243 -> 244 ;
245 [label="gini = 0.0\nsamples = 1\nvalue = [0, 1]\nclass = edible", fillcolor="#399de5"] ;
243 -> 245 ;
246 [label="gini = 0.0\nsamples = 861\nvalue = [8610, 0]\nclass = poisonous", fillcolor="#e58139"] ;
242 -> 246 ;
247 [label="cap-surface_t <= 0.5\ngini = 0.165\nsamples = 2\nvalue = [10, 1]\nclass = poisonous", fillcolor="#e88e4d"] ;
237 -> 247 ;
248 [label="gini = 0.0\nsamples = 1\nvalue = [10, 0]\nclass = poisonous", fillcolor="#e58139"] ;
247 -> 248 ;
249 [label="gini = 0.0\nsamples = 1\nvalue = [0, 1]\nclass = edible", fillcolor="#399de5"] ;
247 -> 249 ;
250 [label="cap-color_o <= 0.5\ngini = 0.165\nsamples = 4\nvalue = [20, 2]\nclass = poisonous", fillcolor="#e88e4d"] ;
236 -> 250 ;
251 [label="gini = 0.0\nsamples = 2\nvalue = [20, 0]\nclass = poisonous", fillcolor="#e58139"] ;
250 -> 251 ;
252 [label="gini = 0.0\nsamples = 2\nvalue = [0, 2]\nclass = edible", fillcolor="#399de5"] ;
250 -> 252 ;
253 [label="gill-attachment_a <= 0.5\ngini = 0.079\nsamples = 10\nvalue = [70, 3]\nclass = poisonous", fillcolor="#e68641"] ;
235 -> 253 ;
254 [label="gini = 0.0\nsamples = 7\nvalue = [70, 0]\nclass = poisonous", fillcolor="#e58139"] ;
253 -> 254 ;
255 [label="gini = 0.0\nsamples = 3\nvalue = [0, 3]\nclass = edible", fillcolor="#399de5"] ;
253 -> 255 ;
256 [label="gini = 0.0\nsamples = 1\nvalue = [0, 1]\nclass = edible", fillcolor="#399de5"] ;
234 -> 256 ;
257 [label="gini = 0.0\nsamples = 1\nvalue = [0, 1]\nclass = edible", fillcolor="#399de5"] ;
233 -> 257 ;
258 [label="gini = 0.0\nsamples = 2\nvalue = [0, 2]\nclass = edible", fillcolor="#399de5"] ;
232 -> 258 ;
259 [label="gini = 0.0\nsamples = 3\nvalue = [0, 3]\nclass = edible", fillcolor="#399de5"] ;
231 -> 259 ;
260 [label="has-ring_t <= 0.5\ngini = 0.219\nsamples = 51\nvalue = [210, 30]\nclass = poisonous", fillcolor="#e99355"] ;
230 -> 260 ;
261 [label="stem-color_r <= 0.5\ngini = 0.028\nsamples = 24\nvalue = [210, 3]\nclass = poisonous", fillcolor="#e5833c"] ;
260 -> 261 ;
262 [label="gini = 0.0\nsamples = 21\nvalue = [210, 0]\nclass = poisonous", fillcolor="#e58139"] ;
261 -> 262 ;
263 [label="gini = 0.0\nsamples = 3\nvalue = [0, 3]\nclass = edible", fillcolor="#399de5"] ;
261 -> 263 ;
264 [label="gini = 0.0\nsamples = 27\nvalue = [0, 27]\nclass = edible", fillcolor="#399de5"] ;
260 -> 264 ;
265 [label="gini = 0.0\nsamples = 5\nvalue = [0, 5]\nclass = edible", fillcolor="#399de5"] ;
229 -> 265 ;
266 [label="gill-attachment_x <= 0.5\ngini = 0.401\nsamples = 63\nvalue = [130, 50]\nclass = poisonous", fillcolor="#efb185"] ;
228 -> 266 ;
267 [label="gini = 0.0\nsamples = 13\nvalue = [130, 0]\nclass = poisonous", fillcolor="#e58139"] ;
266 -> 267 ;
268 [label="gini = 0.0\nsamples = 50\nvalue = [0, 50]\nclass = edible", fillcolor="#399de5"] ;
266 -> 268 ;
269 [label="gill-color_y <= 0.5\ngini = 0.374\nsamples = 410\nvalue = [950, 315]\nclass = poisonous", fillcolor="#eeab7b"] ;
227 -> 269 ;
270 [label="cap-shape_x <= 0.5\ngini = 0.067\nsamples = 129\nvalue = [950, 34]\nclass = poisonous", fillcolor="#e68640"] ;
269 -> 270 ;
271 [label="gini = 0.0\nsamples = 23\nvalue = [0, 23]\nclass = edible", fillcolor="#399de5"] ;
270 -> 271 ;
272 [label="gill-attachment_e <= 0.5\ngini = 0.023\nsamples = 106\nvalue = [950, 11]\nclass = poisonous", fillcolor="#e5823b"] ;
270 -> 272 ;
273 [label="gini = 0.0\nsamples = 95\nvalue = [950, 0]\nclass = poisonous", fillcolor="#e58139"] ;
272 -> 273 ;
274 [label="gini = 0.0\nsamples = 11\nvalue = [0, 11]\nclass = edible", fillcolor="#399de5"] ;
272 -> 274 ;
275 [label="gini = 0.0\nsamples = 281\nvalue = [0, 281]\nclass = edible", fillcolor="#399de5"] ;
269 -> 275 ;
276 [label="gini = 0.0\nsamples = 88\nvalue = [0, 88]\nclass = edible", fillcolor="#399de5"] ;
226 -> 276 ;
277 [label="gini = 0.0\nsamples = 127\nvalue = [0, 127]\nclass = edible", fillcolor="#399de5"] ;
225 -> 277 ;
278 [label="cap-shape_f <= 0.5\ngini = 0.497\nsamples = 329\nvalue = [260, 303]\nclass = edible", fillcolor="#e3f1fb"] ;
224 -> 278 ;
279 [label="gini = 0.0\nsamples = 303\nvalue = [0, 303]\nclass = edible", fillcolor="#399de5"] ;
278 -> 279 ;
280 [label="gini = 0.0\nsamples = 26\nvalue = [260, 0]\nclass = poisonous", fillcolor="#e58139"] ;
278 -> 280 ;
281 [label="ring-type_r <= 0.5\ngini = 0.053\nsamples = 6982\nvalue = [54520, 1530]\nclass = poisonous", fillcolor="#e6853f"] ;
223 -> 281 ;
282 [label="stem-height <= -0.822\ngini = 0.051\nsamples = 6930\nvalue = [54520, 1478]\nclass = poisonous", fillcolor="#e6843e"] ;
281 -> 282 ;
283 [label="gill-color_f <= 0.5\ngini = 0.247\nsamples = 215\nvalue = [800, 135]\nclass = poisonous", fillcolor="#e9965a"] ;
282 -> 283 ;
284 [label="does-bruise-or-bleed_f <= 0.5\ngini = 0.019\nsamples = 79\nvalue = [720, 7]\nclass = poisonous", fillcolor="#e5823b"] ;
283 -> 284 ;
285 [label="gini = 0.0\nsamples = 4\nvalue = [0, 4]\nclass = edible", fillcolor="#399de5"] ;
284 -> 285 ;
286 [label="stem-width <= 1.371\ngini = 0.008\nsamples = 75\nvalue = [720, 3]\nclass = poisonous", fillcolor="#e5823a"] ;
284 -> 286 ;
287 [label="gini = 0.0\nsamples = 72\nvalue = [720, 0]\nclass = poisonous", fillcolor="#e58139"] ;
286 -> 287 ;
288 [label="gini = 0.0\nsamples = 3\nvalue = [0, 3]\nclass = edible", fillcolor="#399de5"] ;
286 -> 288 ;
289 [label="cap-shape_o <= 0.5\ngini = 0.473\nsamples = 136\nvalue = [80, 128]\nclass = edible", fillcolor="#b5daf5"] ;
283 -> 289 ;
290 [label="gini = 0.0\nsamples = 6\nvalue = [60, 0]\nclass = poisonous", fillcolor="#e58139"] ;
289 -> 290 ;
291 [label="stem-width <= 0.656\ngini = 0.234\nsamples = 130\nvalue = [20, 128]\nclass = edible", fillcolor="#58ace9"] ;
289 -> 291 ;
292 [label="cap-color_n <= 0.5\ngini = 0.47\nsamples = 35\nvalue = [20, 33]\nclass = edible", fillcolor="#b1d8f5"] ;
291 -> 292 ;
293 [label="gini = 0.0\nsamples = 33\nvalue = [0, 33]\nclass = edible", fillcolor="#399de5"] ;
292 -> 293 ;
294 [label="gini = 0.0\nsamples = 2\nvalue = [20, 0]\nclass = poisonous", fillcolor="#e58139"] ;
292 -> 294 ;
295 [label="gini = 0.0\nsamples = 95\nvalue = [0, 95]\nclass = edible", fillcolor="#399de5"] ;
291 -> 295 ;
296 [label="gill-color_p <= 0.5\ngini = 0.048\nsamples = 6715\nvalue = [53720, 1343]\nclass = poisonous", fillcolor="#e6843e"] ;
282 -> 296 ;
297 [label="cap-color_k <= 0.5\ngini = 0.04\nsamples = 6109\nvalue = [50580, 1051]\nclass = poisonous", fillcolor="#e6843d"] ;
296 -> 297 ;
298 [label="cap-shape_x <= 0.5\ngini = 0.037\nsamples = 5967\nvalue = [49990.0, 968.0]\nclass = poisonous", fillcolor="#e6833d"] ;
297 -> 298 ;
299 [label="stem-color_e <= 0.5\ngini = 0.017\nsamples = 3039\nvalue = [27940, 245]\nclass = poisonous", fillcolor="#e5823b"] ;
298 -> 299 ;
300 [label="cap-surface_d <= 0.5\ngini = 0.015\nsamples = 3004\nvalue = [27940, 210]\nclass = poisonous", fillcolor="#e5823a"] ;
299 -> 300 ;
301 [label="gill-attachment_p <= 0.5\ngini = 0.014\nsamples = 2988\nvalue = [27940, 194]\nclass = poisonous", fillcolor="#e5823a"] ;
300 -> 301 ;
302 [label="cap-surface_w <= 0.5\ngini = 0.006\nsamples = 2444\nvalue = [23740, 70]\nclass = poisonous", fillcolor="#e5813a"] ;
301 -> 302 ;
303 [label="cap-diameter <= -0.661\ngini = 0.006\nsamples = 2442\nvalue = [23740, 68]\nclass = poisonous", fillcolor="#e5813a"] ;
302 -> 303 ;
304 [label="gini = 0.0\nsamples = 2\nvalue = [0, 2]\nclass = edible", fillcolor="#399de5"] ;
303 -> 304 ;
305 [label="stem-height <= -0.697\ngini = 0.006\nsamples = 2440\nvalue = [23740, 66]\nclass = poisonous", fillcolor="#e5813a"] ;
303 -> 305 ;
306 [label="cap-diameter <= 0.625\ngini = 0.068\nsamples = 93\nvalue = [680.0, 25.0]\nclass = poisonous", fillcolor="#e68640"] ;
305 -> 306 ;
307 [label="cap-diameter <= -0.603\ngini = 0.034\nsamples = 80\nvalue = [680.0, 12.0]\nclass = poisonous", fillcolor="#e5833c"] ;
306 -> 307 ;
308 [label="cap-color_n <= 0.5\ngini = 0.444\nsamples = 6\nvalue = [10, 5]\nclass = poisonous", fillcolor="#f2c09c"] ;
307 -> 308 ;
309 [label="gini = 0.0\nsamples = 5\nvalue = [0, 5]\nclass = edible", fillcolor="#399de5"] ;
308 -> 309 ;
310 [label="gini = 0.0\nsamples = 1\nvalue = [10, 0]\nclass = poisonous", fillcolor="#e58139"] ;
308 -> 310 ;
311 [label="stem-width <= 1.171\ngini = 0.02\nsamples = 74\nvalue = [670, 7]\nclass = poisonous", fillcolor="#e5823b"] ;
307 -> 311 ;
312 [label="cap-diameter <= -0.568\ngini = 0.003\nsamples = 64\nvalue = [630, 1]\nclass = poisonous", fillcolor="#e58139"] ;
311 -> 312 ;
313 [label="cap-diameter <= -0.597\ngini = 0.165\nsamples = 2\nvalue = [10, 1]\nclass = poisonous", fillcolor="#e88e4d"] ;
312 -> 313 ;
314 [label="gini = 0.0\nsamples = 1\nvalue = [10, 0]\nclass = poisonous", fillcolor="#e58139"] ;
313 -> 314 ;
315 [label="gini = 0.0\nsamples = 1\nvalue = [0, 1]\nclass = edible", fillcolor="#399de5"] ;
313 -> 315 ;
316 [label="gini = 0.0\nsamples = 62\nvalue = [620, 0]\nclass = poisonous", fillcolor="#e58139"] ;
312 -> 316 ;
317 [label="cap-diameter <= 0.362\ngini = 0.227\nsamples = 10\nvalue = [40, 6]\nclass = poisonous", fillcolor="#e99457"] ;
311 -> 317 ;
318 [label="stem-height <= -0.788\ngini = 0.048\nsamples = 5\nvalue = [40, 1]\nclass = poisonous", fillcolor="#e6843e"] ;
317 -> 318 ;
319 [label="gini = 0.0\nsamples = 1\nvalue = [0, 1]\nclass = edible", fillcolor="#399de5"] ;
318 -> 319 ;
320 [label="gini = 0.0\nsamples = 4\nvalue = [40, 0]\nclass = poisonous", fillcolor="#e58139"] ;
318 -> 320 ;
321 [label="gini = 0.0\nsamples = 5\nvalue = [0, 5]\nclass = edible", fillcolor="#399de5"] ;
317 -> 321 ;
322 [label="gini = 0.0\nsamples = 13\nvalue = [0, 13]\nclass = edible", fillcolor="#399de5"] ;
306 -> 322 ;
323 [label="gill-color_y <= 0.5\ngini = 0.004\nsamples = 2347\nvalue = [23060, 41]\nclass = poisonous", fillcolor="#e58139"] ;
305 -> 323 ;
324 [label="stem-height <= -0.525\ngini = 0.001\nsamples = 2170\nvalue = [21590, 11]\nclass = poisonous", fillcolor="#e58139"] ;
323 -> 324 ;
325 [label="cap-diameter <= 0.808\ngini = 0.013\nsamples = 143\nvalue = [1340, 9]\nclass = poisonous", fillcolor="#e5823a"] ;
324 -> 325 ;
326 [label="cap-diameter <= -0.6\ngini = 0.006\nsamples = 138\nvalue = [1340, 4]\nclass = poisonous", fillcolor="#e5813a"] ;
325 -> 326 ;
327 [label="gini = 0.0\nsamples = 1\nvalue = [0, 1]\nclass = edible", fillcolor="#399de5"] ;
326 -> 327 ;
328 [label="stem-width <= 1.347\ngini = 0.004\nsamples = 137\nvalue = [1340, 3]\nclass = poisonous", fillcolor="#e58139"] ;
326 -> 328 ;
329 [label="gini = 0.0\nsamples = 131\nvalue = [1310, 0]\nclass = poisonous", fillcolor="#e58139"] ;
328 -> 329 ;
330 [label="stem-width <= 1.375\ngini = 0.165\nsamples = 6\nvalue = [30, 3]\nclass = poisonous", fillcolor="#e88e4d"] ;
328 -> 330 ;
331 [label="gini = 0.0\nsamples = 2\nvalue = [0, 2]\nclass = edible", fillcolor="#399de5"] ;
330 -> 331 ;
332 [label="cap-diameter <= 0.598\ngini = 0.062\nsamples = 4\nvalue = [30, 1]\nclass = poisonous", fillcolor="#e68540"] ;
330 -> 332 ;
333 [label="gini = 0.0\nsamples = 3\nvalue = [30, 0]\nclass = poisonous", fillcolor="#e58139"] ;
332 -> 333 ;
334 [label="gini = 0.0\nsamples = 1\nvalue = [0, 1]\nclass = edible", fillcolor="#399de5"] ;
332 -> 334 ;
335 [label="gini = 0.0\nsamples = 5\nvalue = [0, 5]\nclass = edible", fillcolor="#399de5"] ;
325 -> 335 ;
336 [label="stem-width <= -0.235\ngini = 0.0\nsamples = 2027\nvalue = [20250, 2]\nclass = poisonous", fillcolor="#e58139"] ;
324 -> 336 ;
337 [label="stem-height <= 1.576\ngini = 0.004\nsamples = 108\nvalue = [1060, 2]\nclass = poisonous", fillcolor="#e58139"] ;
336 -> 337 ;
338 [label="gini = 0.0\nsamples = 106\nvalue = [1060, 0]\nclass = poisonous", fillcolor="#e58139"] ;
337 -> 338 ;
339 [label="gini = 0.0\nsamples = 2\nvalue = [0, 2]\nclass = edible", fillcolor="#399de5"] ;
337 -> 339 ;
340 [label="gini = 0.0\nsamples = 1919\nvalue = [19190, 0]\nclass = poisonous", fillcolor="#e58139"] ;
336 -> 340 ;
341 [label="cap-color_y <= 0.5\ngini = 0.039\nsamples = 177\nvalue = [1470, 30]\nclass = poisonous", fillcolor="#e6843d"] ;
323 -> 341 ;
342 [label="gini = 0.0\nsamples = 147\nvalue = [1470, 0]\nclass = poisonous", fillcolor="#e58139"] ;
341 -> 342 ;
343 [label="gini = 0.0\nsamples = 30\nvalue = [0, 30]\nclass = edible", fillcolor="#399de5"] ;
341 -> 343 ;
344 [label="gini = 0.0\nsamples = 2\nvalue = [0, 2]\nclass = edible", fillcolor="#399de5"] ;
302 -> 344 ;
345 [label="cap-shape_f <= 0.5\ngini = 0.056\nsamples = 544\nvalue = [4200, 124]\nclass = poisonous", fillcolor="#e6853f"] ;
301 -> 345 ;
346 [label="cap-diameter <= 1.027\ngini = 0.033\nsamples = 492\nvalue = [4200, 72]\nclass = poisonous", fillcolor="#e5833c"] ;
345 -> 346 ;
347 [label="stem-width <= 2.694\ngini = 0.418\nsamples = 74\nvalue = [30, 71]\nclass = edible", fillcolor="#8dc6f0"] ;
346 -> 347 ;
348 [label="gini = 0.0\nsamples = 71\nvalue = [0, 71]\nclass = edible", fillcolor="#399de5"] ;
347 -> 348 ;
349 [label="gini = 0.0\nsamples = 3\nvalue = [30, 0]\nclass = poisonous", fillcolor="#e58139"] ;
347 -> 349 ;
350 [label="cap-diameter <= 1.2\ngini = 0.0\nsamples = 418\nvalue = [4170, 1]\nclass = poisonous", fillcolor="#e58139"] ;
346 -> 350 ;
351 [label="cap-diameter <= 1.182\ngini = 0.038\nsamples = 6\nvalue = [50, 1]\nclass = poisonous", fillcolor="#e6843d"] ;
350 -> 351 ;
352 [label="gini = 0.0\nsamples = 5\nvalue = [50, 0]\nclass = poisonous", fillcolor="#e58139"] ;
351 -> 352 ;
353 [label="gini = 0.0\nsamples = 1\nvalue = [0, 1]\nclass = edible", fillcolor="#399de5"] ;
351 -> 353 ;
354 [label="gini = 0.0\nsamples = 412\nvalue = [4120, 0]\nclass = poisonous", fillcolor="#e58139"] ;
350 -> 354 ;
355 [label="gini = 0.0\nsamples = 52\nvalue = [0, 52]\nclass = edible", fillcolor="#399de5"] ;
345 -> 355 ;
356 [label="gini = 0.0\nsamples = 16\nvalue = [0, 16]\nclass = edible", fillcolor="#399de5"] ;
300 -> 356 ;
357 [label="gini = 0.0\nsamples = 35\nvalue = [0, 35]\nclass = edible", fillcolor="#399de5"] ;
299 -> 357 ;
358 [label="gill-color_u <= 0.5\ngini = 0.061\nsamples = 2928\nvalue = [22050, 723]\nclass = poisonous", fillcolor="#e6853f"] ;
298 -> 358 ;
359 [label="gill-attachment_s <= 0.5\ngini = 0.054\nsamples = 2830\nvalue = [22050, 625]\nclass = poisonous", fillcolor="#e6853f"] ;
358 -> 359 ;
360 [label="stem-color_u <= 0.5\ngini = 0.035\nsamples = 2541\nvalue = [21510, 390]\nclass = poisonous", fillcolor="#e5833d"] ;
359 -> 360 ;
361 [label="cap-surface_g <= 0.5\ngini = 0.031\nsamples = 2496\nvalue = [21510.0, 345.0]\nclass = poisonous", fillcolor="#e5833c"] ;
360 -> 361 ;
362 [label="stem-color_o <= 0.5\ngini = 0.029\nsamples = 2473\nvalue = [21510, 322]\nclass = poisonous", fillcolor="#e5833c"] ;
361 -> 362 ;
363 [label="stem-height <= 0.781\ngini = 0.028\nsamples = 2461\nvalue = [21510, 310]\nclass = poisonous", fillcolor="#e5833c"] ;
362 -> 363 ;
364 [label="cap-diameter <= 1.573\ngini = 0.013\nsamples = 1958\nvalue = [18390.0, 119.0]\nclass = poisonous", fillcolor="#e5823a"] ;
363 -> 364 ;
365 [label="stem-width <= 1.608\ngini = 0.007\nsamples = 1907\nvalue = [18390, 68]\nclass = poisonous", fillcolor="#e5813a"] ;
364 -> 365 ;
366 [label="stem-color_k <= 0.5\ngini = 0.006\nsamples = 1897\nvalue = [18370, 60]\nclass = poisonous", fillcolor="#e5813a"] ;
365 -> 366 ;
367 [label="stem-height <= 0.577\ngini = 0.006\nsamples = 1896\nvalue = [18370.0, 59.0]\nclass = poisonous", fillcolor="#e5813a"] ;
366 -> 367 ;
368 [label="cap-color_g <= 0.5\ngini = 0.004\nsamples = 1734\nvalue = [17040.0, 30.0]\nclass = poisonous", fillcolor="#e58139"] ;
367 -> 368 ;
369 [label="stem-width <= 1.333\ngini = 0.003\nsamples = 1687\nvalue = [16660, 21]\nclass = poisonous", fillcolor="#e58139"] ;
368 -> 369 ;
370 [label="gill-attachment_a <= 0.5\ngini = 0.002\nsamples = 1657\nvalue = [16400, 17]\nclass = poisonous", fillcolor="#e58139"] ;
369 -> 370 ;
371 [label="stem-color_g <= 0.5\ngini = 0.001\nsamples = 1478\nvalue = [14700, 8]\nclass = poisonous", fillcolor="#e58139"] ;
370 -> 371 ;
372 [label="stem-width <= 1.08\ngini = 0.001\nsamples = 1475\nvalue = [14700, 5]\nclass = poisonous", fillcolor="#e58139"] ;
371 -> 372 ;
373 [label="stem-width <= 0.609\ngini = 0.0\nsamples = 1457\nvalue = [14540, 3]\nclass = poisonous", fillcolor="#e58139"] ;
372 -> 373 ;
374 [label="gini = 0.0\nsamples = 1266\nvalue = [12660, 0]\nclass = poisonous", fillcolor="#e58139"] ;
373 -> 374 ;
375 [label="cap-diameter <= 0.056\ngini = 0.003\nsamples = 191\nvalue = [1880, 3]\nclass = poisonous", fillcolor="#e58139"] ;
373 -> 375 ;
376 [label="gini = 0.0\nsamples = 1\nvalue = [0, 1]\nclass = edible", fillcolor="#399de5"] ;
375 -> 376 ;
377 [label="gill-color_w <= 0.5\ngini = 0.002\nsamples = 190\nvalue = [1880.0, 2.0]\nclass = poisonous", fillcolor="#e58139"] ;
375 -> 377 ;
378 [label="cap-diameter <= 0.311\ngini = 0.001\nsamples = 189\nvalue = [1880, 1]\nclass = poisonous", fillcolor="#e58139"] ;
377 -> 378 ;
379 [label="gill-attachment_p <= 0.5\ngini = 0.048\nsamples = 5\nvalue = [40, 1]\nclass = poisonous", fillcolor="#e6843e"] ;
378 -> 379 ;
380 [label="gini = 0.0\nsamples = 1\nvalue = [0, 1]\nclass = edible", fillcolor="#399de5"] ;
379 -> 380 ;
381 [label="gini = 0.0\nsamples = 4\nvalue = [40, 0]\nclass = poisonous", fillcolor="#e58139"] ;
379 -> 381 ;
382 [label="gini = 0.0\nsamples = 184\nvalue = [1840, 0]\nclass = poisonous", fillcolor="#e58139"] ;
378 -> 382 ;
383 [label="gini = 0.0\nsamples = 1\nvalue = [0, 1]\nclass = edible", fillcolor="#399de5"] ;
377 -> 383 ;
384 [label="gill-color_w <= 0.5\ngini = 0.024\nsamples = 18\nvalue = [160, 2]\nclass = poisonous", fillcolor="#e5833b"] ;
372 -> 384 ;
385 [label="gini = 0.0\nsamples = 16\nvalue = [160, 0]\nclass = poisonous", fillcolor="#e58139"] ;
384 -> 385 ;
386 [label="gini = 0.0\nsamples = 2\nvalue = [0, 2]\nclass = edible", fillcolor="#399de5"] ;
384 -> 386 ;
387 [label="gini = 0.0\nsamples = 3\nvalue = [0, 3]\nclass = edible", fillcolor="#399de5"] ;
371 -> 387 ;
388 [label="gill-color_n <= 0.5\ngini = 0.01\nsamples = 179\nvalue = [1700, 9]\nclass = poisonous", fillcolor="#e5823a"] ;
370 -> 388 ;
389 [label="gill-color_y <= 0.5\ngini = 0.005\nsamples = 174\nvalue = [1700, 4]\nclass = poisonous", fillcolor="#e58139"] ;
388 -> 389 ;
390 [label="gini = 0.0\nsamples = 170\nvalue = [1700, 0]\nclass = poisonous", fillcolor="#e58139"] ;
389 -> 390 ;
391 [label="gini = 0.0\nsamples = 4\nvalue = [0, 4]\nclass = edible", fillcolor="#399de5"] ;
389 -> 391 ;
392 [label="gini = 0.0\nsamples = 5\nvalue = [0, 5]\nclass = edible", fillcolor="#399de5"] ;
388 -> 392 ;
393 [label="gill-attachment_p <= 0.5\ngini = 0.03\nsamples = 30\nvalue = [260, 4]\nclass = poisonous", fillcolor="#e5833c"] ;
369 -> 393 ;
394 [label="gini = 0.0\nsamples = 26\nvalue = [260, 0]\nclass = poisonous", fillcolor="#e58139"] ;
393 -> 394 ;
395 [label="gini = 0.0\nsamples = 4\nvalue = [0, 4]\nclass = edible", fillcolor="#399de5"] ;
393 -> 395 ;
396 [label="gill-color_n <= 0.5\ngini = 0.045\nsamples = 47\nvalue = [380, 9]\nclass = poisonous", fillcolor="#e6843e"] ;
368 -> 396 ;
397 [label="gini = 0.0\nsamples = 38\nvalue = [380, 0]\nclass = poisonous", fillcolor="#e58139"] ;
396 -> 397 ;
398 [label="gini = 0.0\nsamples = 9\nvalue = [0, 9]\nclass = edible", fillcolor="#399de5"] ;
396 -> 398 ;
399 [label="cap-surface_y <= 0.5\ngini = 0.042\nsamples = 162\nvalue = [1330, 29]\nclass = poisonous", fillcolor="#e6843d"] ;
367 -> 399 ;
400 [label="gill-attachment_x <= 0.5\ngini = 0.023\nsamples = 145\nvalue = [1300, 15]\nclass = poisonous", fillcolor="#e5823b"] ;
399 -> 400 ;
401 [label="stem-width <= 1.281\ngini = 0.003\nsamples = 121\nvalue = [1190, 2]\nclass = poisonous", fillcolor="#e58139"] ;
400 -> 401 ;
402 [label="stem-width <= 1.145\ngini = 0.002\nsamples = 120\nvalue = [1190, 1]\nclass = poisonous", fillcolor="#e58139"] ;
401 -> 402 ;
403 [label="gini = 0.0\nsamples = 117\nvalue = [1170, 0]\nclass = poisonous", fillcolor="#e58139"] ;
402 -> 403 ;
404 [label="gill-color_y <= 0.5\ngini = 0.091\nsamples = 3\nvalue = [20, 1]\nclass = poisonous", fillcolor="#e68743"] ;
402 -> 404 ;
405 [label="gini = 0.0\nsamples = 1\nvalue = [0, 1]\nclass = edible", fillcolor="#399de5"] ;
404 -> 405 ;
406 [label="gini = 0.0\nsamples = 2\nvalue = [20, 0]\nclass = poisonous", fillcolor="#e58139"] ;
404 -> 406 ;
407 [label="gini = 0.0\nsamples = 1\nvalue = [0, 1]\nclass = edible", fillcolor="#399de5"] ;
401 -> 407 ;
408 [label="does-bruise-or-bleed_t <= 0.5\ngini = 0.189\nsamples = 24\nvalue = [110, 13]\nclass = poisonous", fillcolor="#e89050"] ;
400 -> 408 ;
409 [label="gini = 0.0\nsamples = 11\nvalue = [110, 0]\nclass = poisonous", fillcolor="#e58139"] ;
408 -> 409 ;
410 [label="gini = 0.0\nsamples = 13\nvalue = [0, 13]\nclass = edible", fillcolor="#399de5"] ;
408 -> 410 ;
411 [label="ring-type_f <= 0.5\ngini = 0.434\nsamples = 17\nvalue = [30.0, 14.0]\nclass = poisonous", fillcolor="#f1bc95"] ;
399 -> 411 ;
412 [label="gini = 0.0\nsamples = 3\nvalue = [30, 0]\nclass = poisonous", fillcolor="#e58139"] ;
411 -> 412 ;
413 [label="gini = 0.0\nsamples = 14\nvalue = [0, 14]\nclass = edible", fillcolor="#399de5"] ;
411 -> 413 ;
414 [label="gini = 0.0\nsamples = 1\nvalue = [0, 1]\nclass = edible", fillcolor="#399de5"] ;
366 -> 414 ;
415 [label="season_u <= 0.5\ngini = 0.408\nsamples = 10\nvalue = [20, 8]\nclass = poisonous", fillcolor="#efb388"] ;
365 -> 415 ;
416 [label="gini = 0.0\nsamples = 8\nvalue = [0, 8]\nclass = edible", fillcolor="#399de5"] ;
415 -> 416 ;
417 [label="gini = 0.0\nsamples = 2\nvalue = [20, 0]\nclass = poisonous", fillcolor="#e58139"] ;
415 -> 417 ;
418 [label="gini = 0.0\nsamples = 51\nvalue = [0, 51]\nclass = edible", fillcolor="#399de5"] ;
364 -> 418 ;
419 [label="cap-surface_y <= 0.5\ngini = 0.109\nsamples = 503\nvalue = [3120, 191]\nclass = poisonous", fillcolor="#e78945"] ;
363 -> 419 ;
420 [label="gill-attachment_x <= 0.5\ngini = 0.049\nsamples = 392\nvalue = [3110, 81]\nclass = poisonous", fillcolor="#e6843e"] ;
419 -> 420 ;
421 [label="cap-diameter <= 0.904\ngini = 0.03\nsamples = 359\nvalue = [3110, 48]\nclass = poisonous", fillcolor="#e5833c"] ;
420 -> 421 ;
422 [label="stem-width <= 1.291\ngini = 0.07\nsamples = 161\nvalue = [1170, 44]\nclass = poisonous", fillcolor="#e68640"] ;
421 -> 422 ;
423 [label="gini = 0.0\nsamples = 113\nvalue = [1130, 0]\nclass = poisonous", fillcolor="#e58139"] ;
422 -> 423 ;
424 [label="stem-width <= 3.15\ngini = 0.499\nsamples = 48\nvalue = [40, 44]\nclass = edible", fillcolor="#edf6fd"] ;
422 -> 424 ;
425 [label="gini = 0.0\nsamples = 44\nvalue = [0, 44]\nclass = edible", fillcolor="#399de5"] ;
424 -> 425 ;
426 [label="gini = 0.0\nsamples = 4\nvalue = [40, 0]\nclass = poisonous", fillcolor="#e58139"] ;
424 -> 426 ;
427 [label="cap-diameter <= 1.175\ngini = 0.004\nsamples = 198\nvalue = [1940, 4]\nclass = poisonous", fillcolor="#e58139"] ;
421 -> 427 ;
428 [label="cap-diameter <= 1.169\ngini = 0.017\nsamples = 50\nvalue = [460, 4]\nclass = poisonous", fillcolor="#e5823b"] ;
427 -> 428 ;
429 [label="stem-width <= 1.466\ngini = 0.013\nsamples = 49\nvalue = [460, 3]\nclass = poisonous", fillcolor="#e5823a"] ;
428 -> 429 ;
430 [label="gini = 0.0\nsamples = 40\nvalue = [400, 0]\nclass = poisonous", fillcolor="#e58139"] ;
429 -> 430 ;
431 [label="stem-width <= 3.218\ngini = 0.091\nsamples = 9\nvalue = [60, 3]\nclass = poisonous", fillcolor="#e68743"] ;
429 -> 431 ;
432 [label="gini = 0.0\nsamples = 3\nvalue = [0, 3]\nclass = edible", fillcolor="#399de5"] ;
431 -> 432 ;
433 [label="gini = 0.0\nsamples = 6\nvalue = [60, 0]\nclass = poisonous", fillcolor="#e58139"] ;
431 -> 433 ;
434 [label="gini = 0.0\nsamples = 1\nvalue = [0, 1]\nclass = edible", fillcolor="#399de5"] ;
428 -> 434 ;
435 [label="gini = 0.0\nsamples = 148\nvalue = [1480, 0]\nclass = poisonous", fillcolor="#e58139"] ;
427 -> 435 ;
436 [label="gini = 0.0\nsamples = 33\nvalue = [0, 33]\nclass = edible", fillcolor="#399de5"] ;
420 -> 436 ;
437 [label="cap-diameter <= 1.087\ngini = 0.153\nsamples = 111\nvalue = [10, 110]\nclass = edible", fillcolor="#4ba6e7"] ;
419 -> 437 ;
438 [label="gini = 0.0\nsamples = 110\nvalue = [0, 110]\nclass = edible", fillcolor="#399de5"] ;
437 -> 438 ;
439 [label="gini = 0.0\nsamples = 1\nvalue = [10, 0]\nclass = poisonous", fillcolor="#e58139"] ;
437 -> 439 ;
440 [label="gini = 0.0\nsamples = 12\nvalue = [0, 12]\nclass = edible", fillcolor="#399de5"] ;
362 -> 440 ;
441 [label="gini = 0.0\nsamples = 23\nvalue = [0, 23]\nclass = edible", fillcolor="#399de5"] ;
361 -> 441 ;
442 [label="gini = 0.0\nsamples = 45\nvalue = [0, 45]\nclass = edible", fillcolor="#399de5"] ;
360 -> 442 ;
443 [label="stem-color_n <= 0.5\ngini = 0.423\nsamples = 289\nvalue = [540, 235]\nclass = poisonous", fillcolor="#f0b88f"] ;
359 -> 443 ;
444 [label="gini = 0.0\nsamples = 54\nvalue = [540, 0]\nclass = poisonous", fillcolor="#e58139"] ;
443 -> 444 ;
445 [label="gini = 0.0\nsamples = 235\nvalue = [0, 235]\nclass = edible", fillcolor="#399de5"] ;
443 -> 445 ;
446 [label="gini = 0.0\nsamples = 98\nvalue = [0, 98]\nclass = edible", fillcolor="#399de5"] ;
358 -> 446 ;
447 [label="stem-width <= 0.11\ngini = 0.216\nsamples = 142\nvalue = [590, 83]\nclass = poisonous", fillcolor="#e99355"] ;
297 -> 447 ;
448 [label="gini = 0.0\nsamples = 59\nvalue = [590, 0]\nclass = poisonous", fillcolor="#e58139"] ;
447 -> 448 ;
449 [label="gini = 0.0\nsamples = 83\nvalue = [0, 83]\nclass = edible", fillcolor="#399de5"] ;
447 -> 449 ;
450 [label="gill-attachment_p <= 0.5\ngini = 0.156\nsamples = 606\nvalue = [3140, 292]\nclass = poisonous", fillcolor="#e78d4b"] ;
296 -> 450 ;
451 [label="cap-diameter <= 0.872\ngini = 0.087\nsamples = 463\nvalue = [3140, 149]\nclass = poisonous", fillcolor="#e68742"] ;
450 -> 451 ;
452 [label="cap-surface_h <= 0.5\ngini = 0.027\nsamples = 357\nvalue = [3130, 44]\nclass = poisonous", fillcolor="#e5833c"] ;
451 -> 452 ;
453 [label="cap-color_w <= 0.5\ngini = 0.014\nsamples = 336\nvalue = [3130, 23]\nclass = poisonous", fillcolor="#e5823a"] ;
452 -> 453 ;
454 [label="cap-color_y <= 0.5\ngini = 0.009\nsamples = 328\nvalue = [3130.0, 15.0]\nclass = poisonous", fillcolor="#e5823a"] ;
453 -> 454 ;
455 [label="cap-diameter <= 0.635\ngini = 0.006\nsamples = 323\nvalue = [3130, 10]\nclass = poisonous", fillcolor="#e5813a"] ;
454 -> 455 ;
456 [label="cap-surface_s <= 0.5\ngini = 0.003\nsamples = 310\nvalue = [3050, 5]\nclass = poisonous", fillcolor="#e58139"] ;
455 -> 456 ;
457 [label="gini = 0.0\nsamples = 256\nvalue = [2560, 0]\nclass = poisonous", fillcolor="#e58139"] ;
456 -> 457 ;
458 [label="gill-attachment_e <= 0.5\ngini = 0.02\nsamples = 54\nvalue = [490, 5]\nclass = poisonous", fillcolor="#e5823b"] ;
456 -> 458 ;
459 [label="gini = 0.0\nsamples = 5\nvalue = [0, 5]\nclass = edible", fillcolor="#399de5"] ;
458 -> 459 ;
460 [label="gini = 0.0\nsamples = 49\nvalue = [490, 0]\nclass = poisonous", fillcolor="#e58139"] ;
458 -> 460 ;
461 [label="cap-diameter <= 0.642\ngini = 0.111\nsamples = 13\nvalue = [80, 5]\nclass = poisonous", fillcolor="#e78945"] ;
455 -> 461 ;
462 [label="gini = 0.0\nsamples = 3\nvalue = [0, 3]\nclass = edible", fillcolor="#399de5"] ;
461 -> 462 ;
463 [label="stem-height <= -0.035\ngini = 0.048\nsamples = 10\nvalue = [80, 2]\nclass = poisonous", fillcolor="#e6843e"] ;
461 -> 463 ;
464 [label="gini = 0.0\nsamples = 1\nvalue = [0, 1]\nclass = edible", fillcolor="#399de5"] ;
463 -> 464 ;
465 [label="cap-diameter <= 0.668\ngini = 0.024\nsamples = 9\nvalue = [80, 1]\nclass = poisonous", fillcolor="#e5833b"] ;
463 -> 465 ;
466 [label="stem-height <= 0.302\ngini = 0.165\nsamples = 2\nvalue = [10, 1]\nclass = poisonous", fillcolor="#e88e4d"] ;
465 -> 466 ;
467 [label="gini = 0.0\nsamples = 1\nvalue = [0, 1]\nclass = edible", fillcolor="#399de5"] ;
466 -> 467 ;
468 [label="gini = 0.0\nsamples = 1\nvalue = [10, 0]\nclass = poisonous", fillcolor="#e58139"] ;
466 -> 468 ;
469 [label="gini = 0.0\nsamples = 7\nvalue = [70, 0]\nclass = poisonous", fillcolor="#e58139"] ;
465 -> 469 ;
470 [label="gini = 0.0\nsamples = 5\nvalue = [0, 5]\nclass = edible", fillcolor="#399de5"] ;
454 -> 470 ;
471 [label="gini = 0.0\nsamples = 8\nvalue = [0, 8]\nclass = edible", fillcolor="#399de5"] ;
453 -> 471 ;
472 [label="gini = 0.0\nsamples = 21\nvalue = [0, 21]\nclass = edible", fillcolor="#399de5"] ;
452 -> 472 ;
473 [label="habitat_g <= 0.5\ngini = 0.159\nsamples = 106\nvalue = [10, 105]\nclass = edible", fillcolor="#4ca6e7"] ;
451 -> 473 ;
474 [label="gini = 0.0\nsamples = 105\nvalue = [0, 105]\nclass = edible", fillcolor="#399de5"] ;
473 -> 474 ;
475 [label="gini = 0.0\nsamples = 1\nvalue = [10, 0]\nclass = poisonous", fillcolor="#e58139"] ;
473 -> 475 ;
476 [label="gini = 0.0\nsamples = 143\nvalue = [0, 143]\nclass = edible", fillcolor="#399de5"] ;
450 -> 476 ;
477 [label="gini = 0.0\nsamples = 52\nvalue = [0, 52]\nclass = edible", fillcolor="#399de5"] ;
281 -> 477 ;
478 [label="gill-attachment_a <= 0.5\ngini = 0.171\nsamples = 2543\nvalue = [12430, 1300]\nclass = poisonous", fillcolor="#e88e4e"] ;
222 -> 478 ;
479 [label="gill-attachment_x <= 0.5\ngini = 0.117\nsamples = 2072\nvalue = [12430, 829]\nclass = poisonous", fillcolor="#e78946"] ;
478 -> 479 ;
480 [label="gill-attachment_s <= 0.5\ngini = 0.069\nsamples = 1705\nvalue = [12430, 462]\nclass = poisonous", fillcolor="#e68640"] ;
479 -> 480 ;
481 [label="stem-width <= 1.003\ngini = 0.025\nsamples = 1400\nvalue = [12430, 157]\nclass = poisonous", fillcolor="#e5833c"] ;
480 -> 481 ;
482 [label="cap-surface_s <= 0.5\ngini = 0.002\nsamples = 1254\nvalue = [12430, 11]\nclass = poisonous", fillcolor="#e58139"] ;
481 -> 482 ;
483 [label="gini = 0.0\nsamples = 1243\nvalue = [12430, 0]\nclass = poisonous", fillcolor="#e58139"] ;
482 -> 483 ;
484 [label="gini = 0.0\nsamples = 11\nvalue = [0, 11]\nclass = edible", fillcolor="#399de5"] ;
482 -> 484 ;
485 [label="gini = 0.0\nsamples = 146\nvalue = [0, 146]\nclass = edible", fillcolor="#399de5"] ;
481 -> 485 ;
486 [label="gini = 0.0\nsamples = 305\nvalue = [0, 305]\nclass = edible", fillcolor="#399de5"] ;
480 -> 486 ;
487 [label="gini = 0.0\nsamples = 367\nvalue = [0, 367]\nclass = edible", fillcolor="#399de5"] ;
479 -> 487 ;
488 [label="gini = 0.0\nsamples = 471\nvalue = [0, 471]\nclass = edible", fillcolor="#399de5"] ;
478 -> 488 ;
489 [label="stem-width <= 0.389\ngini = 0.413\nsamples = 512\nvalue = [1000.0, 412.0]\nclass = poisonous", fillcolor="#f0b58b"] ;
221 -> 489 ;
490 [label="gill-color_b <= 0.5\ngini = 0.066\nsamples = 282\nvalue = [10, 281]\nclass = edible", fillcolor="#40a0e6"] ;
489 -> 490 ;
491 [label="gini = 0.0\nsamples = 281\nvalue = [0, 281]\nclass = edible", fillcolor="#399de5"] ;
490 -> 491 ;
492 [label="gini = 0.0\nsamples = 1\nvalue = [10, 0]\nclass = poisonous", fillcolor="#e58139"] ;
490 -> 492 ;
493 [label="does-bruise-or-bleed_f <= 0.5\ngini = 0.206\nsamples = 230\nvalue = [990.0, 131.0]\nclass = poisonous", fillcolor="#e89253"] ;
489 -> 493 ;
494 [label="gini = 0.0\nsamples = 76\nvalue = [0, 76]\nclass = edible", fillcolor="#399de5"] ;
493 -> 494 ;
495 [label="cap-surface_y <= 0.5\ngini = 0.1\nsamples = 154\nvalue = [990, 55]\nclass = poisonous", fillcolor="#e68844"] ;
493 -> 495 ;
496 [label="gini = 0.0\nsamples = 99\nvalue = [990, 0]\nclass = poisonous", fillcolor="#e58139"] ;
495 -> 496 ;
497 [label="gini = 0.0\nsamples = 55\nvalue = [0, 55]\nclass = edible", fillcolor="#399de5"] ;
495 -> 497 ;
498 [label="gini = 0.0\nsamples = 256\nvalue = [0, 256]\nclass = edible", fillcolor="#399de5"] ;
210 -> 498 ;
499 [label="cap-diameter <= -0.394\ngini = 0.391\nsamples = 2344\nvalue = [5060.0, 1838.0]\nclass = poisonous", fillcolor="#eeaf81"] ;
209 -> 499 ;
500 [label="cap-surface_w <= 0.5\ngini = 0.066\nsamples = 509\nvalue = [3760, 133]\nclass = poisonous", fillcolor="#e68540"] ;
499 -> 500 ;
501 [label="stem-height <= -0.923\ngini = 0.039\nsamples = 452\nvalue = [3760, 76]\nclass = poisonous", fillcolor="#e6843d"] ;
500 -> 501 ;
502 [label="gini = 0.0\nsamples = 29\nvalue = [0, 29]\nclass = edible", fillcolor="#399de5"] ;
501 -> 502 ;
503 [label="gill-color_w <= 0.5\ngini = 0.024\nsamples = 423\nvalue = [3760, 47]\nclass = poisonous", fillcolor="#e5833b"] ;
501 -> 503 ;
504 [label="stem-color_e <= 0.5\ngini = 0.015\nsamples = 405\nvalue = [3760, 29]\nclass = poisonous", fillcolor="#e5823b"] ;
503 -> 504 ;
505 [label="stem-color_y <= 0.5\ngini = 0.011\nsamples = 397\nvalue = [3760, 21]\nclass = poisonous", fillcolor="#e5823a"] ;
504 -> 505 ;
506 [label="gill-color_y <= 0.5\ngini = 0.007\nsamples = 389\nvalue = [3760, 13]\nclass = poisonous", fillcolor="#e5813a"] ;
505 -> 506 ;
507 [label="gill-color_n <= 0.5\ngini = 0.004\nsamples = 384\nvalue = [3760, 8]\nclass = poisonous", fillcolor="#e58139"] ;
506 -> 507 ;
508 [label="cap-color_o <= 0.5\ngini = 0.003\nsamples = 382\nvalue = [3760, 6]\nclass = poisonous", fillcolor="#e58139"] ;
507 -> 508 ;
509 [label="gill-color_b <= 0.5\ngini = 0.002\nsamples = 380\nvalue = [3760.0, 4.0]\nclass = poisonous", fillcolor="#e58139"] ;
508 -> 509 ;
510 [label="stem-width <= -0.66\ngini = 0.002\nsamples = 379\nvalue = [3760, 3]\nclass = poisonous", fillcolor="#e58139"] ;
509 -> 510 ;
511 [label="cap-surface_t <= 0.5\ngini = 0.01\nsamples = 42\nvalue = [400, 2]\nclass = poisonous", fillcolor="#e5823a"] ;
510 -> 511 ;
512 [label="gini = 0.0\nsamples = 40\nvalue = [400, 0]\nclass = poisonous", fillcolor="#e58139"] ;
511 -> 512 ;
513 [label="gini = 0.0\nsamples = 2\nvalue = [0, 2]\nclass = edible", fillcolor="#399de5"] ;
511 -> 513 ;
514 [label="cap-diameter <= -0.426\ngini = 0.001\nsamples = 337\nvalue = [3360, 1]\nclass = poisonous", fillcolor="#e58139"] ;
510 -> 514 ;
515 [label="gini = 0.0\nsamples = 315\nvalue = [3150, 0]\nclass = poisonous", fillcolor="#e58139"] ;
514 -> 515 ;
516 [label="cap-shape_s <= 0.5\ngini = 0.009\nsamples = 22\nvalue = [210, 1]\nclass = poisonous", fillcolor="#e5823a"] ;
514 -> 516 ;
517 [label="gini = 0.0\nsamples = 21\nvalue = [210, 0]\nclass = poisonous", fillcolor="#e58139"] ;
516 -> 517 ;
518 [label="gini = 0.0\nsamples = 1\nvalue = [0, 1]\nclass = edible", fillcolor="#399de5"] ;
516 -> 518 ;
519 [label="gini = 0.0\nsamples = 1\nvalue = [0, 1]\nclass = edible", fillcolor="#399de5"] ;
509 -> 519 ;
520 [label="gini = 0.0\nsamples = 2\nvalue = [0, 2]\nclass = edible", fillcolor="#399de5"] ;
508 -> 520 ;
521 [label="gini = 0.0\nsamples = 2\nvalue = [0, 2]\nclass = edible", fillcolor="#399de5"] ;
507 -> 521 ;
522 [label="gini = 0.0\nsamples = 5\nvalue = [0, 5]\nclass = edible", fillcolor="#399de5"] ;
506 -> 522 ;
523 [label="gini = 0.0\nsamples = 8\nvalue = [0, 8]\nclass = edible", fillcolor="#399de5"] ;
505 -> 523 ;
524 [label="gini = 0.0\nsamples = 8\nvalue = [0, 8]\nclass = edible", fillcolor="#399de5"] ;
504 -> 524 ;
525 [label="gini = 0.0\nsamples = 18\nvalue = [0, 18]\nclass = edible", fillcolor="#399de5"] ;
503 -> 525 ;
526 [label="gini = 0.0\nsamples = 57\nvalue = [0, 57]\nclass = edible", fillcolor="#399de5"] ;
500 -> 526 ;
527 [label="has-ring_t <= 0.5\ngini = 0.491\nsamples = 1835\nvalue = [1300.0, 1705.0]\nclass = edible", fillcolor="#d0e8f9"] ;
499 -> 527 ;
528 [label="gill-color_r <= 0.5\ngini = 0.184\nsamples = 1685\nvalue = [190, 1666]\nclass = edible", fillcolor="#50a8e8"] ;
527 -> 528 ;
529 [label="cap-color_p <= 0.5\ngini = 0.035\nsamples = 1669\nvalue = [30, 1666]\nclass = edible", fillcolor="#3d9fe5"] ;
528 -> 529 ;
530 [label="cap-diameter <= -0.358\ngini = 0.023\nsamples = 1668\nvalue = [20, 1666]\nclass = edible", fillcolor="#3b9ee5"] ;
529 -> 530 ;
531 [label="cap-diameter <= -0.36\ngini = 0.444\nsamples = 42\nvalue = [20, 40]\nclass = edible", fillcolor="#9ccef2"] ;
530 -> 531 ;
532 [label="gill-color_p <= 0.5\ngini = 0.325\nsamples = 40\nvalue = [10, 39]\nclass = edible", fillcolor="#6cb6ec"] ;
531 -> 532 ;
533 [label="gini = 0.0\nsamples = 34\nvalue = [0, 34]\nclass = edible", fillcolor="#399de5"] ;
532 -> 533 ;
534 [label="cap-surface_t <= 0.5\ngini = 0.444\nsamples = 6\nvalue = [10, 5]\nclass = poisonous", fillcolor="#f2c09c"] ;
532 -> 534 ;
535 [label="gini = 0.0\nsamples = 1\nvalue = [10, 0]\nclass = poisonous", fillcolor="#e58139"] ;
534 -> 535 ;
536 [label="gini = 0.0\nsamples = 5\nvalue = [0, 5]\nclass = edible", fillcolor="#399de5"] ;
534 -> 536 ;
537 [label="cap-shape_s <= 0.5\ngini = 0.165\nsamples = 2\nvalue = [10, 1]\nclass = poisonous", fillcolor="#e88e4d"] ;
531 -> 537 ;
538 [label="gini = 0.0\nsamples = 1\nvalue = [10, 0]\nclass = poisonous", fillcolor="#e58139"] ;
537 -> 538 ;
539 [label="gini = 0.0\nsamples = 1\nvalue = [0, 1]\nclass = edible", fillcolor="#399de5"] ;
537 -> 539 ;
540 [label="gini = 0.0\nsamples = 1626\nvalue = [0, 1626]\nclass = edible", fillcolor="#399de5"] ;
530 -> 540 ;
541 [label="gini = 0.0\nsamples = 1\nvalue = [10, 0]\nclass = poisonous", fillcolor="#e58139"] ;
529 -> 541 ;
542 [label="gini = 0.0\nsamples = 16\nvalue = [160, 0]\nclass = poisonous", fillcolor="#e58139"] ;
528 -> 542 ;
543 [label="stem-width <= -0.271\ngini = 0.066\nsamples = 150\nvalue = [1110, 39]\nclass = poisonous", fillcolor="#e68540"] ;
527 -> 543 ;
544 [label="gini = 0.0\nsamples = 39\nvalue = [0, 39]\nclass = edible", fillcolor="#399de5"] ;
543 -> 544 ;
545 [label="gini = 0.0\nsamples = 111\nvalue = [1110, 0]\nclass = poisonous", fillcolor="#e58139"] ;
543 -> 545 ;
546 [label="gini = 0.0\nsamples = 567\nvalue = [0, 567]\nclass = edible", fillcolor="#399de5"] ;
208 -> 546 ;
547 [label="cap-surface_g <= 0.5\ngini = 0.066\nsamples = 12214\nvalue = [90200, 3194]\nclass = poisonous", fillcolor="#e68540"] ;
207 -> 547 ;
548 [label="cap-shape_c <= 0.5\ngini = 0.059\nsamples = 11849\nvalue = [90200, 2829]\nclass = poisonous", fillcolor="#e6853f"] ;
547 -> 548 ;
549 [label="gill-color_f <= 0.5\ngini = 0.051\nsamples = 11375\nvalue = [89540, 2421]\nclass = poisonous", fillcolor="#e6843e"] ;
548 -> 549 ;
550 [label="stem-width <= -0.912\ngini = 0.049\nsamples = 11257\nvalue = [89540, 2303]\nclass = poisonous", fillcolor="#e6843e"] ;
549 -> 550 ;
551 [label="gini = 0.0\nsamples = 64\nvalue = [0, 64]\nclass = edible", fillcolor="#399de5"] ;
550 -> 551 ;
552 [label="stem-height <= 0.872\ngini = 0.048\nsamples = 11193\nvalue = [89540, 2239]\nclass = poisonous", fillcolor="#e6843e"] ;
550 -> 552 ;
553 [label="does-bruise-or-bleed_t <= 0.5\ngini = 0.034\nsamples = 8732\nvalue = [74180, 1314]\nclass = poisonous", fillcolor="#e5833d"] ;
552 -> 553 ;
554 [label="gill-attachment_x <= 0.5\ngini = 0.024\nsamples = 6814\nvalue = [60610, 753]\nclass = poisonous", fillcolor="#e5833b"] ;
553 -> 554 ;
555 [label="stem-width <= -0.842\ngini = 0.014\nsamples = 5467\nvalue = [51080, 359]\nclass = poisonous", fillcolor="#e5823a"] ;
554 -> 555 ;
556 [label="cap-shape_f <= 0.5\ngini = 0.495\nsamples = 79\nvalue = [60, 73]\nclass = edible", fillcolor="#dceefa"] ;
555 -> 556 ;
557 [label="gini = 0.0\nsamples = 6\nvalue = [60, 0]\nclass = poisonous", fillcolor="#e58139"] ;
556 -> 557 ;
558 [label="gini = 0.0\nsamples = 73\nvalue = [0, 73]\nclass = edible", fillcolor="#399de5"] ;
556 -> 558 ;
559 [label="cap-color_u <= 0.5\ngini = 0.011\nsamples = 5388\nvalue = [51020, 286]\nclass = poisonous", fillcolor="#e5823a"] ;
555 -> 559 ;
560 [label="cap-color_p <= 0.5\ngini = 0.007\nsamples = 5111\nvalue = [49470, 164]\nclass = poisonous", fillcolor="#e5813a"] ;
559 -> 560 ;
561 [label="gill-color_u <= 0.5\ngini = 0.007\nsamples = 5109\nvalue = [49470, 162]\nclass = poisonous", fillcolor="#e5813a"] ;
560 -> 561 ;
562 [label="stem-height <= 0.636\ngini = 0.006\nsamples = 5095\nvalue = [49420, 153]\nclass = poisonous", fillcolor="#e5813a"] ;
561 -> 562 ;
563 [label="cap-diameter <= -0.606\ngini = 0.005\nsamples = 4963\nvalue = [48480.0, 115.0]\nclass = poisonous", fillcolor="#e58139"] ;
562 -> 563 ;
564 [label="cap-color_g <= 0.5\ngini = 0.045\nsamples = 267\nvalue = [2160, 51]\nclass = poisonous", fillcolor="#e6843e"] ;
563 -> 564 ;
565 [label="cap-shape_s <= 0.5\ngini = 0.024\nsamples = 243\nvalue = [2160, 27]\nclass = poisonous", fillcolor="#e5833b"] ;
564 -> 565 ;
566 [label="gill-attachment_s <= 0.5\ngini = 0.018\nsamples = 236\nvalue = [2160, 20]\nclass = poisonous", fillcolor="#e5823b"] ;
565 -> 566 ;
567 [label="stem-width <= -0.817\ngini = 0.016\nsamples = 234\nvalue = [2160, 18]\nclass = poisonous", fillcolor="#e5823b"] ;
566 -> 567 ;
568 [label="gini = 0.0\nsamples = 1\nvalue = [0, 1]\nclass = edible", fillcolor="#399de5"] ;
567 -> 568 ;
569 [label="habitat_g <= 0.5\ngini = 0.015\nsamples = 233\nvalue = [2160, 17]\nclass = poisonous", fillcolor="#e5823b"] ;
567 -> 569 ;
570 [label="gini = 0.0\nsamples = 181\nvalue = [1810, 0]\nclass = poisonous", fillcolor="#e58139"] ;
569 -> 570 ;
571 [label="stem-width <= -0.49\ngini = 0.088\nsamples = 52\nvalue = [350, 17]\nclass = poisonous", fillcolor="#e68743"] ;
569 -> 571 ;
572 [label="season_u <= 0.5\ngini = 0.006\nsamples = 35\nvalue = [340, 1]\nclass = poisonous", fillcolor="#e5813a"] ;
571 -> 572 ;
573 [label="gini = 0.0\nsamples = 34\nvalue = [340, 0]\nclass = poisonous", fillcolor="#e58139"] ;
572 -> 573 ;
574 [label="gini = 0.0\nsamples = 1\nvalue = [0, 1]\nclass = edible", fillcolor="#399de5"] ;
572 -> 574 ;
575 [label="gill-color_p <= 0.5\ngini = 0.473\nsamples = 17\nvalue = [10, 16]\nclass = edible", fillcolor="#b5daf5"] ;
571 -> 575 ;
576 [label="gini = 0.0\nsamples = 16\nvalue = [0, 16]\nclass = edible", fillcolor="#399de5"] ;
575 -> 576 ;
577 [label="gini = 0.0\nsamples = 1\nvalue = [10, 0]\nclass = poisonous", fillcolor="#e58139"] ;
575 -> 577 ;
578 [label="gini = 0.0\nsamples = 2\nvalue = [0, 2]\nclass = edible", fillcolor="#399de5"] ;
566 -> 578 ;
579 [label="gini = 0.0\nsamples = 7\nvalue = [0, 7]\nclass = edible", fillcolor="#399de5"] ;
565 -> 579 ;
580 [label="gini = 0.0\nsamples = 24\nvalue = [0, 24]\nclass = edible", fillcolor="#399de5"] ;
564 -> 580 ;
581 [label="cap-color_l <= 0.5\ngini = 0.003\nsamples = 4696\nvalue = [46320, 64]\nclass = poisonous", fillcolor="#e58139"] ;
563 -> 581 ;
582 [label="stem-height <= 0.333\ngini = 0.002\nsamples = 4593\nvalue = [45460, 47]\nclass = poisonous", fillcolor="#e58139"] ;
581 -> 582 ;
583 [label="stem-width <= -0.827\ngini = 0.001\nsamples = 4310\nvalue = [42880, 22]\nclass = poisonous", fillcolor="#e58139"] ;
582 -> 583 ;
584 [label="cap-color_w <= 0.5\ngini = 0.091\nsamples = 6\nvalue = [40, 2]\nclass = poisonous", fillcolor="#e68743"] ;
583 -> 584 ;
585 [label="gini = 0.0\nsamples = 4\nvalue = [40, 0]\nclass = poisonous", fillcolor="#e58139"] ;
584 -> 585 ;
586 [label="gini = 0.0\nsamples = 2\nvalue = [0, 2]\nclass = edible", fillcolor="#399de5"] ;
584 -> 586 ;
587 [label="cap-diameter <= -0.581\ngini = 0.001\nsamples = 4304\nvalue = [42840, 20]\nclass = poisonous", fillcolor="#e58139"] ;
583 -> 587 ;
588 [label="cap-color_g <= 0.5\ngini = 0.015\nsamples = 100\nvalue = [930, 7]\nclass = poisonous", fillcolor="#e5823a"] ;
587 -> 588 ;
589 [label="cap-shape_s <= 0.5\ngini = 0.006\nsamples = 96\nvalue = [930, 3]\nclass = poisonous", fillcolor="#e5813a"] ;
588 -> 589 ;
590 [label="stem-width <= -0.335\ngini = 0.002\nsamples = 94\nvalue = [930, 1]\nclass = poisonous", fillcolor="#e58139"] ;
589 -> 590 ;
591 [label="gini = 0.0\nsamples = 83\nvalue = [830, 0]\nclass = poisonous", fillcolor="#e58139"] ;
590 -> 591 ;
592 [label="gill-color_w <= 0.5\ngini = 0.02\nsamples = 11\nvalue = [100, 1]\nclass = poisonous", fillcolor="#e5823b"] ;
590 -> 592 ;
593 [label="gini = 0.0\nsamples = 10\nvalue = [100, 0]\nclass = poisonous", fillcolor="#e58139"] ;
592 -> 593 ;
594 [label="gini = 0.0\nsamples = 1\nvalue = [0, 1]\nclass = edible", fillcolor="#399de5"] ;
592 -> 594 ;
595 [label="gini = 0.0\nsamples = 2\nvalue = [0, 2]\nclass = edible", fillcolor="#399de5"] ;
589 -> 595 ;
596 [label="gini = 0.0\nsamples = 4\nvalue = [0, 4]\nclass = edible", fillcolor="#399de5"] ;
588 -> 596 ;
597 [label="stem-width <= 1.031\ngini = 0.001\nsamples = 4204\nvalue = [41910, 13]\nclass = poisonous", fillcolor="#e58139"] ;
587 -> 597 ;
598 [label="cap-diameter <= -0.53\ngini = 0.0\nsamples = 3816\nvalue = [38130, 3]\nclass = poisonous", fillcolor="#e58139"] ;
597 -> 598 ;
599 [label="cap-color_g <= 0.5\ngini = 0.002\nsamples = 179\nvalue = [1770.0, 2.0]\nclass = poisonous", fillcolor="#e58139"] ;
598 -> 599 ;
600 [label="gini = 0.0\nsamples = 170\nvalue = [1700, 0]\nclass = poisonous", fillcolor="#e58139"] ;
599 -> 600 ;
601 [label="cap-surface_y <= 0.5\ngini = 0.054\nsamples = 9\nvalue = [70, 2]\nclass = poisonous", fillcolor="#e6853f"] ;
599 -> 601 ;
602 [label="gini = 0.0\nsamples = 2\nvalue = [0, 2]\nclass = edible", fillcolor="#399de5"] ;
601 -> 602 ;
603 [label="gini = 0.0\nsamples = 7\nvalue = [70, 0]\nclass = poisonous", fillcolor="#e58139"] ;
601 -> 603 ;
604 [label="stem-width <= 0.891\ngini = 0.0\nsamples = 3637\nvalue = [36360, 1]\nclass = poisonous", fillcolor="#e58139"] ;
598 -> 604 ;
605 [label="gini = 0.0\nsamples = 3511\nvalue = [35110, 0]\nclass = poisonous", fillcolor="#e58139"] ;
604 -> 605 ;
606 [label="stem-width <= 0.892\ngini = 0.002\nsamples = 126\nvalue = [1250, 1]\nclass = poisonous", fillcolor="#e58139"] ;
604 -> 606 ;
607 [label="cap-surface_t <= 0.5\ngini = 0.062\nsamples = 4\nvalue = [30, 1]\nclass = poisonous", fillcolor="#e68540"] ;
606 -> 607 ;
608 [label="gini = 0.0\nsamples = 3\nvalue = [30, 0]\nclass = poisonous", fillcolor="#e58139"] ;
607 -> 608 ;
609 [label="gini = 0.0\nsamples = 1\nvalue = [0, 1]\nclass = edible", fillcolor="#399de5"] ;
607 -> 609 ;
610 [label="gini = 0.0\nsamples = 122\nvalue = [1220, 0]\nclass = poisonous", fillcolor="#e58139"] ;
606 -> 610 ;
611 [label="cap-surface_t <= 0.5\ngini = 0.005\nsamples = 388\nvalue = [3780, 10]\nclass = poisonous", fillcolor="#e5813a"] ;
597 -> 611 ;
612 [label="gini = 0.0\nsamples = 331\nvalue = [3310, 0]\nclass = poisonous", fillcolor="#e58139"] ;
611 -> 612 ;
613 [label="gill-color_w <= 0.5\ngini = 0.041\nsamples = 57\nvalue = [470, 10]\nclass = poisonous", fillcolor="#e6843d"] ;
611 -> 613 ;
614 [label="gini = 0.0\nsamples = 47\nvalue = [470, 0]\nclass = poisonous", fillcolor="#e58139"] ;
613 -> 614 ;
615 [label="gini = 0.0\nsamples = 10\nvalue = [0, 10]\nclass = edible", fillcolor="#399de5"] ;
613 -> 615 ;
616 [label="cap-surface_t <= 0.5\ngini = 0.019\nsamples = 283\nvalue = [2580.0, 25.0]\nclass = poisonous", fillcolor="#e5823b"] ;
582 -> 616 ;
617 [label="gini = 0.0\nsamples = 194\nvalue = [1940, 0]\nclass = poisonous", fillcolor="#e58139"] ;
616 -> 617 ;
618 [label="stem-width <= 1.516\ngini = 0.072\nsamples = 89\nvalue = [640, 25]\nclass = poisonous", fillcolor="#e68641"] ;
616 -> 618 ;
619 [label="cap-diameter <= 0.014\ngini = 0.05\nsamples = 81\nvalue = [640, 17]\nclass = poisonous", fillcolor="#e6843e"] ;
618 -> 619 ;
620 [label="gini = 0.0\nsamples = 1\nvalue = [0, 1]\nclass = edible", fillcolor="#399de5"] ;
619 -> 620 ;
621 [label="stem-width <= 0.667\ngini = 0.048\nsamples = 80\nvalue = [640, 16]\nclass = poisonous", fillcolor="#e6843e"] ;
619 -> 621 ;
622 [label="gini = 0.0\nsamples = 40\nvalue = [400, 0]\nclass = poisonous", fillcolor="#e58139"] ;
621 -> 622 ;
623 [label="cap-diameter <= 1.045\ngini = 0.117\nsamples = 40\nvalue = [240, 16]\nclass = poisonous", fillcolor="#e78946"] ;
621 -> 623 ;
624 [label="gini = 0.0\nsamples = 16\nvalue = [0, 16]\nclass = edible", fillcolor="#399de5"] ;
623 -> 624 ;
625 [label="gini = 0.0\nsamples = 24\nvalue = [240, 0]\nclass = poisonous", fillcolor="#e58139"] ;
623 -> 625 ;
626 [label="gini = 0.0\nsamples = 8\nvalue = [0, 8]\nclass = edible", fillcolor="#399de5"] ;
618 -> 626 ;
627 [label="gill-attachment_s <= 0.5\ngini = 0.038\nsamples = 103\nvalue = [860, 17]\nclass = poisonous", fillcolor="#e6833d"] ;
581 -> 627 ;
628 [label="gini = 0.0\nsamples = 86\nvalue = [860, 0]\nclass = poisonous", fillcolor="#e58139"] ;
627 -> 628 ;
629 [label="gini = 0.0\nsamples = 17\nvalue = [0, 17]\nclass = edible", fillcolor="#399de5"] ;
627 -> 629 ;
630 [label="cap-surface_t <= 0.5\ngini = 0.075\nsamples = 132\nvalue = [940, 38]\nclass = poisonous", fillcolor="#e68641"] ;
562 -> 630 ;
631 [label="gini = 0.0\nsamples = 79\nvalue = [790, 0]\nclass = poisonous", fillcolor="#e58139"] ;
630 -> 631 ;
632 [label="stem-width <= 1.571\ngini = 0.323\nsamples = 53\nvalue = [150, 38]\nclass = poisonous", fillcolor="#eca16b"] ;
630 -> 632 ;
633 [label="stem-width <= 1.253\ngini = 0.183\nsamples = 32\nvalue = [150, 17]\nclass = poisonous", fillcolor="#e88f4f"] ;
632 -> 633 ;
634 [label="stem-height <= 0.683\ngini = 0.018\nsamples = 12\nvalue = [110, 1]\nclass = poisonous", fillcolor="#e5823b"] ;
633 -> 634 ;
635 [label="cap-diameter <= 0.451\ngini = 0.091\nsamples = 3\nvalue = [20, 1]\nclass = poisonous", fillcolor="#e68743"] ;
634 -> 635 ;
636 [label="gini = 0.0\nsamples = 1\nvalue = [0, 1]\nclass = edible", fillcolor="#399de5"] ;
635 -> 636 ;
637 [label="gini = 0.0\nsamples = 2\nvalue = [20, 0]\nclass = poisonous", fillcolor="#e58139"] ;
635 -> 637 ;
638 [label="gini = 0.0\nsamples = 9\nvalue = [90, 0]\nclass = poisonous", fillcolor="#e58139"] ;
634 -> 638 ;
639 [label="gill-color_w <= 0.5\ngini = 0.408\nsamples = 20\nvalue = [40, 16]\nclass = poisonous", fillcolor="#efb388"] ;
633 -> 639 ;
640 [label="gini = 0.0\nsamples = 4\nvalue = [40, 0]\nclass = poisonous", fillcolor="#e58139"] ;
639 -> 640 ;
641 [label="gini = 0.0\nsamples = 16\nvalue = [0, 16]\nclass = edible", fillcolor="#399de5"] ;
639 -> 641 ;
642 [label="gini = 0.0\nsamples = 21\nvalue = [0, 21]\nclass = edible", fillcolor="#399de5"] ;
632 -> 642 ;
643 [label="ring-type_f <= 0.5\ngini = 0.259\nsamples = 14\nvalue = [50, 9]\nclass = poisonous", fillcolor="#ea985d"] ;
561 -> 643 ;
644 [label="gini = 0.0\nsamples = 9\nvalue = [0, 9]\nclass = edible", fillcolor="#399de5"] ;
643 -> 644 ;
645 [label="gini = 0.0\nsamples = 5\nvalue = [50, 0]\nclass = poisonous", fillcolor="#e58139"] ;
643 -> 645 ;
646 [label="gini = 0.0\nsamples = 2\nvalue = [0, 2]\nclass = edible", fillcolor="#399de5"] ;
560 -> 646 ;
647 [label="cap-shape_s <= 0.5\ngini = 0.135\nsamples = 277\nvalue = [1550.0, 122.0]\nclass = poisonous", fillcolor="#e78b49"] ;
559 -> 647 ;
648 [label="stem-width <= -0.217\ngini = 0.065\nsamples = 209\nvalue = [1550, 54]\nclass = poisonous", fillcolor="#e68540"] ;
647 -> 648 ;
649 [label="stem-height <= -0.255\ngini = 0.402\nsamples = 68\nvalue = [140, 54]\nclass = poisonous", fillcolor="#efb285"] ;
648 -> 649 ;
650 [label="gini = 0.0\nsamples = 54\nvalue = [0, 54]\nclass = edible", fillcolor="#399de5"] ;
649 -> 650 ;
651 [label="gini = 0.0\nsamples = 14\nvalue = [140, 0]\nclass = poisonous", fillcolor="#e58139"] ;
649 -> 651 ;
652 [label="gini = 0.0\nsamples = 141\nvalue = [1410, 0]\nclass = poisonous", fillcolor="#e58139"] ;
648 -> 652 ;
653 [label="gini = 0.0\nsamples = 68\nvalue = [0, 68]\nclass = edible", fillcolor="#399de5"] ;
647 -> 653 ;
654 [label="gill-color_y <= 0.5\ngini = 0.076\nsamples = 1347\nvalue = [9530, 394]\nclass = poisonous", fillcolor="#e68641"] ;
554 -> 654 ;
655 [label="cap-color_b <= 0.5\ngini = 0.062\nsamples = 1269\nvalue = [9530, 316]\nclass = poisonous", fillcolor="#e68540"] ;
654 -> 655 ;
656 [label="habitat_h <= 0.5\ngini = 0.05\nsamples = 1206\nvalue = [9530, 253]\nclass = poisonous", fillcolor="#e6843e"] ;
655 -> 656 ;
657 [label="stem-height <= -0.422\ngini = 0.044\nsamples = 1173\nvalue = [9530.0, 220.0]\nclass = poisonous", fillcolor="#e6843e"] ;
656 -> 657 ;
658 [label="stem-width <= -0.37\ngini = 0.482\nsamples = 70\nvalue = [90, 61]\nclass = poisonous", fillcolor="#f7d6bf"] ;
657 -> 658 ;
659 [label="cap-color_w <= 0.5\ngini = 0.242\nsamples = 62\nvalue = [10, 61]\nclass = edible", fillcolor="#59ade9"] ;
658 -> 659 ;
660 [label="gini = 0.0\nsamples = 61\nvalue = [0, 61]\nclass = edible", fillcolor="#399de5"] ;
659 -> 660 ;
661 [label="gini = 0.0\nsamples = 1\nvalue = [10, 0]\nclass = poisonous", fillcolor="#e58139"] ;
659 -> 661 ;
662 [label="gini = 0.0\nsamples = 8\nvalue = [80, 0]\nclass = poisonous", fillcolor="#e58139"] ;
658 -> 662 ;
663 [label="stem-height <= -0.257\ngini = 0.033\nsamples = 1103\nvalue = [9440, 159]\nclass = poisonous", fillcolor="#e5833c"] ;
657 -> 663 ;
664 [label="stem-width <= -0.119\ngini = 0.191\nsamples = 90\nvalue = [410, 49]\nclass = poisonous", fillcolor="#e89051"] ;
663 -> 664 ;
665 [label="stem-width <= -0.713\ngini = 0.384\nsamples = 63\nvalue = [140, 49]\nclass = poisonous", fillcolor="#eead7e"] ;
664 -> 665 ;
666 [label="gini = 0.0\nsamples = 14\nvalue = [140, 0]\nclass = poisonous", fillcolor="#e58139"] ;
665 -> 666 ;
667 [label="gini = 0.0\nsamples = 49\nvalue = [0, 49]\nclass = edible", fillcolor="#399de5"] ;
665 -> 667 ;
668 [label="gini = 0.0\nsamples = 27\nvalue = [270, 0]\nclass = poisonous", fillcolor="#e58139"] ;
664 -> 668 ;
669 [label="stem-height <= 0.781\ngini = 0.024\nsamples = 1013\nvalue = [9030, 110]\nclass = poisonous", fillcolor="#e5833b"] ;
663 -> 669 ;
670 [label="cap-shape_f <= 0.5\ngini = 0.021\nsamples = 994\nvalue = [8980, 96]\nclass = poisonous", fillcolor="#e5823b"] ;
669 -> 670 ;
671 [label="stem-height <= 0.656\ngini = 0.006\nsamples = 682\nvalue = [6610, 21]\nclass = poisonous", fillcolor="#e5813a"] ;
670 -> 671 ;
672 [label="stem-height <= -0.09\ngini = 0.004\nsamples = 663\nvalue = [6500.0, 13.0]\nclass = poisonous", fillcolor="#e58139"] ;
671 -> 672 ;
673 [label="stem-height <= -0.093\ngini = 0.028\nsamples = 80\nvalue = [700, 10]\nclass = poisonous", fillcolor="#e5833c"] ;
672 -> 673 ;
674 [label="cap-color_y <= 0.5\ngini = 0.025\nsamples = 79\nvalue = [700, 9]\nclass = poisonous", fillcolor="#e5833c"] ;
673 -> 674 ;
675 [label="cap-color_p <= 0.5\ngini = 0.007\nsamples = 55\nvalue = [530, 2]\nclass = poisonous", fillcolor="#e5813a"] ;
674 -> 675 ;
676 [label="gini = 0.0\nsamples = 46\nvalue = [460, 0]\nclass = poisonous", fillcolor="#e58139"] ;
675 -> 676 ;
677 [label="cap-diameter <= -0.255\ngini = 0.054\nsamples = 9\nvalue = [70, 2]\nclass = poisonous", fillcolor="#e6853f"] ;
675 -> 677 ;
678 [label="gini = 0.0\nsamples = 2\nvalue = [0, 2]\nclass = edible", fillcolor="#399de5"] ;
677 -> 678 ;
679 [label="gini = 0.0\nsamples = 7\nvalue = [70, 0]\nclass = poisonous", fillcolor="#e58139"] ;
677 -> 679 ;
680 [label="gill-color_w <= 0.5\ngini = 0.076\nsamples = 24\nvalue = [170.0, 7.0]\nclass = poisonous", fillcolor="#e68641"] ;
674 -> 680 ;
681 [label="gini = 0.0\nsamples = 11\nvalue = [110, 0]\nclass = poisonous", fillcolor="#e58139"] ;
680 -> 681 ;
682 [label="cap-diameter <= -0.472\ngini = 0.187\nsamples = 13\nvalue = [60, 7]\nclass = poisonous", fillcolor="#e89050"] ;
680 -> 682 ;
683 [label="gini = 0.0\nsamples = 3\nvalue = [0, 3]\nclass = edible", fillcolor="#399de5"] ;
682 -> 683 ;
684 [label="stem-height <= -0.191\ngini = 0.117\nsamples = 10\nvalue = [60, 4]\nclass = poisonous", fillcolor="#e78946"] ;
682 -> 684 ;
685 [label="gini = 0.0\nsamples = 2\nvalue = [0, 2]\nclass = edible", fillcolor="#399de5"] ;
684 -> 685 ;
686 [label="stem-height <= -0.099\ngini = 0.062\nsamples = 8\nvalue = [60, 2]\nclass = poisonous", fillcolor="#e68540"] ;
684 -> 686 ;
687 [label="stem-height <= -0.166\ngini = 0.032\nsamples = 7\nvalue = [60, 1]\nclass = poisonous", fillcolor="#e5833c"] ;
686 -> 687 ;
688 [label="cap-surface_t <= 0.5\ngini = 0.165\nsamples = 2\nvalue = [10, 1]\nclass = poisonous", fillcolor="#e88e4d"] ;
687 -> 688 ;
689 [label="gini = 0.0\nsamples = 1\nvalue = [10, 0]\nclass = poisonous", fillcolor="#e58139"] ;
688 -> 689 ;
690 [label="gini = 0.0\nsamples = 1\nvalue = [0, 1]\nclass = edible", fillcolor="#399de5"] ;
688 -> 690 ;
691 [label="gini = 0.0\nsamples = 5\nvalue = [50, 0]\nclass = poisonous", fillcolor="#e58139"] ;
687 -> 691 ;
692 [label="gini = 0.0\nsamples = 1\nvalue = [0, 1]\nclass = edible", fillcolor="#399de5"] ;
686 -> 692 ;
693 [label="gini = 0.0\nsamples = 1\nvalue = [0, 1]\nclass = edible", fillcolor="#399de5"] ;
673 -> 693 ;
694 [label="stem-height <= -0.057\ngini = 0.001\nsamples = 583\nvalue = [5800, 3]\nclass = poisonous", fillcolor="#e58139"] ;
672 -> 694 ;
695 [label="stem-height <= -0.06\ngini = 0.011\nsamples = 19\nvalue = [180, 1]\nclass = poisonous", fillcolor="#e5823a"] ;
694 -> 695 ;
696 [label="gini = 0.0\nsamples = 15\nvalue = [150, 0]\nclass = poisonous", fillcolor="#e58139"] ;
695 -> 696 ;
697 [label="stem-width <= -0.628\ngini = 0.062\nsamples = 4\nvalue = [30, 1]\nclass = poisonous", fillcolor="#e68540"] ;
695 -> 697 ;
698 [label="gini = 0.0\nsamples = 2\nvalue = [20, 0]\nclass = poisonous", fillcolor="#e58139"] ;
697 -> 698 ;
699 [label="cap-surface_t <= 0.5\ngini = 0.165\nsamples = 2\nvalue = [10, 1]\nclass = poisonous", fillcolor="#e88e4d"] ;
697 -> 699 ;
700 [label="gini = 0.0\nsamples = 1\nvalue = [10, 0]\nclass = poisonous", fillcolor="#e58139"] ;
699 -> 700 ;
701 [label="gini = 0.0\nsamples = 1\nvalue = [0, 1]\nclass = edible", fillcolor="#399de5"] ;
699 -> 701 ;
702 [label="stem-height <= 0.583\ngini = 0.001\nsamples = 564\nvalue = [5620, 2]\nclass = poisonous", fillcolor="#e58139"] ;
694 -> 702 ;
703 [label="cap-color_p <= 0.5\ngini = 0.0\nsamples = 545\nvalue = [5440.0, 1.0]\nclass = poisonous", fillcolor="#e58139"] ;
702 -> 703 ;
704 [label="gini = 0.0\nsamples = 517\nvalue = [5170, 0]\nclass = poisonous", fillcolor="#e58139"] ;
703 -> 704 ;
705 [label="stem-width <= -0.096\ngini = 0.007\nsamples = 28\nvalue = [270, 1]\nclass = poisonous", fillcolor="#e5813a"] ;
703 -> 705 ;
706 [label="gini = 0.0\nsamples = 1\nvalue = [0, 1]\nclass = edible", fillcolor="#399de5"] ;
705 -> 706 ;
707 [label="gini = 0.0\nsamples = 27\nvalue = [270, 0]\nclass = poisonous", fillcolor="#e58139"] ;
705 -> 707 ;
708 [label="stem-width <= -0.304\ngini = 0.011\nsamples = 19\nvalue = [180, 1]\nclass = poisonous", fillcolor="#e5823a"] ;
702 -> 708 ;
709 [label="gini = 0.0\nsamples = 1\nvalue = [0, 1]\nclass = edible", fillcolor="#399de5"] ;
708 -> 709 ;
710 [label="gini = 0.0\nsamples = 18\nvalue = [180, 0]\nclass = poisonous", fillcolor="#e58139"] ;
708 -> 710 ;
711 [label="stem-width <= 0.293\ngini = 0.126\nsamples = 19\nvalue = [110, 8]\nclass = poisonous", fillcolor="#e78a47"] ;
671 -> 711 ;
712 [label="gini = 0.0\nsamples = 8\nvalue = [0, 8]\nclass = edible", fillcolor="#399de5"] ;
711 -> 712 ;
713 [label="gini = 0.0\nsamples = 11\nvalue = [110, 0]\nclass = poisonous", fillcolor="#e58139"] ;
711 -> 713 ;
714 [label="gill-color_n <= 0.5\ngini = 0.059\nsamples = 312\nvalue = [2370, 75]\nclass = poisonous", fillcolor="#e6853f"] ;
670 -> 714 ;
715 [label="cap-diameter <= -0.582\ngini = 0.011\nsamples = 201\nvalue = [1900, 11]\nclass = poisonous", fillcolor="#e5823a"] ;
714 -> 715 ;
716 [label="gini = 0.0\nsamples = 1\nvalue = [0, 1]\nclass = edible", fillcolor="#399de5"] ;
715 -> 716 ;
717 [label="stem-height <= -0.252\ngini = 0.01\nsamples = 200\nvalue = [1900, 10]\nclass = poisonous", fillcolor="#e5823a"] ;
715 -> 717 ;
718 [label="gini = 0.0\nsamples = 1\nvalue = [0, 1]\nclass = edible", fillcolor="#399de5"] ;
717 -> 718 ;
719 [label="stem-height <= 0.593\ngini = 0.009\nsamples = 199\nvalue = [1900, 9]\nclass = poisonous", fillcolor="#e5823a"] ;
717 -> 719 ;
720 [label="stem-height <= -0.227\ngini = 0.003\nsamples = 190\nvalue = [1870, 3]\nclass = poisonous", fillcolor="#e58139"] ;
719 -> 720 ;
721 [label="stem-width <= -0.109\ngini = 0.062\nsamples = 4\nvalue = [30, 1]\nclass = poisonous", fillcolor="#e68540"] ;
720 -> 721 ;
722 [label="gini = 0.0\nsamples = 1\nvalue = [0, 1]\nclass = edible", fillcolor="#399de5"] ;
721 -> 722 ;
723 [label="gini = 0.0\nsamples = 3\nvalue = [30, 0]\nclass = poisonous", fillcolor="#e58139"] ;
721 -> 723 ;
724 [label="stem-height <= -0.102\ngini = 0.002\nsamples = 186\nvalue = [1840, 2]\nclass = poisonous", fillcolor="#e58139"] ;
720 -> 724 ;
725 [label="stem-height <= -0.114\ngini = 0.011\nsamples = 37\nvalue = [350, 2]\nclass = poisonous", fillcolor="#e5823a"] ;
724 -> 725 ;
726 [label="cap-color_y <= 0.5\ngini = 0.006\nsamples = 36\nvalue = [350, 1]\nclass = poisonous", fillcolor="#e5813a"] ;
725 -> 726 ;
727 [label="gini = 0.0\nsamples = 26\nvalue = [260, 0]\nclass = poisonous", fillcolor="#e58139"] ;
726 -> 727 ;
728 [label="stem-width <= -0.659\ngini = 0.022\nsamples = 10\nvalue = [90, 1]\nclass = poisonous", fillcolor="#e5823b"] ;
726 -> 728 ;
729 [label="gini = 0.0\nsamples = 9\nvalue = [90, 0]\nclass = poisonous", fillcolor="#e58139"] ;
728 -> 729 ;
730 [label="gini = 0.0\nsamples = 1\nvalue = [0, 1]\nclass = edible", fillcolor="#399de5"] ;
728 -> 730 ;
731 [label="gini = 0.0\nsamples = 1\nvalue = [0, 1]\nclass = edible", fillcolor="#399de5"] ;
725 -> 731 ;
732 [label="gini = 0.0\nsamples = 149\nvalue = [1490, 0]\nclass = poisonous", fillcolor="#e58139"] ;
724 -> 732 ;
733 [label="stem-width <= 0.253\ngini = 0.278\nsamples = 9\nvalue = [30, 6]\nclass = poisonous", fillcolor="#ea9a61"] ;
719 -> 733 ;
734 [label="gini = 0.0\nsamples = 6\nvalue = [0, 6]\nclass = edible", fillcolor="#399de5"] ;
733 -> 734 ;
735 [label="gini = 0.0\nsamples = 3\nvalue = [30, 0]\nclass = poisonous", fillcolor="#e58139"] ;
733 -> 735 ;
736 [label="cap-diameter <= -0.156\ngini = 0.211\nsamples = 111\nvalue = [470, 64]\nclass = poisonous", fillcolor="#e99254"] ;
714 -> 736 ;
737 [label="gini = 0.0\nsamples = 33\nvalue = [330, 0]\nclass = poisonous", fillcolor="#e58139"] ;
736 -> 737 ;
738 [label="cap-surface_t <= 0.5\ngini = 0.431\nsamples = 78\nvalue = [140, 64]\nclass = poisonous", fillcolor="#f1bb94"] ;
736 -> 738 ;
739 [label="gini = 0.0\nsamples = 14\nvalue = [140, 0]\nclass = poisonous", fillcolor="#e58139"] ;
738 -> 739 ;
740 [label="gini = 0.0\nsamples = 64\nvalue = [0, 64]\nclass = edible", fillcolor="#399de5"] ;
738 -> 740 ;
741 [label="stem-width <= 0.501\ngini = 0.342\nsamples = 19\nvalue = [50, 14]\nclass = poisonous", fillcolor="#eca470"] ;
669 -> 741 ;
742 [label="gini = 0.0\nsamples = 14\nvalue = [0, 14]\nclass = edible", fillcolor="#399de5"] ;
741 -> 742 ;
743 [label="gini = 0.0\nsamples = 5\nvalue = [50, 0]\nclass = poisonous", fillcolor="#e58139"] ;
741 -> 743 ;
744 [label="gini = 0.0\nsamples = 33\nvalue = [0, 33]\nclass = edible", fillcolor="#399de5"] ;
656 -> 744 ;
745 [label="gini = 0.0\nsamples = 63\nvalue = [0, 63]\nclass = edible", fillcolor="#399de5"] ;
655 -> 745 ;
746 [label="gini = 0.0\nsamples = 78\nvalue = [0, 78]\nclass = edible", fillcolor="#399de5"] ;
654 -> 746 ;
747 [label="gill-attachment_a <= 0.5\ngini = 0.076\nsamples = 1918\nvalue = [13570, 561]\nclass = poisonous", fillcolor="#e68641"] ;
553 -> 747 ;
748 [label="gill-attachment_s <= 0.5\ngini = 0.04\nsamples = 1595\nvalue = [13190, 276]\nclass = poisonous", fillcolor="#e6843d"] ;
747 -> 748 ;
749 [label="stem-width <= 0.136\ngini = 0.027\nsamples = 1504\nvalue = [13190, 185]\nclass = poisonous", fillcolor="#e5833c"] ;
748 -> 749 ;
750 [label="cap-shape_s <= 0.5\ngini = 0.368\nsamples = 227\nvalue = [540, 173]\nclass = poisonous", fillcolor="#eda978"] ;
749 -> 750 ;
751 [label="gini = 0.0\nsamples = 54\nvalue = [540, 0]\nclass = poisonous", fillcolor="#e58139"] ;
750 -> 751 ;
752 [label="gini = 0.0\nsamples = 173\nvalue = [0, 173]\nclass = edible", fillcolor="#399de5"] ;
750 -> 752 ;
753 [label="stem-width <= 0.18\ngini = 0.002\nsamples = 1277\nvalue = [12650, 12]\nclass = poisonous", fillcolor="#e58139"] ;
749 -> 753 ;
754 [label="gill-attachment_x <= 0.5\ngini = 0.062\nsamples = 32\nvalue = [240, 8]\nclass = poisonous", fillcolor="#e68540"] ;
753 -> 754 ;
755 [label="gini = 0.0\nsamples = 8\nvalue = [0, 8]\nclass = edible", fillcolor="#399de5"] ;
754 -> 755 ;
756 [label="gini = 0.0\nsamples = 24\nvalue = [240, 0]\nclass = poisonous", fillcolor="#e58139"] ;
754 -> 756 ;
757 [label="stem-width <= 0.243\ngini = 0.001\nsamples = 1245\nvalue = [12410, 4]\nclass = poisonous", fillcolor="#e58139"] ;
753 -> 757 ;
758 [label="cap-shape_x <= 0.5\ngini = 0.02\nsamples = 43\nvalue = [390.0, 4.0]\nclass = poisonous", fillcolor="#e5823b"] ;
757 -> 758 ;
759 [label="gini = 0.0\nsamples = 4\nvalue = [0, 4]\nclass = edible", fillcolor="#399de5"] ;
758 -> 759 ;
760 [label="gini = 0.0\nsamples = 39\nvalue = [390, 0]\nclass = poisonous", fillcolor="#e58139"] ;
758 -> 760 ;
761 [label="gini = 0.0\nsamples = 1202\nvalue = [12020, 0]\nclass = poisonous", fillcolor="#e58139"] ;
757 -> 761 ;
762 [label="gini = 0.0\nsamples = 91\nvalue = [0, 91]\nclass = edible", fillcolor="#399de5"] ;
748 -> 762 ;
763 [label="cap-color_n <= 0.5\ngini = 0.49\nsamples = 323\nvalue = [380, 285]\nclass = poisonous", fillcolor="#f8e0ce"] ;
747 -> 763 ;
764 [label="gini = 0.0\nsamples = 285\nvalue = [0, 285]\nclass = edible", fillcolor="#399de5"] ;
763 -> 764 ;
765 [label="gini = 0.0\nsamples = 38\nvalue = [380, 0]\nclass = poisonous", fillcolor="#e58139"] ;
763 -> 765 ;
766 [label="gill-attachment_x <= 0.5\ngini = 0.107\nsamples = 2461\nvalue = [15360, 925]\nclass = poisonous", fillcolor="#e78945"] ;
552 -> 766 ;
767 [label="does-bruise-or-bleed_f <= 0.5\ngini = 0.085\nsamples = 2239\nvalue = [15300, 709]\nclass = poisonous", fillcolor="#e68742"] ;
766 -> 767 ;
768 [label="cap-color_w <= 0.5\ngini = 0.001\nsamples = 925\nvalue = [9190, 6]\nclass = poisonous", fillcolor="#e58139"] ;
767 -> 768 ;
769 [label="gini = 0.0\nsamples = 829\nvalue = [8290, 0]\nclass = poisonous", fillcolor="#e58139"] ;
768 -> 769 ;
770 [label="cap-surface_y <= 0.5\ngini = 0.013\nsamples = 96\nvalue = [900, 6]\nclass = poisonous", fillcolor="#e5823a"] ;
768 -> 770 ;
771 [label="gini = 0.0\nsamples = 90\nvalue = [900, 0]\nclass = poisonous", fillcolor="#e58139"] ;
770 -> 771 ;
772 [label="gini = 0.0\nsamples = 6\nvalue = [0, 6]\nclass = edible", fillcolor="#399de5"] ;
770 -> 772 ;
773 [label="cap-surface_t <= 0.5\ngini = 0.185\nsamples = 1314\nvalue = [6110, 703]\nclass = poisonous", fillcolor="#e88f50"] ;
767 -> 773 ;
774 [label="gill-attachment_a <= 0.5\ngini = 0.069\nsamples = 786\nvalue = [5730.0, 213.0]\nclass = poisonous", fillcolor="#e68640"] ;
773 -> 774 ;
775 [label="ring-type_g <= 0.5\ngini = 0.024\nsamples = 620\nvalue = [5530, 67]\nclass = poisonous", fillcolor="#e5833b"] ;
774 -> 775 ;
776 [label="ring-type_p <= 0.5\ngini = 0.01\nsamples = 581\nvalue = [5530, 28]\nclass = poisonous", fillcolor="#e5823a"] ;
775 -> 776 ;
777 [label="gini = 0.0\nsamples = 553\nvalue = [5530, 0]\nclass = poisonous", fillcolor="#e58139"] ;
776 -> 777 ;
778 [label="gini = 0.0\nsamples = 28\nvalue = [0, 28]\nclass = edible", fillcolor="#399de5"] ;
776 -> 778 ;
779 [label="gini = 0.0\nsamples = 39\nvalue = [0, 39]\nclass = edible", fillcolor="#399de5"] ;
775 -> 779 ;
780 [label="stem-height <= 1.328\ngini = 0.488\nsamples = 166\nvalue = [200.0, 146.0]\nclass = poisonous", fillcolor="#f8ddca"] ;
774 -> 780 ;
781 [label="gini = 0.0\nsamples = 20\nvalue = [200, 0]\nclass = poisonous", fillcolor="#e58139"] ;
780 -> 781 ;
782 [label="gini = 0.0\nsamples = 146\nvalue = [0, 146]\nclass = edible", fillcolor="#399de5"] ;
780 -> 782 ;
783 [label="cap-diameter <= 0.198\ngini = 0.492\nsamples = 528\nvalue = [380, 490]\nclass = edible", fillcolor="#d3e9f9"] ;
773 -> 783 ;
784 [label="stem-width <= 0.821\ngini = 0.016\nsamples = 40\nvalue = [370, 3]\nclass = poisonous", fillcolor="#e5823b"] ;
783 -> 784 ;
785 [label="gini = 0.0\nsamples = 37\nvalue = [370, 0]\nclass = poisonous", fillcolor="#e58139"] ;
784 -> 785 ;
786 [label="gini = 0.0\nsamples = 3\nvalue = [0, 3]\nclass = edible", fillcolor="#399de5"] ;
784 -> 786 ;
787 [label="cap-shape_p <= 0.5\ngini = 0.039\nsamples = 488\nvalue = [10, 487]\nclass = edible", fillcolor="#3d9fe6"] ;
783 -> 787 ;
788 [label="gini = 0.0\nsamples = 487\nvalue = [0, 487]\nclass = edible", fillcolor="#399de5"] ;
787 -> 788 ;
789 [label="gini = 0.0\nsamples = 1\nvalue = [10, 0]\nclass = poisonous", fillcolor="#e58139"] ;
787 -> 789 ;
790 [label="stem-width <= 0.405\ngini = 0.34\nsamples = 222\nvalue = [60, 216]\nclass = edible", fillcolor="#70b8ec"] ;
766 -> 790 ;
791 [label="gini = 0.0\nsamples = 216\nvalue = [0, 216]\nclass = edible", fillcolor="#399de5"] ;
790 -> 791 ;
792 [label="gini = 0.0\nsamples = 6\nvalue = [60, 0]\nclass = poisonous", fillcolor="#e58139"] ;
790 -> 792 ;
793 [label="gini = 0.0\nsamples = 118\nvalue = [0, 118]\nclass = edible", fillcolor="#399de5"] ;
549 -> 793 ;
794 [label="gill-attachment_e <= 0.5\ngini = 0.472\nsamples = 474\nvalue = [660, 408]\nclass = poisonous", fillcolor="#f5cfb3"] ;
548 -> 794 ;
795 [label="gini = 0.0\nsamples = 408\nvalue = [0, 408]\nclass = edible", fillcolor="#399de5"] ;
794 -> 795 ;
796 [label="gini = 0.0\nsamples = 66\nvalue = [660, 0]\nclass = poisonous", fillcolor="#e58139"] ;
794 -> 796 ;
797 [label="gini = 0.0\nsamples = 365\nvalue = [0, 365]\nclass = edible", fillcolor="#399de5"] ;
547 -> 797 ;
798 [label="gini = 0.0\nsamples = 139\nvalue = [0, 139]\nclass = edible", fillcolor="#399de5"] ;
206 -> 798 ;
799 [label="stem-height <= 0.252\ngini = 0.327\nsamples = 1986\nvalue = [5530, 1433]\nclass = poisonous", fillcolor="#eca26c"] ;
205 -> 799 ;
800 [label="has-ring_t <= 0.5\ngini = 0.193\nsamples = 1221\nvalue = [5520, 669]\nclass = poisonous", fillcolor="#e89051"] ;
799 -> 800 ;
801 [label="cap-surface_t <= 0.5\ngini = 0.147\nsamples = 1032\nvalue = [5520, 480]\nclass = poisonous", fillcolor="#e78c4a"] ;
800 -> 801 ;
802 [label="gill-color_u <= 0.5\ngini = 0.108\nsamples = 889\nvalue = [5520, 337]\nclass = poisonous", fillcolor="#e78945"] ;
801 -> 802 ;
803 [label="gill-attachment_e <= 0.5\ngini = 0.08\nsamples = 794\nvalue = [5520.0, 242.0]\nclass = poisonous", fillcolor="#e68742"] ;
802 -> 803 ;
804 [label="cap-surface_w <= 0.5\ngini = 0.06\nsamples = 729\nvalue = [5520, 177]\nclass = poisonous", fillcolor="#e6853f"] ;
803 -> 804 ;
805 [label="cap-surface_y <= 0.5\ngini = 0.047\nsamples = 689\nvalue = [5520, 137]\nclass = poisonous", fillcolor="#e6843e"] ;
804 -> 805 ;
806 [label="cap-surface_d <= 0.5\ngini = 0.003\nsamples = 499\nvalue = [4920, 7]\nclass = poisonous", fillcolor="#e58139"] ;
805 -> 806 ;
