digraph Tree {
node [shape=box, style="filled", color="black", fontname="helvetica"] ;
edge [fontname="helvetica"] ;
0 [label="stem-height <= 3.83\ngini = 0.139\nsamples = 48738\nvalue = [21816, 269220]\nclass = edible", fillcolor="#49a5e7"] ;
1 [label="stem-width <= -0.361\ngini = 0.136\nsamples = 48306\nvalue = [21385, 269210]\nclass = edible", fillcolor="#49a5e7"] ;
0 -> 1 [labeldistance=2.5, labelangle=45, headlabel="True"] ;
2 [label="ring-type_l <= 0.5\ngini = 0.084\nsamples = 21310\nvalue = [6717, 145930]\nclass = edible", fillcolor="#42a2e6"] ;
1 -> 2 ;
3 [label="stem-color_w <= 0.5\ngini = 0.081\nsamples = 21017\nvalue = [6424, 145930]\nclass = edible", fillcolor="#42a1e6"] ;
2 -> 3 ;
4 [label="stem-color_g <= 0.5\ngini = 0.056\nsamples = 15093\nvalue = [3448, 116450]\nclass = edible", fillcolor="#3fa0e6"] ;
3 -> 4 ;
5 [label="stem-height <= -0.786\ngini = 0.048\nsamples = 14105\nvalue = [2866, 112390]\nclass = edible", fillcolor="#3e9fe6"] ;
4 -> 5 ;
6 [label="ring-type_r <= 0.5\ngini = 0.006\nsamples = 3811\nvalue = [111.0, 37000.0]\nclass = edible", fillcolor="#3a9de5"] ;
5 -> 6 ;
7 [label="gill-attachment_e <= 0.5\ngini = 0.005\nsamples = 3802\nvalue = [102, 37000]\nclass = edible", fillcolor="#3a9de5"] ;
6 -> 7 ;
8 [label="gill-attachment_x <= 0.5\ngini = 0.005\nsamples = 3800\nvalue = [100, 37000]\nclass = edible", fillcolor="#3a9de5"] ;
7 -> 8 ;
9 [label="gill-color_e <= 0.5\ngini = 0.004\nsamples = 3724\nvalue = [75, 36490]\nclass = edible", fillcolor="#399de5"] ;
8 -> 9 ;
10 [label="cap-surface_h <= 0.5\ngini = 0.003\nsamples = 3657\nvalue = [55, 36020]\nclass = edible", fillcolor="#399de5"] ;
9 -> 10 ;
11 [label="cap-surface_d <= 0.5\ngini = 0.002\nsamples = 3588\nvalue = [43, 35450]\nclass = edible", fillcolor="#399de5"] ;
10 -> 11 ;
12 [label="stem-width <= -0.45\ngini = 0.001\nsamples = 3321\nvalue = [21, 33000]\nclass = edible", fillcolor="#399de5"] ;
11 -> 12 ;
13 [label="stem-height <= -0.804\ngini = 0.001\nsamples = 3311\nvalue = [18, 32930]\nclass = edible", fillcolor="#399de5"] ;
12 -> 13 ;
14 [label="stem-height <= -0.852\ngini = 0.001\nsamples = 3190\nvalue = [11, 31790]\nclass = edible", fillcolor="#399de5"] ;
13 -> 14 ;
15 [label="gill-color_p <= 0.5\ngini = 0.0\nsamples = 2891\nvalue = [5, 28860]\nclass = edible", fillcolor="#399de5"] ;
14 -> 15 ;
16 [label="cap-color_p <= 0.5\ngini = 0.0\nsamples = 2781\nvalue = [2, 27790]\nclass = edible", fillcolor="#399de5"] ;
15 -> 16 ;
17 [label="stem-color_o <= 0.5\ngini = 0.0\nsamples = 2771\nvalue = [1, 27700]\nclass = edible", fillcolor="#399de5"] ;
16 -> 17 ;
18 [label="gini = 0.0\nsamples = 2628\nvalue = [0, 26280]\nclass = edible", fillcolor="#399de5"] ;
17 -> 18 ;
19 [label="season_s <= 0.5\ngini = 0.001\nsamples = 143\nvalue = [1, 1420]\nclass = edible", fillcolor="#399de5"] ;
17 -> 19 ;
20 [label="gini = 0.0\nsamples = 142\nvalue = [0, 1420]\nclass = edible", fillcolor="#399de5"] ;
19 -> 20 ;
21 [label="gini = 0.0\nsamples = 1\nvalue = [1, 0]\nclass = poisonous", fillcolor="#e58139"] ;
19 -> 21 ;
22 [label="habitat_m <= 0.5\ngini = 0.022\nsamples = 10\nvalue = [1, 90]\nclass = edible", fillcolor="#3b9ee5"] ;
16 -> 22 ;
23 [label="gini = 0.0\nsamples = 9\nvalue = [0, 90]\nclass = edible", fillcolor="#399de5"] ;
22 -> 23 ;
24 [label="gini = 0.0\nsamples = 1\nvalue = [1, 0]\nclass = poisonous", fillcolor="#e58139"] ;
22 -> 24 ;
25 [label="habitat_l <= 0.5\ngini = 0.006\nsamples = 110\nvalue = [3, 1070]\nclass = edible", fillcolor="#3a9de5"] ;
15 -> 25 ;
26 [label="gini = 0.0\nsamples = 107\nvalue = [0, 1070]\nclass = edible", fillcolor="#399de5"] ;
25 -> 26 ;
27 [label="gini = 0.0\nsamples = 3\nvalue = [3, 0]\nclass = poisonous", fillcolor="#e58139"] ;
25 -> 27 ;
28 [label="stem-color_o <= 0.5\ngini = 0.004\nsamples = 299\nvalue = [6.0, 2930.0]\nclass = edible", fillcolor="#399de5"] ;
14 -> 28 ;
29 [label="stem-color_e <= 0.5\ngini = 0.002\nsamples = 288\nvalue = [3, 2850]\nclass = edible", fillcolor="#399de5"] ;
28 -> 29 ;
30 [label="gill-color_g <= 0.5\ngini = 0.001\nsamples = 286\nvalue = [2, 2840]\nclass = edible", fillcolor="#399de5"] ;
29 -> 30 ;
31 [label="gini = 0.0\nsamples = 270\nvalue = [0, 2700]\nclass = edible", fillcolor="#399de5"] ;
30 -> 31 ;
32 [label="cap-surface_g <= 0.5\ngini = 0.028\nsamples = 16\nvalue = [2, 140]\nclass = edible", fillcolor="#3c9ee5"] ;
30 -> 32 ;
33 [label="gini = 0.0\nsamples = 14\nvalue = [0, 140]\nclass = edible", fillcolor="#399de5"] ;
32 -> 33 ;
34 [label="gini = 0.0\nsamples = 2\nvalue = [2, 0]\nclass = poisonous", fillcolor="#e58139"] ;
32 -> 34 ;
35 [label="cap-surface_s <= 0.5\ngini = 0.165\nsamples = 2\nvalue = [1, 10]\nclass = edible", fillcolor="#4da7e8"] ;
29 -> 35 ;
36 [label="gini = 0.0\nsamples = 1\nvalue = [0, 10]\nclass = edible", fillcolor="#399de5"] ;
35 -> 36 ;
37 [label="gini = 0.0\nsamples = 1\nvalue = [1, 0]\nclass = poisonous", fillcolor="#e58139"] ;
35 -> 37 ;
38 [label="cap-color_e <= 0.5\ngini = 0.07\nsamples = 11\nvalue = [3, 80]\nclass = edible", fillcolor="#40a1e6"] ;
28 -> 38 ;
39 [label="cap-color_p <= 0.5\ngini = 0.048\nsamples = 10\nvalue = [2, 80]\nclass = edible", fillcolor="#3e9fe6"] ;
38 -> 39 ;
40 [label="season_w <= 0.5\ngini = 0.024\nsamples = 9\nvalue = [1, 80]\nclass = edible", fillcolor="#3b9ee5"] ;
39 -> 40 ;
41 [label="gini = 0.0\nsamples = 8\nvalue = [0, 80]\nclass = edible", fillcolor="#399de5"] ;
40 -> 41 ;
42 [label="gini = 0.0\nsamples = 1\nvalue = [1, 0]\nclass = poisonous", fillcolor="#e58139"] ;
40 -> 42 ;
43 [label="gini = 0.0\nsamples = 1\nvalue = [1, 0]\nclass = poisonous", fillcolor="#e58139"] ;
39 -> 43 ;
44 [label="gini = 0.0\nsamples = 1\nvalue = [1, 0]\nclass = poisonous", fillcolor="#e58139"] ;
38 -> 44 ;
45 [label="stem-color_e <= 0.5\ngini = 0.012\nsamples = 121\nvalue = [7, 1140]\nclass = edible", fillcolor="#3a9ee5"] ;
13 -> 45 ;
46 [label="cap-color_g <= 0.5\ngini = 0.009\nsamples = 119\nvalue = [5, 1140]\nclass = edible", fillcolor="#3a9de5"] ;
45 -> 46 ;
47 [label="cap-surface_y <= 0.5\ngini = 0.007\nsamples = 118\nvalue = [4, 1140]\nclass = edible", fillcolor="#3a9de5"] ;
46 -> 47 ;
48 [label="gill-color_g <= 0.5\ngini = 0.005\nsamples = 117\nvalue = [3, 1140]\nclass = edible", fillcolor="#3a9de5"] ;
47 -> 48 ;
49 [label="cap-color_p <= 0.5\ngini = 0.002\nsamples = 109\nvalue = [1, 1080]\nclass = edible", fillcolor="#399de5"] ;
48 -> 49 ;
50 [label="gini = 0.0\nsamples = 99\nvalue = [0, 990]\nclass = edible", fillcolor="#399de5"] ;
49 -> 50 ;
51 [label="cap-surface_s <= 0.5\ngini = 0.022\nsamples = 10\nvalue = [1, 90]\nclass = edible", fillcolor="#3b9ee5"] ;
49 -> 51 ;
52 [label="gini = 0.0\nsamples = 9\nvalue = [0, 90]\nclass = edible", fillcolor="#399de5"] ;
51 -> 52 ;
53 [label="gini = 0.0\nsamples = 1\nvalue = [1, 0]\nclass = poisonous", fillcolor="#e58139"] ;
51 -> 53 ;
54 [label="has-ring_t <= 0.5\ngini = 0.062\nsamples = 8\nvalue = [2, 60]\nclass = edible", fillcolor="#40a0e6"] ;
48 -> 54 ;
55 [label="gini = 0.0\nsamples = 2\nvalue = [2, 0]\nclass = poisonous", fillcolor="#e58139"] ;
54 -> 55 ;
56 [label="gini = 0.0\nsamples = 6\nvalue = [0, 60]\nclass = edible", fillcolor="#399de5"] ;
54 -> 56 ;
57 [label="gini = 0.0\nsamples = 1\nvalue = [1, 0]\nclass = poisonous", fillcolor="#e58139"] ;
47 -> 57 ;
58 [label="gini = 0.0\nsamples = 1\nvalue = [1, 0]\nclass = poisonous", fillcolor="#e58139"] ;
46 -> 58 ;
59 [label="gini = 0.0\nsamples = 2\nvalue = [2, 0]\nclass = poisonous", fillcolor="#e58139"] ;
45 -> 59 ;
60 [label="cap-surface_k <= 0.5\ngini = 0.079\nsamples = 10\nvalue = [3, 70]\nclass = edible", fillcolor="#41a1e6"] ;
12 -> 60 ;
61 [label="gill-attachment_f <= 0.5\ngini = 0.028\nsamples = 8\nvalue = [1, 70]\nclass = edible", fillcolor="#3c9ee5"] ;
60 -> 61 ;
62 [label="gini = 0.0\nsamples = 7\nvalue = [0, 70]\nclass = edible", fillcolor="#399de5"] ;
61 -> 62 ;
63 [label="gini = 0.0\nsamples = 1\nvalue = [1, 0]\nclass = poisonous", fillcolor="#e58139"] ;
61 -> 63 ;
64 [label="gini = 0.0\nsamples = 2\nvalue = [2, 0]\nclass = poisonous", fillcolor="#e58139"] ;
60 -> 64 ;
65 [label="gill-color_p <= 0.5\ngini = 0.018\nsamples = 267\nvalue = [22, 2450]\nclass = edible", fillcolor="#3b9ee5"] ;
11 -> 65 ;
66 [label="gill-attachment_a <= 0.5\ngini = 0.006\nsamples = 252\nvalue = [7, 2450]\nclass = edible", fillcolor="#3a9de5"] ;
65 -> 66 ;
67 [label="gini = 0.0\nsamples = 245\nvalue = [0, 2450]\nclass = edible", fillcolor="#399de5"] ;
66 -> 67 ;
68 [label="gini = 0.0\nsamples = 7\nvalue = [7, 0]\nclass = poisonous", fillcolor="#e58139"] ;
66 -> 68 ;
69 [label="gini = 0.0\nsamples = 15\nvalue = [15, 0]\nclass = poisonous", fillcolor="#e58139"] ;
65 -> 69 ;
70 [label="gill-color_n <= 0.5\ngini = 0.04\nsamples = 69\nvalue = [12, 570]\nclass = edible", fillcolor="#3d9fe6"] ;
10 -> 70 ;
71 [label="gini = 0.0\nsamples = 12\nvalue = [12, 0]\nclass = poisonous", fillcolor="#e58139"] ;
70 -> 71 ;
72 [label="gini = 0.0\nsamples = 57\nvalue = [0, 570]\nclass = edible", fillcolor="#399de5"] ;
70 -> 72 ;
73 [label="habitat_d <= 0.5\ngini = 0.078\nsamples = 67\nvalue = [20, 470]\nclass = edible", fillcolor="#41a1e6"] ;
9 -> 73 ;
74 [label="gini = 0.0\nsamples = 20\nvalue = [20, 0]\nclass = poisonous", fillcolor="#e58139"] ;
73 -> 74 ;
75 [label="gini = 0.0\nsamples = 47\nvalue = [0, 470]\nclass = edible", fillcolor="#399de5"] ;
73 -> 75 ;
76 [label="stem-color_y <= 0.5\ngini = 0.089\nsamples = 76\nvalue = [25, 510]\nclass = edible", fillcolor="#43a2e6"] ;
8 -> 76 ;
77 [label="gini = 0.0\nsamples = 51\nvalue = [0, 510]\nclass = edible", fillcolor="#399de5"] ;
76 -> 77 ;
78 [label="gini = 0.0\nsamples = 25\nvalue = [25, 0]\nclass = poisonous", fillcolor="#e58139"] ;
76 -> 78 ;
79 [label="gini = 0.0\nsamples = 2\nvalue = [2, 0]\nclass = poisonous", fillcolor="#e58139"] ;
7 -> 79 ;
80 [label="gini = 0.0\nsamples = 9\nvalue = [9, 0]\nclass = poisonous", fillcolor="#e58139"] ;
6 -> 80 ;
81 [label="gill-color_f <= 0.5\ngini = 0.068\nsamples = 10294\nvalue = [2755, 75390]\nclass = edible", fillcolor="#40a1e6"] ;
5 -> 81 ;
82 [label="cap-surface_g <= 0.5\ngini = 0.062\nsamples = 9983\nvalue = [2491, 74920]\nclass = edible", fillcolor="#40a0e6"] ;
81 -> 82 ;
83 [label="ring-type_r <= 0.5\ngini = 0.047\nsamples = 8625\nvalue = [1718, 69070]\nclass = edible", fillcolor="#3e9fe6"] ;
82 -> 83 ;
84 [label="cap-surface_y <= 0.5\ngini = 0.042\nsamples = 8074\nvalue = [1445, 66290]\nclass = edible", fillcolor="#3d9fe6"] ;
83 -> 84 ;
85 [label="stem-color_o <= 0.5\ngini = 0.034\nsamples = 7731\nvalue = [1167, 65640]\nclass = edible", fillcolor="#3d9fe5"] ;
84 -> 85 ;
86 [label="cap-shape_x <= 0.5\ngini = 0.026\nsamples = 6772\nvalue = [806, 59660]\nclass = edible", fillcolor="#3c9ee5"] ;
85 -> 86 ;
87 [label="gill-color_p <= 0.5\ngini = 0.01\nsamples = 4118\nvalue = [202, 39160]\nclass = edible", fillcolor="#3a9ee5"] ;
86 -> 87 ;
88 [label="cap-color_o <= 0.5\ngini = 0.004\nsamples = 3548\nvalue = [77, 34710]\nclass = edible", fillcolor="#399de5"] ;
87 -> 88 ;
89 [label="stem-width <= -0.393\ngini = 0.003\nsamples = 3399\nvalue = [43, 33560]\nclass = edible", fillcolor="#399de5"] ;
88 -> 89 ;
90 [label="season_w <= 0.5\ngini = 0.002\nsamples = 3289\nvalue = [30, 32590]\nclass = edible", fillcolor="#399de5"] ;
89 -> 90 ;
91 [label="cap-surface_h <= 0.5\ngini = 0.001\nsamples = 3234\nvalue = [23, 32110]\nclass = edible", fillcolor="#399de5"] ;
90 -> 91 ;
92 [label="season_s <= 0.5\ngini = 0.001\nsamples = 2789\nvalue = [8.0, 27810.0]\nclass = edible", fillcolor="#399de5"] ;
91 -> 92 ;
93 [label="cap-surface_s <= 0.5\ngini = 0.0\nsamples = 2645\nvalue = [3, 26420]\nclass = edible", fillcolor="#399de5"] ;
92 -> 93 ;
94 [label="gill-color_w <= 0.5\ngini = 0.0\nsamples = 2554\nvalue = [1, 25530]\nclass = edible", fillcolor="#399de5"] ;
93 -> 94 ;
95 [label="gini = 0.0\nsamples = 2095\nvalue = [0, 20950]\nclass = edible", fillcolor="#399de5"] ;
94 -> 95 ;
96 [label="stem-height <= -0.039\ngini = 0.0\nsamples = 459\nvalue = [1, 4580]\nclass = edible", fillcolor="#399de5"] ;
94 -> 96 ;
97 [label="gini = 0.0\nsamples = 359\nvalue = [0, 3590]\nclass = edible", fillcolor="#399de5"] ;
96 -> 97 ;
98 [label="stem-width <= -0.697\ngini = 0.002\nsamples = 100\nvalue = [1, 990]\nclass = edible", fillcolor="#399de5"] ;
96 -> 98 ;
99 [label="gini = 0.0\nsamples = 1\nvalue = [1, 0]\nclass = poisonous", fillcolor="#e58139"] ;
98 -> 99 ;
100 [label="gini = 0.0\nsamples = 99\nvalue = [0, 990]\nclass = edible", fillcolor="#399de5"] ;
98 -> 100 ;
101 [label="gill-color_w <= 0.5\ngini = 0.004\nsamples = 91\nvalue = [2, 890]\nclass = edible", fillcolor="#399de5"] ;
93 -> 101 ;
102 [label="gini = 0.0\nsamples = 89\nvalue = [0, 890]\nclass = edible", fillcolor="#399de5"] ;
101 -> 102 ;
103 [label="gini = 0.0\nsamples = 2\nvalue = [2, 0]\nclass = poisonous", fillcolor="#e58139"] ;
101 -> 103 ;
104 [label="cap-shape_f <= 0.5\ngini = 0.007\nsamples = 144\nvalue = [5, 1390]\nclass = edible", fillcolor="#3a9de5"] ;
92 -> 104 ;
105 [label="gini = 0.0\nsamples = 139\nvalue = [0, 1390]\nclass = edible", fillcolor="#399de5"] ;
104 -> 105 ;
106 [label="gini = 0.0\nsamples = 5\nvalue = [5, 0]\nclass = poisonous", fillcolor="#e58139"] ;
104 -> 106 ;
107 [label="cap-diameter <= -0.554\ngini = 0.007\nsamples = 445\nvalue = [15, 4300]\nclass = edible", fillcolor="#3a9de5"] ;
91 -> 107 ;
108 [label="gini = 0.0\nsamples = 386\nvalue = [0, 3860]\nclass = edible", fillcolor="#399de5"] ;
107 -> 108 ;
109 [label="gill-attachment_a <= 0.5\ngini = 0.064\nsamples = 59\nvalue = [15, 440]\nclass = edible", fillcolor="#40a0e6"] ;
107 -> 109 ;
110 [label="gini = 0.0\nsamples = 44\nvalue = [0, 440]\nclass = edible", fillcolor="#399de5"] ;
109 -> 110 ;
111 [label="gini = 0.0\nsamples = 15\nvalue = [15, 0]\nclass = poisonous", fillcolor="#e58139"] ;
109 -> 111 ;
112 [label="cap-shape_f <= 0.5\ngini = 0.028\nsamples = 55\nvalue = [7, 480]\nclass = edible", fillcolor="#3c9ee5"] ;
90 -> 112 ;
113 [label="gini = 0.0\nsamples = 48\nvalue = [0, 480]\nclass = edible", fillcolor="#399de5"] ;
112 -> 113 ;
114 [label="gini = 0.0\nsamples = 7\nvalue = [7, 0]\nclass = poisonous", fillcolor="#e58139"] ;
112 -> 114 ;
115 [label="habitat_l <= 0.5\ngini = 0.026\nsamples = 110\nvalue = [13, 970]\nclass = edible", fillcolor="#3c9ee5"] ;
89 -> 115 ;
116 [label="gill-attachment_s <= 0.5\ngini = 0.008\nsamples = 100\nvalue = [4, 960]\nclass = edible", fillcolor="#3a9de5"] ;
115 -> 116 ;
117 [label="gini = 0.0\nsamples = 94\nvalue = [0, 940]\nclass = edible", fillcolor="#399de5"] ;
116 -> 117 ;
118 [label="stem-color_l <= 0.5\ngini = 0.278\nsamples = 6\nvalue = [4, 20]\nclass = edible", fillcolor="#61b1ea"] ;
116 -> 118 ;
119 [label="gini = 0.0\nsamples = 4\nvalue = [4, 0]\nclass = poisonous", fillcolor="#e58139"] ;
118 -> 119 ;
120 [label="gini = 0.0\nsamples = 2\nvalue = [0, 20]\nclass = edible", fillcolor="#399de5"] ;
118 -> 120 ;
121 [label="gill-attachment_d <= 0.5\ngini = 0.499\nsamples = 10\nvalue = [9, 10]\nclass = edible", fillcolor="#ebf5fc"] ;
115 -> 121 ;
122 [label="gini = 0.0\nsamples = 9\nvalue = [9, 0]\nclass = poisonous", fillcolor="#e58139"] ;
121 -> 122 ;
123 [label="gini = 0.0\nsamples = 1\nvalue = [0, 10]\nclass = edible", fillcolor="#399de5"] ;
121 -> 123 ;
124 [label="gill-attachment_a <= 0.5\ngini = 0.056\nsamples = 149\nvalue = [34, 1150]\nclass = edible", fillcolor="#3fa0e6"] ;
88 -> 124 ;
125 [label="gini = 0.0\nsamples = 115\nvalue = [0, 1150]\nclass = edible", fillcolor="#399de5"] ;
124 -> 125 ;
126 [label="gini = 0.0\nsamples = 34\nvalue = [34, 0]\nclass = poisonous", fillcolor="#e58139"] ;
124 -> 126 ;
127 [label="cap-surface_d <= 0.5\ngini = 0.053\nsamples = 570\nvalue = [125, 4450]\nclass = edible", fillcolor="#3fa0e6"] ;
87 -> 127 ;
128 [label="gini = 0.0\nsamples = 445\nvalue = [0, 4450]\nclass = edible", fillcolor="#399de5"] ;
127 -> 128 ;
129 [label="gini = 0.0\nsamples = 125\nvalue = [125, 0]\nclass = poisonous", fillcolor="#e58139"] ;
127 -> 129 ;
130 [label="stem-color_r <= 0.5\ngini = 0.056\nsamples = 2654\nvalue = [604, 20500]\nclass = edible", fillcolor="#3fa0e6"] ;
86 -> 130 ;
131 [label="habitat_h <= 0.5\ngini = 0.049\nsamples = 2573\nvalue = [523, 20500]\nclass = edible", fillcolor="#3ea0e6"] ;
130 -> 131 ;
132 [label="cap-color_p <= 0.5\ngini = 0.042\nsamples = 2502\nvalue = [452, 20500]\nclass = edible", fillcolor="#3d9fe6"] ;
131 -> 132 ;
133 [label="gill-color_w <= 0.5\ngini = 0.039\nsamples = 2461\nvalue = [411, 20500]\nclass = edible", fillcolor="#3d9fe6"] ;
132 -> 133 ;
134 [label="stem-color_l <= 0.5\ngini = 0.025\nsamples = 2127\nvalue = [239, 18880]\nclass = edible", fillcolor="#3c9ee5"] ;
133 -> 134 ;
135 [label="habitat_m <= 0.5\ngini = 0.017\nsamples = 2014\nvalue = [162.0, 18520.0]\nclass = edible", fillcolor="#3b9ee5"] ;
134 -> 135 ;
136 [label="gill-attachment_p <= 0.5\ngini = 0.014\nsamples = 1931\nvalue = [124, 18070]\nclass = edible", fillcolor="#3a9ee5"] ;
135 -> 136 ;
137 [label="gill-color_y <= 0.5\ngini = 0.013\nsamples = 1929\nvalue = [122, 18070]\nclass = edible", fillcolor="#3a9ee5"] ;
136 -> 137 ;
138 [label="stem-color_e <= 0.5\ngini = 0.009\nsamples = 1776\nvalue = [81, 16950]\nclass = edible", fillcolor="#3a9de5"] ;
137 -> 138 ;
139 [label="gill-attachment_x <= 0.5\ngini = 0.004\nsamples = 1478\nvalue = [28, 14500]\nclass = edible", fillcolor="#399de5"] ;
138 -> 139 ;
140 [label="cap-diameter <= 0.363\ngini = 0.0\nsamples = 1313\nvalue = [1, 13120]\nclass = edible", fillcolor="#399de5"] ;
139 -> 140 ;
141 [label="gini = 0.0\nsamples = 1294\nvalue = [0, 12940]\nclass = edible", fillcolor="#399de5"] ;
140 -> 141 ;
142 [label="gill-attachment_e <= 0.5\ngini = 0.011\nsamples = 19\nvalue = [1, 180]\nclass = edible", fillcolor="#3a9ee5"] ;
140 -> 142 ;
143 [label="gini = 0.0\nsamples = 18\nvalue = [0, 180]\nclass = edible", fillcolor="#399de5"] ;
142 -> 143 ;
144 [label="gini = 0.0\nsamples = 1\nvalue = [1, 0]\nclass = poisonous", fillcolor="#e58139"] ;
142 -> 144 ;
145 [label="gill-color_p <= 0.5\ngini = 0.038\nsamples = 165\nvalue = [27.0, 1380.0]\nclass = edible", fillcolor="#3d9fe6"] ;
139 -> 145 ;
146 [label="gini = 0.0\nsamples = 27\nvalue = [27, 0]\nclass = poisonous", fillcolor="#e58139"] ;
145 -> 146 ;
147 [label="gini = 0.0\nsamples = 138\nvalue = [0, 1380]\nclass = edible", fillcolor="#399de5"] ;
145 -> 147 ;
148 [label="habitat_d <= 0.5\ngini = 0.041\nsamples = 298\nvalue = [53, 2450]\nclass = edible", fillcolor="#3d9fe6"] ;
138 -> 148 ;
149 [label="gini = 0.0\nsamples = 53\nvalue = [53, 0]\nclass = poisonous", fillcolor="#e58139"] ;
148 -> 149 ;
150 [label="gini = 0.0\nsamples = 245\nvalue = [0, 2450]\nclass = edible", fillcolor="#399de5"] ;
148 -> 150 ;
151 [label="stem-width <= -0.669\ngini = 0.068\nsamples = 153\nvalue = [41.0, 1120.0]\nclass = edible", fillcolor="#40a1e6"] ;
137 -> 151 ;
152 [label="gini = 0.0\nsamples = 23\nvalue = [23, 0]\nclass = poisonous", fillcolor="#e58139"] ;
151 -> 152 ;
153 [label="cap-surface_h <= 0.5\ngini = 0.031\nsamples = 130\nvalue = [18, 1120]\nclass = edible", fillcolor="#3c9fe5"] ;
151 -> 153 ;
154 [label="cap-surface_t <= 0.5\ngini = 0.021\nsamples = 124\nvalue = [12, 1120]\nclass = edible", fillcolor="#3b9ee5"] ;
153 -> 154 ;
155 [label="gini = 0.0\nsamples = 109\nvalue = [0, 1090]\nclass = edible", fillcolor="#399de5"] ;
154 -> 155 ;
156 [label="stem-height <= -0.239\ngini = 0.408\nsamples = 15\nvalue = [12, 30]\nclass = edible", fillcolor="#88c4ef"] ;
154 -> 156 ;
157 [label="gini = 0.0\nsamples = 3\nvalue = [0, 30]\nclass = edible", fillcolor="#399de5"] ;
156 -> 157 ;
158 [label="gini = 0.0\nsamples = 12\nvalue = [12, 0]\nclass = poisonous", fillcolor="#e58139"] ;
156 -> 158 ;
159 [label="gini = 0.0\nsamples = 6\nvalue = [6, 0]\nclass = poisonous", fillcolor="#e58139"] ;
153 -> 159 ;
160 [label="gini = 0.0\nsamples = 2\nvalue = [2, 0]\nclass = poisonous", fillcolor="#e58139"] ;
136 -> 160 ;
161 [label="gill-attachment_a <= 0.5\ngini = 0.144\nsamples = 83\nvalue = [38, 450]\nclass = edible", fillcolor="#4aa5e7"] ;
135 -> 161 ;
162 [label="gini = 0.0\nsamples = 45\nvalue = [0, 450]\nclass = edible", fillcolor="#399de5"] ;
161 -> 162 ;
163 [label="gini = 0.0\nsamples = 38\nvalue = [38, 0]\nclass = poisonous", fillcolor="#e58139"] ;
161 -> 163 ;
164 [label="ring-type_e <= 0.5\ngini = 0.29\nsamples = 113\nvalue = [77, 360]\nclass = edible", fillcolor="#63b2eb"] ;
134 -> 164 ;
165 [label="gini = 0.0\nsamples = 77\nvalue = [77, 0]\nclass = poisonous", fillcolor="#e58139"] ;
164 -> 165 ;
166 [label="gini = 0.0\nsamples = 36\nvalue = [0, 360]\nclass = edible", fillcolor="#399de5"] ;
164 -> 166 ;
167 [label="cap-diameter <= -0.439\ngini = 0.174\nsamples = 334\nvalue = [172, 1620]\nclass = edible", fillcolor="#4ea7e8"] ;
133 -> 167 ;
168 [label="gini = 0.0\nsamples = 146\nvalue = [146, 0]\nclass = poisonous", fillcolor="#e58139"] ;
167 -> 168 ;
169 [label="cap-surface_s <= 0.5\ngini = 0.031\nsamples = 188\nvalue = [26, 1620]\nclass = edible", fillcolor="#3c9fe5"] ;
167 -> 169 ;
170 [label="cap-color_w <= 0.5\ngini = 0.023\nsamples = 181\nvalue = [19, 1620]\nclass = edible", fillcolor="#3b9ee5"] ;
169 -> 170 ;
171 [label="cap-color_o <= 0.5\ngini = 0.016\nsamples = 175\nvalue = [13.0, 1620.0]\nclass = edible", fillcolor="#3b9ee5"] ;
170 -> 171 ;
172 [label="season_s <= 0.5\ngini = 0.01\nsamples = 170\nvalue = [8, 1620]\nclass = edible", fillcolor="#3a9de5"] ;
171 -> 172 ;
173 [label="gill-attachment_a <= 0.5\ngini = 0.006\nsamples = 167\nvalue = [5, 1620]\nclass = edible", fillcolor="#3a9de5"] ;
172 -> 173 ;
174 [label="habitat_g <= 0.5\ngini = 0.001\nsamples = 162\nvalue = [1, 1610]\nclass = edible", fillcolor="#399de5"] ;
173 -> 174 ;
175 [label="gini = 0.0\nsamples = 161\nvalue = [0, 1610]\nclass = edible", fillcolor="#399de5"] ;
174 -> 175 ;
176 [label="gini = 0.0\nsamples = 1\nvalue = [1, 0]\nclass = poisonous", fillcolor="#e58139"] ;
174 -> 176 ;
177 [label="stem-color_y <= 0.5\ngini = 0.408\nsamples = 5\nvalue = [4, 10]\nclass = edible", fillcolor="#88c4ef"] ;
173 -> 177 ;
178 [label="gini = 0.0\nsamples = 4\nvalue = [4, 0]\nclass = poisonous", fillcolor="#e58139"] ;
177 -> 178 ;
179 [label="gini = 0.0\nsamples = 1\nvalue = [0, 10]\nclass = edible", fillcolor="#399de5"] ;
177 -> 179 ;
180 [label="gini = 0.0\nsamples = 3\nvalue = [3, 0]\nclass = poisonous", fillcolor="#e58139"] ;
172 -> 180 ;
181 [label="gini = 0.0\nsamples = 5\nvalue = [5, 0]\nclass = poisonous", fillcolor="#e58139"] ;
171 -> 181 ;
182 [label="gini = 0.0\nsamples = 6\nvalue = [6, 0]\nclass = poisonous", fillcolor="#e58139"] ;
170 -> 182 ;
183 [label="gini = 0.0\nsamples = 7\nvalue = [7, 0]\nclass = poisonous", fillcolor="#e58139"] ;
169 -> 183 ;
184 [label="gini = 0.0\nsamples = 41\nvalue = [41, 0]\nclass = poisonous", fillcolor="#e58139"] ;
132 -> 184 ;
185 [label="gini = 0.0\nsamples = 71\nvalue = [71, 0]\nclass = poisonous", fillcolor="#e58139"] ;
131 -> 185 ;
186 [label="gini = 0.0\nsamples = 81\nvalue = [81, 0]\nclass = poisonous", fillcolor="#e58139"] ;
130 -> 186 ;
187 [label="gill-color_w <= 0.5\ngini = 0.107\nsamples = 959\nvalue = [361, 5980]\nclass = edible", fillcolor="#45a3e7"] ;
85 -> 187 ;
188 [label="gill-color_e <= 0.5\ngini = 0.087\nsamples = 885\nvalue = [287, 5980]\nclass = edible", fillcolor="#43a2e6"] ;
187 -> 188 ;
189 [label="season_s <= 0.5\ngini = 0.069\nsamples = 820\nvalue = [222, 5980]\nclass = edible", fillcolor="#40a1e6"] ;
188 -> 189 ;
190 [label="cap-color_n <= 0.5\ngini = 0.062\nsamples = 797\nvalue = [199, 5980]\nclass = edible", fillcolor="#40a0e6"] ;
189 -> 190 ;
191 [label="cap-color_p <= 0.5\ngini = 0.029\nsamples = 616\nvalue = [80, 5360]\nclass = edible", fillcolor="#3c9ee5"] ;
190 -> 191 ;
192 [label="stem-height <= 0.613\ngini = 0.024\nsamples = 602\nvalue = [66, 5360]\nclass = edible", fillcolor="#3b9ee5"] ;
191 -> 192 ;
193 [label="season_w <= 0.5\ngini = 0.023\nsamples = 599\nvalue = [63, 5360]\nclass = edible", fillcolor="#3b9ee5"] ;
192 -> 193 ;
194 [label="cap-surface_d <= 0.5\ngini = 0.015\nsamples = 553\nvalue = [40, 5130]\nclass = edible", fillcolor="#3b9ee5"] ;
193 -> 194 ;
195 [label="habitat_d <= 0.5\ngini = 0.012\nsamples = 520\nvalue = [30, 4900]\nclass = edible", fillcolor="#3a9ee5"] ;
194 -> 195 ;
196 [label="cap-color_e <= 0.5\ngini = 0.007\nsamples = 477\nvalue = [16, 4610]\nclass = edible", fillcolor="#3a9de5"] ;
195 -> 196 ;
197 [label="stem-height <= -0.53\ngini = 0.003\nsamples = 440\nvalue = [7, 4330]\nclass = edible", fillcolor="#399de5"] ;
196 -> 197 ;
198 [label="stem-width <= -0.629\ngini = 0.014\nsamples = 88\nvalue = [6, 820]\nclass = edible", fillcolor="#3a9ee5"] ;
197 -> 198 ;
199 [label="gini = 0.0\nsamples = 82\nvalue = [0, 820]\nclass = edible", fillcolor="#399de5"] ;
198 -> 199 ;
200 [label="gini = 0.0\nsamples = 6\nvalue = [6, 0]\nclass = poisonous", fillcolor="#e58139"] ;
198 -> 200 ;
201 [label="gill-color_o <= 0.5\ngini = 0.001\nsamples = 352\nvalue = [1, 3510]\nclass = edible", fillcolor="#399de5"] ;
197 -> 201 ;
202 [label="gini = 0.0\nsamples = 315\nvalue = [0, 3150]\nclass = edible", fillcolor="#399de5"] ;
201 -> 202 ;
203 [label="cap-surface_t <= 0.5\ngini = 0.006\nsamples = 37\nvalue = [1, 360]\nclass = edible", fillcolor="#3a9de5"] ;
201 -> 203 ;
204 [label="gini = 0.0\nsamples = 1\nvalue = [1, 0]\nclass = poisonous", fillcolor="#e58139"] ;
203 -> 204 ;
205 [label="gini = 0.0\nsamples = 36\nvalue = [0, 360]\nclass = edible", fillcolor="#399de5"] ;
203 -> 205 ;
206 [label="gill-attachment_e <= 0.5\ngini = 0.06\nsamples = 37\nvalue = [9, 280]\nclass = edible", fillcolor="#3fa0e6"] ;
196 -> 206 ;
207 [label="gini = 0.0\nsamples = 9\nvalue = [9, 0]\nclass = poisonous", fillcolor="#e58139"] ;
206 -> 207 ;
208 [label="gini = 0.0\nsamples = 28\nvalue = [0, 280]\nclass = edible", fillcolor="#399de5"] ;
206 -> 208 ;
209 [label="has-ring_t <= 0.5\ngini = 0.088\nsamples = 43\nvalue = [14, 290]\nclass = edible", fillcolor="#43a2e6"] ;
195 -> 209 ;
210 [label="gini = 0.0\nsamples = 14\nvalue = [14, 0]\nclass = poisonous", fillcolor="#e58139"] ;
209 -> 210 ;
211 [label="gini = 0.0\nsamples = 29\nvalue = [0, 290]\nclass = edible", fillcolor="#399de5"] ;
209 -> 211 ;
212 [label="cap-shape_x <= 0.5\ngini = 0.08\nsamples = 33\nvalue = [10, 230]\nclass = edible", fillcolor="#42a1e6"] ;
194 -> 212 ;
213 [label="gini = 0.0\nsamples = 23\nvalue = [0, 230]\nclass = edible", fillcolor="#399de5"] ;
212 -> 213 ;
214 [label="gini = 0.0\nsamples = 10\nvalue = [10, 0]\nclass = poisonous", fillcolor="#e58139"] ;
212 -> 214 ;
215 [label="gill-color_n <= 0.5\ngini = 0.165\nsamples = 46\nvalue = [23, 230]\nclass = edible", fillcolor="#4da7e8"] ;
193 -> 215 ;
216 [label="gini = 0.0\nsamples = 23\nvalue = [23, 0]\nclass = poisonous", fillcolor="#e58139"] ;
215 -> 216 ;
217 [label="gini = 0.0\nsamples = 23\nvalue = [0, 230]\nclass = edible", fillcolor="#399de5"] ;
215 -> 217 ;
218 [label="gini = 0.0\nsamples = 3\nvalue = [3, 0]\nclass = poisonous", fillcolor="#e58139"] ;
192 -> 218 ;
219 [label="gini = 0.0\nsamples = 14\nvalue = [14, 0]\nclass = poisonous", fillcolor="#e58139"] ;
191 -> 219 ;
220 [label="ring-type_f <= 0.5\ngini = 0.27\nsamples = 181\nvalue = [119, 620]\nclass = edible", fillcolor="#5fb0ea"] ;
190 -> 220 ;
221 [label="gini = 0.0\nsamples = 62\nvalue = [0, 620]\nclass = edible", fillcolor="#399de5"] ;
220 -> 221 ;
222 [label="gini = 0.0\nsamples = 119\nvalue = [119, 0]\nclass = poisonous", fillcolor="#e58139"] ;
220 -> 222 ;
223 [label="gini = 0.0\nsamples = 23\nvalue = [23, 0]\nclass = poisonous", fillcolor="#e58139"] ;
189 -> 223 ;
224 [label="gini = 0.0\nsamples = 65\nvalue = [65, 0]\nclass = poisonous", fillcolor="#e58139"] ;
188 -> 224 ;
225 [label="gini = 0.0\nsamples = 74\nvalue = [74, 0]\nclass = poisonous", fillcolor="#e58139"] ;
187 -> 225 ;
226 [label="gill-color_p <= 0.5\ngini = 0.42\nsamples = 343\nvalue = [278, 650]\nclass = edible", fillcolor="#8ec7f0"] ;
84 -> 226 ;
227 [label="gini = 0.0\nsamples = 65\nvalue = [0, 650]\nclass = edible", fillcolor="#399de5"] ;
226 -> 227 ;
228 [label="gini = 0.0\nsamples = 278\nvalue = [278, 0]\nclass = poisonous", fillcolor="#e58139"] ;
226 -> 228 ;
229 [label="gill-attachment_x <= 0.5\ngini = 0.163\nsamples = 551\nvalue = [273, 2780]\nclass = edible", fillcolor="#4ca7e8"] ;
83 -> 229 ;
230 [label="gini = 0.0\nsamples = 278\nvalue = [0, 2780]\nclass = edible", fillcolor="#399de5"] ;
229 -> 230 ;
231 [label="gini = 0.0\nsamples = 273\nvalue = [273, 0]\nclass = poisonous", fillcolor="#e58139"] ;
229 -> 231 ;
232 [label="cap-diameter <= -0.724\ngini = 0.206\nsamples = 1358\nvalue = [773, 5850]\nclass = edible", fillcolor="#53aae8"] ;
82 -> 232 ;
233 [label="does-bruise-or-bleed_t <= 0.5\ngini = 0.118\nsamples = 976\nvalue = [392, 5840]\nclass = edible", fillcolor="#46a4e7"] ;
232 -> 233 ;
234 [label="stem-color_y <= 0.5\ngini = 0.036\nsamples = 693\nvalue = [109, 5840]\nclass = edible", fillcolor="#3d9fe5"] ;
233 -> 234 ;
235 [label="gill-color_g <= 0.5\ngini = 0.002\nsamples = 589\nvalue = [5, 5840]\nclass = edible", fillcolor="#399de5"] ;
234 -> 235 ;
236 [label="gini = 0.0\nsamples = 584\nvalue = [0, 5840]\nclass = edible", fillcolor="#399de5"] ;
235 -> 236 ;
237 [label="gini = 0.0\nsamples = 5\nvalue = [5, 0]\nclass = poisonous", fillcolor="#e58139"] ;
235 -> 237 ;
238 [label="gini = 0.0\nsamples = 104\nvalue = [104, 0]\nclass = poisonous", fillcolor="#e58139"] ;
234 -> 238 ;
239 [label="gini = 0.0\nsamples = 283\nvalue = [283, 0]\nclass = poisonous", fillcolor="#e58139"] ;
233 -> 239 ;
240 [label="cap-shape_x <= 0.5\ngini = 0.05\nsamples = 382\nvalue = [381, 10]\nclass = poisonous", fillcolor="#e6843e"] ;
232 -> 240 ;
241 [label="gini = 0.0\nsamples = 381\nvalue = [381, 0]\nclass = poisonous", fillcolor="#e58139"] ;
240 -> 241 ;
242 [label="gini = 0.0\nsamples = 1\nvalue = [0, 10]\nclass = edible", fillcolor="#399de5"] ;
240 -> 242 ;
243 [label="stem-height <= -0.508\ngini = 0.461\nsamples = 311\nvalue = [264, 470]\nclass = edible", fillcolor="#a8d4f4"] ;
81 -> 243 ;
244 [label="gini = 0.0\nsamples = 47\nvalue = [0, 470]\nclass = edible", fillcolor="#399de5"] ;
243 -> 244 ;
245 [label="gini = 0.0\nsamples = 264\nvalue = [264, 0]\nclass = poisonous", fillcolor="#e58139"] ;
243 -> 245 ;
246 [label="cap-surface_t <= 0.5\ngini = 0.219\nsamples = 988\nvalue = [582, 4060]\nclass = edible", fillcolor="#55abe9"] ;
4 -> 246 ;
247 [label="gini = 0.0\nsamples = 582\nvalue = [582, 0]\nclass = poisonous", fillcolor="#e58139"] ;
246 -> 247 ;
248 [label="gini = 0.0\nsamples = 406\nvalue = [0, 4060]\nclass = edible", fillcolor="#399de5"] ;
246 -> 248 ;
249 [label="cap-surface_w <= 0.5\ngini = 0.167\nsamples = 5924\nvalue = [2976, 29480]\nclass = edible", fillcolor="#4da7e8"] ;
3 -> 249 ;
250 [label="gill-color_o <= 0.5\ngini = 0.153\nsamples = 5640\nvalue = [2692, 29480]\nclass = edible", fillcolor="#4ba6e7"] ;
249 -> 250 ;
251 [label="season_s <= 0.5\ngini = 0.143\nsamples = 5433\nvalue = [2485, 29480]\nclass = edible", fillcolor="#4aa5e7"] ;
250 -> 251 ;
252 [label="habitat_l <= 0.5\ngini = 0.136\nsamples = 5275\nvalue = [2327, 29480]\nclass = edible", fillcolor="#49a5e7"] ;
251 -> 252 ;
253 [label="cap-shape_p <= 0.5\ngini = 0.129\nsamples = 5142\nvalue = [2194, 29480]\nclass = edible", fillcolor="#48a4e7"] ;
252 -> 253 ;
254 [label="cap-surface_l <= 0.5\ngini = 0.123\nsamples = 5033\nvalue = [2085, 29480]\nclass = edible", fillcolor="#47a4e7"] ;
253 -> 254 ;
255 [label="habitat_h <= 0.5\ngini = 0.119\nsamples = 4945\nvalue = [1997, 29480]\nclass = edible", fillcolor="#46a4e7"] ;
254 -> 255 ;
256 [label="season_w <= 0.5\ngini = 0.115\nsamples = 4878\nvalue = [1930, 29480]\nclass = edible", fillcolor="#46a3e7"] ;
255 -> 256 ;
257 [label="habitat_d <= 0.5\ngini = 0.101\nsamples = 4471\nvalue = [1608, 28630]\nclass = edible", fillcolor="#44a3e6"] ;
256 -> 257 ;
258 [label="gill-attachment_x <= 0.5\ngini = 0.025\nsamples = 1449\nvalue = [165, 12840]\nclass = edible", fillcolor="#3c9ee5"] ;
257 -> 258 ;
259 [label="cap-surface_s <= 0.5\ngini = 0.022\nsamples = 1430\nvalue = [146, 12840]\nclass = edible", fillcolor="#3b9ee5"] ;
258 -> 259 ;
260 [label="gini = 0.0\nsamples = 1027\nvalue = [0, 10270]\nclass = edible", fillcolor="#399de5"] ;
259 -> 260 ;
261 [label="habitat_m <= 0.5\ngini = 0.102\nsamples = 403\nvalue = [146, 2570]\nclass = edible", fillcolor="#44a3e6"] ;
259 -> 261 ;
262 [label="stem-height <= -0.865\ngini = 0.056\nsamples = 333\nvalue = [76, 2570]\nclass = edible", fillcolor="#3fa0e6"] ;
261 -> 262 ;
263 [label="stem-width <= -0.634\ngini = 0.039\nsamples = 309\nvalue = [52.0, 2570.0]\nclass = edible", fillcolor="#3d9fe6"] ;
262 -> 263 ;
264 [label="stem-height <= -1.226\ngini = 0.478\nsamples = 30\nvalue = [26, 40]\nclass = edible", fillcolor="#baddf6"] ;
263 -> 264 ;
265 [label="gini = 0.0\nsamples = 4\nvalue = [0, 40]\nclass = edible", fillcolor="#399de5"] ;
264 -> 265 ;
266 [label="gini = 0.0\nsamples = 26\nvalue = [26, 0]\nclass = poisonous", fillcolor="#e58139"] ;
264 -> 266 ;
267 [label="cap-diameter <= -0.575\ngini = 0.02\nsamples = 279\nvalue = [26, 2530]\nclass = edible", fillcolor="#3b9ee5"] ;
263 -> 267 ;
268 [label="stem-height <= -0.934\ngini = 0.014\nsamples = 270\nvalue = [18, 2520]\nclass = edible", fillcolor="#3a9ee5"] ;
267 -> 268 ;
269 [label="stem-width <= -0.615\ngini = 0.008\nsamples = 257\nvalue = [10, 2470]\nclass = edible", fillcolor="#3a9de5"] ;
268 -> 269 ;
270 [label="stem-height <= -1.129\ngini = 0.187\nsamples = 13\nvalue = [7, 60]\nclass = edible", fillcolor="#50a8e8"] ;
269 -> 270 ;
271 [label="gini = 0.0\nsamples = 6\nvalue = [0, 60]\nclass = edible", fillcolor="#399de5"] ;
270 -> 271 ;
272 [label="gini = 0.0\nsamples = 7\nvalue = [7, 0]\nclass = poisonous", fillcolor="#e58139"] ;
270 -> 272 ;
273 [label="stem-height <= -0.98\ngini = 0.002\nsamples = 244\nvalue = [3, 2410]\nclass = edible", fillcolor="#399de5"] ;
269 -> 273 ;
274 [label="gini = 0.0\nsamples = 228\nvalue = [0, 2280]\nclass = edible", fillcolor="#399de5"] ;
273 -> 274 ;
275 [label="stem-width <= -0.515\ngini = 0.044\nsamples = 16\nvalue = [3, 130]\nclass = edible", fillcolor="#3e9fe6"] ;
273 -> 275 ;
276 [label="gini = 0.0\nsamples = 3\nvalue = [3, 0]\nclass = poisonous", fillcolor="#e58139"] ;
275 -> 276 ;
277 [label="gini = 0.0\nsamples = 13\nvalue = [0, 130]\nclass = edible", fillcolor="#399de5"] ;
275 -> 277 ;
278 [label="stem-width <= -0.51\ngini = 0.238\nsamples = 13\nvalue = [8, 50]\nclass = edible", fillcolor="#59ade9"] ;
268 -> 278 ;
279 [label="gini = 0.0\nsamples = 8\nvalue = [8, 0]\nclass = poisonous", fillcolor="#e58139"] ;
278 -> 279 ;
280 [label="gini = 0.0\nsamples = 5\nvalue = [0, 50]\nclass = edible", fillcolor="#399de5"] ;
278 -> 280 ;
281 [label="cap-color_w <= 0.5\ngini = 0.494\nsamples = 9\nvalue = [8, 10]\nclass = edible", fillcolor="#d7ebfa"] ;
267 -> 281 ;
282 [label="gini = 0.0\nsamples = 1\nvalue = [0, 10]\nclass = edible", fillcolor="#399de5"] ;
281 -> 282 ;
283 [label="gini = 0.0\nsamples = 8\nvalue = [8, 0]\nclass = poisonous", fillcolor="#e58139"] ;
281 -> 283 ;
284 [label="gini = 0.0\nsamples = 24\nvalue = [24, 0]\nclass = poisonous", fillcolor="#e58139"] ;
262 -> 284 ;
285 [label="gini = 0.0\nsamples = 70\nvalue = [70, 0]\nclass = poisonous", fillcolor="#e58139"] ;
261 -> 285 ;
286 [label="gini = 0.0\nsamples = 19\nvalue = [19, 0]\nclass = poisonous", fillcolor="#e58139"] ;
258 -> 286 ;
287 [label="gill-color_k <= 0.5\ngini = 0.153\nsamples = 3022\nvalue = [1443.0, 15790.0]\nclass = edible", fillcolor="#4ba6e7"] ;
257 -> 287 ;
288 [label="cap-color_g <= 0.5\ngini = 0.133\nsamples = 2798\nvalue = [1219, 15790]\nclass = edible", fillcolor="#48a5e7"] ;
287 -> 288 ;
289 [label="gill-attachment_d <= 0.5\ngini = 0.115\nsamples = 2606\nvalue = [1027, 15790]\nclass = edible", fillcolor="#46a3e7"] ;
288 -> 289 ;
290 [label="cap-surface_h <= 0.5\ngini = 0.105\nsamples = 2505\nvalue = [926, 15790]\nclass = edible", fillcolor="#45a3e7"] ;
289 -> 290 ;
291 [label="cap-color_w <= 0.5\ngini = 0.091\nsamples = 2343\nvalue = [780, 15630]\nclass = edible", fillcolor="#43a2e6"] ;
290 -> 291 ;
292 [label="gill-color_u <= 0.5\ngini = 0.076\nsamples = 2109\nvalue = [614, 14950]\nclass = edible", fillcolor="#41a1e6"] ;
291 -> 292 ;
293 [label="cap-shape_c <= 0.5\ngini = 0.062\nsamples = 1868\nvalue = [467, 14010]\nclass = edible", fillcolor="#40a0e6"] ;
292 -> 293 ;
294 [label="cap-diameter <= -0.358\ngini = 0.076\nsamples = 1602\nvalue = [467, 11350]\nclass = edible", fillcolor="#41a1e6"] ;
293 -> 294 ;
295 [label="gill-color_r <= 0.5\ngini = 0.063\nsamples = 1461\nvalue = [366, 10950]\nclass = edible", fillcolor="#40a0e6"] ;
294 -> 295 ;
296 [label="stem-height <= -0.236\ngini = 0.061\nsamples = 1450\nvalue = [355.0, 10950.0]\nclass = edible", fillcolor="#3fa0e6"] ;
295 -> 296 ;
297 [label="stem-height <= -1.041\ngini = 0.034\nsamples = 967\nvalue = [145, 8220]\nclass = edible", fillcolor="#3c9fe5"] ;
296 -> 297 ;
298 [label="cap-color_y <= 0.5\ngini = 0.338\nsamples = 15\nvalue = [11, 40]\nclass = edible", fillcolor="#6fb8ec"] ;
297 -> 298 ;
299 [label="gini = 0.0\nsamples = 4\nvalue = [0, 40]\nclass = edible", fillcolor="#399de5"] ;
298 -> 299 ;
300 [label="gini = 0.0\nsamples = 11\nvalue = [11, 0]\nclass = poisonous", fillcolor="#e58139"] ;
298 -> 300 ;
301 [label="cap-surface_s <= 0.5\ngini = 0.032\nsamples = 952\nvalue = [134, 8180]\nclass = edible", fillcolor="#3c9fe5"] ;
297 -> 301 ;
302 [label="gill-color_y <= 0.5\ngini = 0.031\nsamples = 951\nvalue = [133, 8180]\nclass = edible", fillcolor="#3c9fe5"] ;
301 -> 302 ;
303 [label="cap-diameter <= -0.919\ngini = 0.024\nsamples = 790\nvalue = [85, 7050]\nclass = edible", fillcolor="#3b9ee5"] ;
302 -> 303 ;
304 [label="gill-color_w <= 0.5\ngini = 0.48\nsamples = 16\nvalue = [15, 10]\nclass = poisonous", fillcolor="#f6d5bd"] ;
303 -> 304 ;
305 [label="gini = 0.0\nsamples = 1\nvalue = [0, 10]\nclass = edible", fillcolor="#399de5"] ;
304 -> 305 ;
306 [label="gini = 0.0\nsamples = 15\nvalue = [15, 0]\nclass = poisonous", fillcolor="#e58139"] ;
304 -> 306 ;
307 [label="gill-color_g <= 0.5\ngini = 0.019\nsamples = 774\nvalue = [70, 7040]\nclass = edible", fillcolor="#3b9ee5"] ;
303 -> 307 ;
308 [label="cap-diameter <= -0.74\ngini = 0.015\nsamples = 700\nvalue = [48, 6520]\nclass = edible", fillcolor="#3a9ee5"] ;
307 -> 308 ;
309 [label="cap-color_b <= 0.5\ngini = 0.056\nsamples = 122\nvalue = [28, 940]\nclass = edible", fillcolor="#3fa0e6"] ;
308 -> 309 ;
310 [label="stem-height <= -0.397\ngini = 0.027\nsamples = 105\nvalue = [13, 920]\nclass = edible", fillcolor="#3c9ee5"] ;
309 -> 310 ;
311 [label="cap-diameter <= -0.888\ngini = 0.003\nsamples = 67\nvalue = [1, 660]\nclass = edible", fillcolor="#399de5"] ;
310 -> 311 ;
312 [label="cap-diameter <= -0.891\ngini = 0.038\nsamples = 6\nvalue = [1, 50]\nclass = edible", fillcolor="#3d9fe6"] ;
311 -> 312 ;
313 [label="gini = 0.0\nsamples = 5\nvalue = [0, 50]\nclass = edible", fillcolor="#399de5"] ;
312 -> 313 ;
314 [label="gini = 0.0\nsamples = 1\nvalue = [1, 0]\nclass = poisonous", fillcolor="#e58139"] ;
312 -> 314 ;
315 [label="gini = 0.0\nsamples = 61\nvalue = [0, 610]\nclass = edible", fillcolor="#399de5"] ;
311 -> 315 ;
316 [label="cap-color_u <= 0.5\ngini = 0.084\nsamples = 38\nvalue = [12, 260]\nclass = edible", fillcolor="#42a2e6"] ;
310 -> 316 ;
317 [label="cap-diameter <= -0.761\ngini = 0.044\nsamples = 32\nvalue = [6, 260]\nclass = edible", fillcolor="#3e9fe6"] ;
316 -> 317 ;
318 [label="cap-diameter <= -0.887\ngini = 0.016\nsamples = 27\nvalue = [2, 250]\nclass = edible", fillcolor="#3b9ee5"] ;
317 -> 318 ;
319 [label="gini = 0.0\nsamples = 1\nvalue = [1, 0]\nclass = poisonous", fillcolor="#e58139"] ;
318 -> 319 ;
320 [label="stem-height <= -0.249\ngini = 0.008\nsamples = 26\nvalue = [1, 250]\nclass = edible", fillcolor="#3a9de5"] ;
318 -> 320 ;
321 [label="gini = 0.0\nsamples = 23\nvalue = [0, 230]\nclass = edible", fillcolor="#399de5"] ;
320 -> 321 ;
322 [label="gill-color_n <= 0.5\ngini = 0.091\nsamples = 3\nvalue = [1, 20]\nclass = edible", fillcolor="#43a2e6"] ;
320 -> 322 ;
323 [label="gini = 0.0\nsamples = 2\nvalue = [0, 20]\nclass = edible", fillcolor="#399de5"] ;
322 -> 323 ;
324 [label="gini = 0.0\nsamples = 1\nvalue = [1, 0]\nclass = poisonous", fillcolor="#e58139"] ;
322 -> 324 ;
325 [label="stem-width <= -0.757\ngini = 0.408\nsamples = 5\nvalue = [4, 10]\nclass = edible", fillcolor="#88c4ef"] ;
317 -> 325 ;
326 [label="gini = 0.0\nsamples = 4\nvalue = [4, 0]\nclass = poisonous", fillcolor="#e58139"] ;
325 -> 326 ;
327 [label="gini = 0.0\nsamples = 1\nvalue = [0, 10]\nclass = edible", fillcolor="#399de5"] ;
325 -> 327 ;
328 [label="gini = 0.0\nsamples = 6\nvalue = [6, 0]\nclass = poisonous", fillcolor="#e58139"] ;
316 -> 328 ;
329 [label="cap-shape_x <= 0.5\ngini = 0.49\nsamples = 17\nvalue = [15, 20]\nclass = edible", fillcolor="#cee6f8"] ;
309 -> 329 ;
330 [label="gini = 0.0\nsamples = 2\nvalue = [0, 20]\nclass = edible", fillcolor="#399de5"] ;
329 -> 330 ;
331 [label="gini = 0.0\nsamples = 15\nvalue = [15, 0]\nclass = poisonous", fillcolor="#e58139"] ;
329 -> 331 ;
332 [label="stem-height <= -0.283\ngini = 0.007\nsamples = 578\nvalue = [20, 5580]\nclass = edible", fillcolor="#3a9de5"] ;
308 -> 332 ;
333 [label="gill-attachment_s <= 0.5\ngini = 0.005\nsamples = 542\nvalue = [14, 5280]\nclass = edible", fillcolor="#3a9de5"] ;
332 -> 333 ;
334 [label="stem-height <= -0.328\ngini = 0.002\nsamples = 439\nvalue = [4, 4350]\nclass = edible", fillcolor="#399de5"] ;
333 -> 334 ;
335 [label="cap-diameter <= -0.727\ngini = 0.0\nsamples = 407\nvalue = [1, 4060]\nclass = edible", fillcolor="#399de5"] ;
334 -> 335 ;
336 [label="season_a <= 0.5\ngini = 0.032\nsamples = 7\nvalue = [1, 60]\nclass = edible", fillcolor="#3c9fe5"] ;
335 -> 336 ;
337 [label="gini = 0.0\nsamples = 1\nvalue = [1, 0]\nclass = poisonous", fillcolor="#e58139"] ;
336 -> 337 ;
338 [label="gini = 0.0\nsamples = 6\nvalue = [0, 60]\nclass = edible", fillcolor="#399de5"] ;
336 -> 338 ;
339 [label="gini = 0.0\nsamples = 400\nvalue = [0, 4000]\nclass = edible", fillcolor="#399de5"] ;
335 -> 339 ;
340 [label="stem-width <= -0.843\ngini = 0.02\nsamples = 32\nvalue = [3, 290]\nclass = edible", fillcolor="#3b9ee5"] ;
334 -> 340 ;
341 [label="gini = 0.0\nsamples = 2\nvalue = [2, 0]\nclass = poisonous", fillcolor="#e58139"] ;
340 -> 341 ;
342 [label="cap-color_u <= 0.5\ngini = 0.007\nsamples = 30\nvalue = [1, 290]\nclass = edible", fillcolor="#3a9de5"] ;
340 -> 342 ;
343 [label="gini = 0.0\nsamples = 29\nvalue = [0, 290]\nclass = edible", fillcolor="#399de5"] ;
342 -> 343 ;
344 [label="gini = 0.0\nsamples = 1\nvalue = [1, 0]\nclass = poisonous", fillcolor="#e58139"] ;
342 -> 344 ;
345 [label="has-ring_t <= 0.5\ngini = 0.021\nsamples = 103\nvalue = [10, 930]\nclass = edible", fillcolor="#3b9ee5"] ;
333 -> 345 ;
346 [label="gini = 0.0\nsamples = 10\nvalue = [10, 0]\nclass = poisonous", fillcolor="#e58139"] ;
345 -> 346 ;
347 [label="gini = 0.0\nsamples = 93\nvalue = [0, 930]\nclass = edible", fillcolor="#399de5"] ;
345 -> 347 ;
348 [label="stem-width <= -0.845\ngini = 0.038\nsamples = 36\nvalue = [6, 300]\nclass = edible", fillcolor="#3d9fe6"] ;
332 -> 348 ;
349 [label="gini = 0.0\nsamples = 4\nvalue = [4, 0]\nclass = poisonous", fillcolor="#e58139"] ;
348 -> 349 ;
350 [label="cap-color_u <= 0.5\ngini = 0.013\nsamples = 32\nvalue = [2, 300]\nclass = edible", fillcolor="#3a9ee5"] ;
348 -> 350 ;
351 [label="gini = 0.0\nsamples = 29\nvalue = [0, 290]\nclass = edible", fillcolor="#399de5"] ;
350 -> 351 ;
352 [label="cap-shape_f <= 0.5\ngini = 0.278\nsamples = 3\nvalue = [2, 10]\nclass = edible", fillcolor="#61b1ea"] ;
350 -> 352 ;
353 [label="gini = 0.0\nsamples = 2\nvalue = [2, 0]\nclass = poisonous", fillcolor="#e58139"] ;
352 -> 353 ;
354 [label="gini = 0.0\nsamples = 1\nvalue = [0, 10]\nclass = edible", fillcolor="#399de5"] ;
352 -> 354 ;
355 [label="cap-shape_f <= 0.5\ngini = 0.078\nsamples = 74\nvalue = [22, 520]\nclass = edible", fillcolor="#41a1e6"] ;
307 -> 355 ;
356 [label="stem-height <= -0.77\ngini = 0.037\nsamples = 62\nvalue = [10, 520]\nclass = edible", fillcolor="#3d9fe6"] ;
355 -> 356 ;
357 [label="gini = 0.0\nsamples = 5\nvalue = [5, 0]\nclass = poisonous", fillcolor="#e58139"] ;
356 -> 357 ;
358 [label="cap-diameter <= -0.395\ngini = 0.019\nsamples = 57\nvalue = [5.0, 520.0]\nclass = edible", fillcolor="#3b9ee5"] ;
356 -> 358 ;
359 [label="stem-width <= -0.542\ngini = 0.011\nsamples = 55\nvalue = [3, 520]\nclass = edible", fillcolor="#3a9ee5"] ;
358 -> 359 ;
360 [label="gini = 0.0\nsamples = 51\nvalue = [0, 510]\nclass = edible", fillcolor="#399de5"] ;
359 -> 360 ;
361 [label="stem-height <= -0.426\ngini = 0.355\nsamples = 4\nvalue = [3, 10]\nclass = edible", fillcolor="#74baed"] ;
359 -> 361 ;
362 [label="gini = 0.0\nsamples = 3\nvalue = [3, 0]\nclass = poisonous", fillcolor="#e58139"] ;
361 -> 362 ;
363 [label="gini = 0.0\nsamples = 1\nvalue = [0, 10]\nclass = edible", fillcolor="#399de5"] ;
361 -> 363 ;
364 [label="gini = 0.0\nsamples = 2\nvalue = [2, 0]\nclass = poisonous", fillcolor="#e58139"] ;
358 -> 364 ;
365 [label="gini = 0.0\nsamples = 12\nvalue = [12, 0]\nclass = poisonous", fillcolor="#e58139"] ;
355 -> 365 ;
366 [label="cap-surface_g <= 0.5\ngini = 0.078\nsamples = 161\nvalue = [48, 1130]\nclass = edible", fillcolor="#41a1e6"] ;
302 -> 366 ;
367 [label="gini = 0.0\nsamples = 48\nvalue = [48, 0]\nclass = poisonous", fillcolor="#e58139"] ;
366 -> 367 ;
368 [label="gini = 0.0\nsamples = 113\nvalue = [0, 1130]\nclass = edible", fillcolor="#399de5"] ;
366 -> 368 ;
369 [label="gini = 0.0\nsamples = 1\nvalue = [1, 0]\nclass = poisonous", fillcolor="#e58139"] ;
301 -> 369 ;
370 [label="gill-color_n <= 0.5\ngini = 0.133\nsamples = 483\nvalue = [210, 2730]\nclass = edible", fillcolor="#48a5e7"] ;
296 -> 370 ;
371 [label="cap-color_u <= 0.5\ngini = 0.076\nsamples = 372\nvalue = [109, 2630]\nclass = edible", fillcolor="#41a1e6"] ;
370 -> 371 ;
372 [label="cap-surface_t <= 0.5\ngini = 0.057\nsamples = 343\nvalue = [80, 2630]\nclass = edible", fillcolor="#3fa0e6"] ;
371 -> 372 ;
373 [label="gini = 0.0\nsamples = 227\nvalue = [0, 2270]\nclass = edible", fillcolor="#399de5"] ;
372 -> 373 ;
374 [label="stem-width <= -0.616\ngini = 0.298\nsamples = 116\nvalue = [80, 360]\nclass = edible", fillcolor="#65b3eb"] ;
372 -> 374 ;
375 [label="gini = 0.0\nsamples = 77\nvalue = [77, 0]\nclass = poisonous", fillcolor="#e58139"] ;
374 -> 375 ;
376 [label="stem-height <= 0.177\ngini = 0.016\nsamples = 39\nvalue = [3, 360]\nclass = edible", fillcolor="#3b9ee5"] ;
374 -> 376 ;
377 [label="gini = 0.0\nsamples = 36\nvalue = [0, 360]\nclass = edible", fillcolor="#399de5"] ;
376 -> 377 ;
378 [label="gini = 0.0\nsamples = 3\nvalue = [3, 0]\nclass = poisonous", fillcolor="#e58139"] ;
376 -> 378 ;
379 [label="gini = 0.0\nsamples = 29\nvalue = [29, 0]\nclass = poisonous", fillcolor="#e58139"] ;
371 -> 379 ;
380 [label="ring-type_f <= 0.5\ngini = 0.5\nsamples = 111\nvalue = [101.0, 100.0]\nclass = poisonous", fillcolor="#fffefd"] ;
370 -> 380 ;
381 [label="gini = 0.0\nsamples = 10\nvalue = [0, 100]\nclass = edible", fillcolor="#399de5"] ;
380 -> 381 ;
382 [label="gini = 0.0\nsamples = 101\nvalue = [101, 0]\nclass = poisonous", fillcolor="#e58139"] ;
380 -> 382 ;
383 [label="gini = 0.0\nsamples = 11\nvalue = [11, 0]\nclass = poisonous", fillcolor="#e58139"] ;
295 -> 383 ;
384 [label="cap-color_n <= 0.5\ngini = 0.322\nsamples = 141\nvalue = [101, 400]\nclass = edible", fillcolor="#6bb6ec"] ;
294 -> 384 ;
385 [label="stem-width <= -0.679\ngini = 0.087\nsamples = 59\nvalue = [19, 400]\nclass = edible", fillcolor="#42a2e6"] ;
384 -> 385 ;
386 [label="gini = 0.0\nsamples = 16\nvalue = [16, 0]\nclass = poisonous", fillcolor="#e58139"] ;
385 -> 386 ;
387 [label="stem-height <= -0.821\ngini = 0.015\nsamples = 43\nvalue = [3, 400]\nclass = edible", fillcolor="#3a9ee5"] ;
385 -> 387 ;
388 [label="gini = 0.0\nsamples = 1\nvalue = [1, 0]\nclass = poisonous", fillcolor="#e58139"] ;
387 -> 388 ;
389 [label="gill-color_r <= 0.5\ngini = 0.01\nsamples = 42\nvalue = [2, 400]\nclass = edible", fillcolor="#3a9de5"] ;
387 -> 389 ;
390 [label="gill-color_y <= 0.5\ngini = 0.005\nsamples = 41\nvalue = [1, 400]\nclass = edible", fillcolor="#399de5"] ;
389 -> 390 ;
391 [label="gini = 0.0\nsamples = 39\nvalue = [0, 390]\nclass = edible", fillcolor="#399de5"] ;
390 -> 391 ;
392 [label="season_a <= 0.5\ngini = 0.165\nsamples = 2\nvalue = [1, 10]\nclass = edible", fillcolor="#4da7e8"] ;
390 -> 392 ;
393 [label="gini = 0.0\nsamples = 1\nvalue = [1, 0]\nclass = poisonous", fillcolor="#e58139"] ;
392 -> 393 ;
394 [label="gini = 0.0\nsamples = 1\nvalue = [0, 10]\nclass = edible", fillcolor="#399de5"] ;
392 -> 394 ;
395 [label="gini = 0.0\nsamples = 1\nvalue = [1, 0]\nclass = poisonous", fillcolor="#e58139"] ;
389 -> 395 ;
396 [label="gini = 0.0\nsamples = 82\nvalue = [82, 0]\nclass = poisonous", fillcolor="#e58139"] ;
384 -> 396 ;
397 [label="gini = 0.0\nsamples = 266\nvalue = [0, 2660]\nclass = edible", fillcolor="#399de5"] ;
293 -> 397 ;
398 [label="cap-shape_b <= 0.5\ngini = 0.234\nsamples = 241\nvalue = [147, 940]\nclass = edible", fillcolor="#58ace9"] ;
292 -> 398 ;
399 [label="has-ring_f <= 0.5\ngini = 0.282\nsamples = 150\nvalue = [147, 30]\nclass = poisonous", fillcolor="#ea9b61"] ;
398 -> 399 ;
400 [label="gini = 0.0\nsamples = 3\nvalue = [0, 30]\nclass = edible", fillcolor="#399de5"] ;
399 -> 400 ;
401 [label="gini = 0.0\nsamples = 147\nvalue = [147, 0]\nclass = poisonous", fillcolor="#e58139"] ;
399 -> 401 ;
402 [label="gini = 0.0\nsamples = 91\nvalue = [0, 910]\nclass = edible", fillcolor="#399de5"] ;
398 -> 402 ;
403 [label="stem-height <= -0.297\ngini = 0.315\nsamples = 234\nvalue = [166, 680]\nclass = edible", fillcolor="#69b5eb"] ;
291 -> 403 ;
404 [label="stem-width <= -0.9\ngini = 0.124\nsamples = 113\nvalue = [47.0, 660.0]\nclass = edible", fillcolor="#47a4e7"] ;
403 -> 404 ;
405 [label="gini = 0.0\nsamples = 41\nvalue = [41, 0]\nclass = poisonous", fillcolor="#e58139"] ;
404 -> 405 ;
406 [label="cap-diameter <= -0.474\ngini = 0.018\nsamples = 72\nvalue = [6, 660]\nclass = edible", fillcolor="#3b9ee5"] ;
404 -> 406 ;
407 [label="gill-color_u <= 0.5\ngini = 0.003\nsamples = 67\nvalue = [1, 660]\nclass = edible", fillcolor="#399de5"] ;
406 -> 407 ;
408 [label="gini = 0.0\nsamples = 66\nvalue = [0, 660]\nclass = edible", fillcolor="#399de5"] ;
407 -> 408 ;
409 [label="gini = 0.0\nsamples = 1\nvalue = [1, 0]\nclass = poisonous", fillcolor="#e58139"] ;
407 -> 409 ;
410 [label="gini = 0.0\nsamples = 5\nvalue = [5, 0]\nclass = poisonous", fillcolor="#e58139"] ;
406 -> 410 ;
411 [label="stem-height <= 0.565\ngini = 0.246\nsamples = 121\nvalue = [119, 20]\nclass = poisonous", fillcolor="#e9965a"] ;
403 -> 411 ;
412 [label="gini = 0.0\nsamples = 119\nvalue = [119, 0]\nclass = poisonous", fillcolor="#e58139"] ;
411 -> 412 ;
413 [label="gini = 0.0\nsamples = 2\nvalue = [0, 20]\nclass = edible", fillcolor="#399de5"] ;
411 -> 413 ;
414 [label="ring-type_e <= 0.5\ngini = 0.499\nsamples = 162\nvalue = [146, 160]\nclass = edible", fillcolor="#eef6fd"] ;
290 -> 414 ;
415 [label="gini = 0.0\nsamples = 146\nvalue = [146, 0]\nclass = poisonous", fillcolor="#e58139"] ;
414 -> 415 ;
416 [label="gini = 0.0\nsamples = 16\nvalue = [0, 160]\nclass = edible", fillcolor="#399de5"] ;
414 -> 416 ;
417 [label="gini = 0.0\nsamples = 101\nvalue = [101, 0]\nclass = poisonous", fillcolor="#e58139"] ;
289 -> 417 ;
418 [label="gini = 0.0\nsamples = 192\nvalue = [192, 0]\nclass = poisonous", fillcolor="#e58139"] ;
288 -> 418 ;
419 [label="gini = 0.0\nsamples = 224\nvalue = [224, 0]\nclass = poisonous", fillcolor="#e58139"] ;
287 -> 419 ;
420 [label="has-ring_f <= 0.5\ngini = 0.399\nsamples = 407\nvalue = [322, 850]\nclass = edible", fillcolor="#84c2ef"] ;
256 -> 420 ;
421 [label="gini = 0.0\nsamples = 85\nvalue = [0, 850]\nclass = edible", fillcolor="#399de5"] ;
420 -> 421 ;
422 [label="gini = 0.0\nsamples = 322\nvalue = [322, 0]\nclass = poisonous", fillcolor="#e58139"] ;
420 -> 422 ;
423 [label="gini = 0.0\nsamples = 67\nvalue = [67, 0]\nclass = poisonous", fillcolor="#e58139"] ;
255 -> 423 ;
424 [label="gini = 0.0\nsamples = 88\nvalue = [88, 0]\nclass = poisonous", fillcolor="#e58139"] ;
254 -> 424 ;
425 [label="gini = 0.0\nsamples = 109\nvalue = [109, 0]\nclass = poisonous", fillcolor="#e58139"] ;
253 -> 425 ;
426 [label="gini = 0.0\nsamples = 133\nvalue = [133, 0]\nclass = poisonous", fillcolor="#e58139"] ;
252 -> 426 ;
427 [label="gini = 0.0\nsamples = 158\nvalue = [158, 0]\nclass = poisonous", fillcolor="#e58139"] ;
251 -> 427 ;
428 [label="gini = 0.0\nsamples = 207\nvalue = [207, 0]\nclass = poisonous", fillcolor="#e58139"] ;
250 -> 428 ;
429 [label="gini = 0.0\nsamples = 284\nvalue = [284, 0]\nclass = poisonous", fillcolor="#e58139"] ;
249 -> 429 ;
430 [label="gini = 0.0\nsamples = 293\nvalue = [293, 0]\nclass = poisonous", fillcolor="#e58139"] ;
2 -> 430 ;
431 [label="cap-color_b <= 0.5\ngini = 0.19\nsamples = 26996\nvalue = [14668, 123280]\nclass = edible", fillcolor="#51a9e8"] ;
1 -> 431 ;
432 [label="habitat_m <= 0.5\ngini = 0.184\nsamples = 26379\nvalue = [14051, 123280]\nclass = edible", fillcolor="#50a8e8"] ;
431 -> 432 ;
433 [label="cap-surface_l <= 0.5\ngini = 0.177\nsamples = 25675\nvalue = [13363, 123120]\nclass = edible", fillcolor="#4ea8e8"] ;
432 -> 433 ;
434 [label="gill-attachment_p <= 0.5\ngini = 0.172\nsamples = 25196\nvalue = [12884, 123120]\nclass = edible", fillcolor="#4ea7e8"] ;
433 -> 434 ;
435 [label="habitat_w <= 0.5\ngini = 0.145\nsamples = 20732\nvalue = [9549, 111830]\nclass = edible", fillcolor="#4aa5e7"] ;
434 -> 435 ;
436 [label="cap-surface_s <= 0.5\ngini = 0.141\nsamples = 20437\nvalue = [9254, 111830]\nclass = edible", fillcolor="#49a5e7"] ;
435 -> 436 ;
437 [label="cap-color_l <= 0.5\ngini = 0.122\nsamples = 17779\nvalue = [7308, 104710]\nclass = edible", fillcolor="#47a4e7"] ;
436 -> 437 ;
438 [label="stem-color_b <= 0.5\ngini = 0.118\nsamples = 17504\nvalue = [7040, 104640]\nclass = edible", fillcolor="#46a4e7"] ;
437 -> 438 ;
439 [label="gill-color_w <= 0.5\ngini = 0.117\nsamples = 17397\nvalue = [6933, 104640]\nclass = edible", fillcolor="#46a3e7"] ;
438 -> 439 ;
440 [label="gill-attachment_e <= 0.5\ngini = 0.084\nsamples = 10499\nvalue = [3316.0, 71830.0]\nclass = edible", fillcolor="#42a2e6"] ;
439 -> 440 ;
441 [label="cap-surface_g <= 0.5\ngini = 0.071\nsamples = 9934\nvalue = [2757, 71770]\nclass = edible", fillcolor="#41a1e6"] ;
440 -> 441 ;
442 [label="stem-color_u <= 0.5\ngini = 0.07\nsamples = 9864\nvalue = [2687, 71770]\nclass = edible", fillcolor="#40a1e6"] ;
441 -> 442 ;
443 [label="cap-surface_h <= 0.5\ngini = 0.061\nsamples = 9250\nvalue = [2275, 69750]\nclass = edible", fillcolor="#3fa0e6"] ;
442 -> 443 ;
444 [label="stem-color_w <= 0.5\ngini = 0.053\nsamples = 8665\nvalue = [1901, 67640]\nclass = edible", fillcolor="#3fa0e6"] ;
443 -> 444 ;
445 [label="cap-shape_c <= 0.5\ngini = 0.03\nsamples = 5429\nvalue = [737, 46920]\nclass = edible", fillcolor="#3c9fe5"] ;
444 -> 445 ;
446 [label="cap-shape_p <= 0.5\ngini = 0.026\nsamples = 5327\nvalue = [635, 46920]\nclass = edible", fillcolor="#3c9ee5"] ;
445 -> 446 ;
447 [label="cap-surface_w <= 0.5\ngini = 0.023\nsamples = 5235\nvalue = [543, 46920]\nclass = edible", fillcolor="#3b9ee5"] ;
446 -> 447 ;
448 [label="season_s <= 0.5\ngini = 0.012\nsamples = 4694\nvalue = [263, 44310]\nclass = edible", fillcolor="#3a9ee5"] ;
447 -> 448 ;
449 [label="stem-color_o <= 0.5\ngini = 0.007\nsamples = 4448\nvalue = [150, 42980]\nclass = edible", fillcolor="#3a9de5"] ;
448 -> 449 ;
450 [label="stem-color_l <= 0.5\ngini = 0.004\nsamples = 4243\nvalue = [83, 41600]\nclass = edible", fillcolor="#399de5"] ;
449 -> 450 ;
451 [label="stem-width <= 0.077\ngini = 0.004\nsamples = 4237\nvalue = [79, 41580]\nclass = edible", fillcolor="#399de5"] ;
450 -> 451 ;
452 [label="cap-color_o <= 0.5\ngini = 0.01\nsamples = 1482\nvalue = [72, 14100]\nclass = edible", fillcolor="#3a9ee5"] ;
451 -> 452 ;
453 [label="gill-attachment_x <= 0.5\ngini = 0.008\nsamples = 1458\nvalue = [56.0, 14020.0]\nclass = edible", fillcolor="#3a9de5"] ;
452 -> 453 ;
454 [label="gill-color_f <= 0.5\ngini = 0.006\nsamples = 1409\nvalue = [38, 13710]\nclass = edible", fillcolor="#3a9de5"] ;
453 -> 454 ;
455 [label="stem-color_r <= 0.5\ngini = 0.003\nsamples = 1355\nvalue = [22, 13330]\nclass = edible", fillcolor="#399de5"] ;
454 -> 455 ;
456 [label="gill-attachment_s <= 0.5\ngini = 0.002\nsamples = 1333\nvalue = [14, 13190]\nclass = edible", fillcolor="#399de5"] ;
455 -> 456 ;
457 [label="gini = 0.0\nsamples = 1156\nvalue = [0, 11560]\nclass = edible", fillcolor="#399de5"] ;
456 -> 457 ;
458 [label="stem-height <= 0.3\ngini = 0.017\nsamples = 177\nvalue = [14, 1630]\nclass = edible", fillcolor="#3b9ee5"] ;
456 -> 458 ;
459 [label="gini = 0.0\nsamples = 163\nvalue = [0, 1630]\nclass = edible", fillcolor="#399de5"] ;
458 -> 459 ;
460 [label="gini = 0.0\nsamples = 14\nvalue = [14, 0]\nclass = poisonous", fillcolor="#e58139"] ;
458 -> 460 ;
461 [label="stem-height <= -0.295\ngini = 0.102\nsamples = 22\nvalue = [8, 140]\nclass = edible", fillcolor="#44a3e6"] ;
455 -> 461 ;
462 [label="gini = 0.0\nsamples = 14\nvalue = [0, 140]\nclass = edible", fillcolor="#399de5"] ;
461 -> 462 ;
463 [label="gini = 0.0\nsamples = 8\nvalue = [8, 0]\nclass = poisonous", fillcolor="#e58139"] ;
461 -> 463 ;
464 [label="cap-shape_o <= 0.5\ngini = 0.078\nsamples = 54\nvalue = [16, 380]\nclass = edible", fillcolor="#41a1e6"] ;
454 -> 464 ;
465 [label="gini = 0.0\nsamples = 16\nvalue = [16, 0]\nclass = poisonous", fillcolor="#e58139"] ;
464 -> 465 ;
466 [label="gini = 0.0\nsamples = 38\nvalue = [0, 380]\nclass = edible", fillcolor="#399de5"] ;
464 -> 466 ;
467 [label="gill-color_y <= 0.5\ngini = 0.104\nsamples = 49\nvalue = [18, 310]\nclass = edible", fillcolor="#44a3e7"] ;
453 -> 467 ;
468 [label="gini = 0.0\nsamples = 18\nvalue = [18, 0]\nclass = poisonous", fillcolor="#e58139"] ;
467 -> 468 ;
469 [label="gini = 0.0\nsamples = 31\nvalue = [0, 310]\nclass = edible", fillcolor="#399de5"] ;
467 -> 469 ;
470 [label="stem-height <= -0.539\ngini = 0.278\nsamples = 24\nvalue = [16, 80]\nclass = edible", fillcolor="#61b1ea"] ;
452 -> 470 ;
471 [label="gini = 0.0\nsamples = 8\nvalue = [0, 80]\nclass = edible", fillcolor="#399de5"] ;
470 -> 471 ;
472 [label="gini = 0.0\nsamples = 16\nvalue = [16, 0]\nclass = poisonous", fillcolor="#e58139"] ;
470 -> 472 ;
473 [label="gill-attachment_s <= 0.5\ngini = 0.001\nsamples = 2755\nvalue = [7, 27480]\nclass = edible", fillcolor="#399de5"] ;
451 -> 473 ;
474 [label="gini = 0.0\nsamples = 2439\nvalue = [0, 24390]\nclass = edible", fillcolor="#399de5"] ;
473 -> 474 ;
475 [label="stem-color_n <= 0.5\ngini = 0.005\nsamples = 316\nvalue = [7, 3090]\nclass = edible", fillcolor="#399de5"] ;
473 -> 475 ;
476 [label="gini = 0.0\nsamples = 309\nvalue = [0, 3090]\nclass = edible", fillcolor="#399de5"] ;
475 -> 476 ;
477 [label="gini = 0.0\nsamples = 7\nvalue = [7, 0]\nclass = poisonous", fillcolor="#e58139"] ;
475 -> 477 ;
478 [label="gill-color_r <= 0.5\ngini = 0.278\nsamples = 6\nvalue = [4, 20]\nclass = edible", fillcolor="#61b1ea"] ;
450 -> 478 ;
479 [label="gini = 0.0\nsamples = 2\nvalue = [0, 20]\nclass = edible", fillcolor="#399de5"] ;
478 -> 479 ;
480 [label="gini = 0.0\nsamples = 4\nvalue = [4, 0]\nclass = poisonous", fillcolor="#e58139"] ;
478 -> 480 ;
481 [label="gill-attachment_a <= 0.5\ngini = 0.088\nsamples = 205\nvalue = [67, 1380]\nclass = edible", fillcolor="#43a2e6"] ;
449 -> 481 ;
482 [label="gini = 0.0\nsamples = 67\nvalue = [67, 0]\nclass = poisonous", fillcolor="#e58139"] ;
481 -> 482 ;
483 [label="gini = 0.0\nsamples = 138\nvalue = [0, 1380]\nclass = edible", fillcolor="#399de5"] ;
481 -> 483 ;
484 [label="stem-height <= -0.597\ngini = 0.144\nsamples = 246\nvalue = [113, 1330]\nclass = edible", fillcolor="#4aa5e7"] ;
448 -> 484 ;
485 [label="stem-width <= 0.722\ngini = 0.022\nsamples = 148\nvalue = [15, 1330]\nclass = edible", fillcolor="#3b9ee5"] ;
484 -> 485 ;
486 [label="gini = 0.0\nsamples = 14\nvalue = [14, 0]\nclass = poisonous", fillcolor="#e58139"] ;
485 -> 486 ;
487 [label="cap-diameter <= -0.134\ngini = 0.002\nsamples = 134\nvalue = [1, 1330]\nclass = edible", fillcolor="#399de5"] ;
485 -> 487 ;
488 [label="stem-width <= 0.914\ngini = 0.165\nsamples = 2\nvalue = [1, 10]\nclass = edible", fillcolor="#4da7e8"] ;
487 -> 488 ;
489 [label="gini = 0.0\nsamples = 1\nvalue = [1, 0]\nclass = poisonous", fillcolor="#e58139"] ;
488 -> 489 ;
490 [label="gini = 0.0\nsamples = 1\nvalue = [0, 10]\nclass = edible", fillcolor="#399de5"] ;
488 -> 490 ;
491 [label="gini = 0.0\nsamples = 132\nvalue = [0, 1320]\nclass = edible", fillcolor="#399de5"] ;
487 -> 491 ;
492 [label="gini = 0.0\nsamples = 98\nvalue = [98, 0]\nclass = poisonous", fillcolor="#e58139"] ;
484 -> 492 ;
493 [label="cap-color_p <= 0.5\ngini = 0.175\nsamples = 541\nvalue = [280, 2610]\nclass = edible", fillcolor="#4ea8e8"] ;
447 -> 493 ;
494 [label="gini = 0.0\nsamples = 280\nvalue = [280, 0]\nclass = poisonous", fillcolor="#e58139"] ;
493 -> 494 ;
495 [label="gini = 0.0\nsamples = 261\nvalue = [0, 2610]\nclass = edible", fillcolor="#399de5"] ;
493 -> 495 ;
496 [label="gini = 0.0\nsamples = 92\nvalue = [92, 0]\nclass = poisonous", fillcolor="#e58139"] ;
446 -> 496 ;
497 [label="gini = 0.0\nsamples = 102\nvalue = [102, 0]\nclass = poisonous", fillcolor="#e58139"] ;
445 -> 497 ;
498 [label="cap-color_p <= 0.5\ngini = 0.101\nsamples = 3236\nvalue = [1164, 20720]\nclass = edible", fillcolor="#44a3e6"] ;
444 -> 498 ;
499 [label="stem-height <= -1.028\ngini = 0.092\nsamples = 3125\nvalue = [1053, 20720]\nclass = edible", fillcolor="#43a2e6"] ;
498 -> 499 ;
500 [label="cap-shape_s <= 0.5\ngini = 0.171\nsamples = 97\nvalue = [96, 10]\nclass = poisonous", fillcolor="#e88e4e"] ;
499 -> 500 ;
501 [label="gini = 0.0\nsamples = 96\nvalue = [96, 0]\nclass = poisonous", fillcolor="#e58139"] ;
500 -> 501 ;
502 [label="gini = 0.0\nsamples = 1\nvalue = [0, 10]\nclass = edible", fillcolor="#399de5"] ;
500 -> 502 ;
503 [label="cap-color_k <= 0.5\ngini = 0.084\nsamples = 3028\nvalue = [957, 20710]\nclass = edible", fillcolor="#42a2e6"] ;
499 -> 503 ;
504 [label="cap-surface_d <= 0.5\ngini = 0.079\nsamples = 2966\nvalue = [895, 20710]\nclass = edible", fillcolor="#42a1e6"] ;
503 -> 504 ;
505 [label="gill-color_y <= 0.5\ngini = 0.076\nsamples = 2924\nvalue = [853, 20710]\nclass = edible", fillcolor="#41a1e6"] ;
504 -> 505 ;
506 [label="cap-diameter <= 0.548\ngini = 0.047\nsamples = 2300\nvalue = [455, 18450]\nclass = edible", fillcolor="#3e9fe6"] ;
505 -> 506 ;
507 [label="gill-color_o <= 0.5\ngini = 0.026\nsamples = 1848\nvalue = [215, 16330]\nclass = edible", fillcolor="#3c9ee5"] ;
506 -> 507 ;
508 [label="cap-shape_s <= 0.5\ngini = 0.009\nsamples = 1469\nvalue = [64, 14050]\nclass = edible", fillcolor="#3a9de5"] ;
507 -> 508 ;
509 [label="habitat_l <= 0.5\ngini = 0.008\nsamples = 1460\nvalue = [55, 14050]\nclass = edible", fillcolor="#3a9de5"] ;
508 -> 509 ;
510 [label="stem-width <= -0.356\ngini = 0.007\nsamples = 1455\nvalue = [50, 14050]\nclass = edible", fillcolor="#3a9de5"] ;
509 -> 510 ;
511 [label="stem-height <= -0.353\ngini = 0.278\nsamples = 9\nvalue = [6, 30]\nclass = edible", fillcolor="#61b1ea"] ;
510 -> 511 ;
512 [label="gini = 0.0\nsamples = 4\nvalue = [4, 0]\nclass = poisonous", fillcolor="#e58139"] ;
511 -> 512 ;
513 [label="cap-color_w <= 0.5\ngini = 0.117\nsamples = 5\nvalue = [2, 30]\nclass = edible", fillcolor="#46a4e7"] ;
511 -> 513 ;
514 [label="stem-width <= -0.358\ngini = 0.062\nsamples = 4\nvalue = [1, 30]\nclass = edible", fillcolor="#40a0e6"] ;
513 -> 514 ;
515 [label="gini = 0.0\nsamples = 3\nvalue = [0, 30]\nclass = edible", fillcolor="#399de5"] ;
514 -> 515 ;
516 [label="gini = 0.0\nsamples = 1\nvalue = [1, 0]\nclass = poisonous", fillcolor="#e58139"] ;
514 -> 516 ;
517 [label="gini = 0.0\nsamples = 1\nvalue = [1, 0]\nclass = poisonous", fillcolor="#e58139"] ;
513 -> 517 ;
518 [label="stem-width <= -0.166\ngini = 0.006\nsamples = 1446\nvalue = [44, 14020]\nclass = edible", fillcolor="#3a9de5"] ;
510 -> 518 ;
519 [label="stem-height <= 0.357\ngini = 0.038\nsamples = 248\nvalue = [41, 2070]\nclass = edible", fillcolor="#3d9fe6"] ;
518 -> 519 ;
520 [label="cap-color_g <= 0.5\ngini = 0.011\nsamples = 218\nvalue = [11, 2070]\nclass = edible", fillcolor="#3a9ee5"] ;
519 -> 520 ;
521 [label="gill-attachment_d <= 0.5\ngini = 0.007\nsamples = 214\nvalue = [7, 2070]\nclass = edible", fillcolor="#3a9de5"] ;
520 -> 521 ;
522 [label="gill-color_g <= 0.5\ngini = 0.006\nsamples = 213\nvalue = [6, 2070]\nclass = edible", fillcolor="#3a9de5"] ;
521 -> 522 ;
523 [label="cap-color_w <= 0.5\ngini = 0.004\nsamples = 210\nvalue = [4, 2060]\nclass = edible", fillcolor="#399de5"] ;
522 -> 523 ;
524 [label="season_s <= 0.5\ngini = 0.003\nsamples = 209\nvalue = [3, 2060]\nclass = edible", fillcolor="#399de5"] ;
523 -> 524 ;
525 [label="stem-height <= 0.321\ngini = 0.002\nsamples = 207\nvalue = [2, 2050]\nclass = edible", fillcolor="#399de5"] ;
524 -> 525 ;
526 [label="stem-width <= -0.353\ngini = 0.001\nsamples = 204\nvalue = [1, 2030]\nclass = edible", fillcolor="#399de5"] ;
525 -> 526 ;
527 [label="gill-color_r <= 0.5\ngini = 0.062\nsamples = 4\nvalue = [1, 30]\nclass = edible", fillcolor="#40a0e6"] ;
526 -> 527 ;
528 [label="gini = 0.0\nsamples = 3\nvalue = [0, 30]\nclass = edible", fillcolor="#399de5"] ;
527 -> 528 ;
529 [label="gini = 0.0\nsamples = 1\nvalue = [1, 0]\nclass = poisonous", fillcolor="#e58139"] ;
527 -> 529 ;
530 [label="gini = 0.0\nsamples = 200\nvalue = [0, 2000]\nclass = edible", fillcolor="#399de5"] ;
526 -> 530 ;
531 [label="gill-attachment_a <= 0.5\ngini = 0.091\nsamples = 3\nvalue = [1, 20]\nclass = edible", fillcolor="#43a2e6"] ;
525 -> 531 ;
532 [label="gini = 0.0\nsamples = 1\nvalue = [1, 0]\nclass = poisonous", fillcolor="#e58139"] ;
531 -> 532 ;
533 [label="gini = 0.0\nsamples = 2\nvalue = [0, 20]\nclass = edible", fillcolor="#399de5"] ;
531 -> 533 ;
534 [label="has-ring_t <= 0.5\ngini = 0.165\nsamples = 2\nvalue = [1, 10]\nclass = edible", fillcolor="#4da7e8"] ;
524 -> 534 ;
535 [label="gini = 0.0\nsamples = 1\nvalue = [0, 10]\nclass = edible", fillcolor="#399de5"] ;
534 -> 535 ;
536 [label="gini = 0.0\nsamples = 1\nvalue = [1, 0]\nclass = poisonous", fillcolor="#e58139"] ;
534 -> 536 ;
537 [label="gini = 0.0\nsamples = 1\nvalue = [1, 0]\nclass = poisonous", fillcolor="#e58139"] ;
523 -> 537 ;
538 [label="does-bruise-or-bleed_t <= 0.5\ngini = 0.278\nsamples = 3\nvalue = [2, 10]\nclass = edible", fillcolor="#61b1ea"] ;
522 -> 538 ;
539 [label="gini = 0.0\nsamples = 2\nvalue = [2, 0]\nclass = poisonous", fillcolor="#e58139"] ;
538 -> 539 ;
540 [label="gini = 0.0\nsamples = 1\nvalue = [0, 10]\nclass = edible", fillcolor="#399de5"] ;
538 -> 540 ;
541 [label="gini = 0.0\nsamples = 1\nvalue = [1, 0]\nclass = poisonous", fillcolor="#e58139"] ;
521 -> 541 ;
542 [label="gini = 0.0\nsamples = 4\nvalue = [4, 0]\nclass = poisonous", fillcolor="#e58139"] ;
520 -> 542 ;
543 [label="gini = 0.0\nsamples = 30\nvalue = [30, 0]\nclass = poisonous", fillcolor="#e58139"] ;
519 -> 543 ;
544 [label="stem-width <= -0.078\ngini = 0.001\nsamples = 1198\nvalue = [3.0, 11950.0]\nclass = edible", fillcolor="#399de5"] ;
518 -> 544 ;
545 [label="stem-height <= 0.535\ngini = 0.005\nsamples = 81\nvalue = [2, 790]\nclass = edible", fillcolor="#3a9de5"] ;
544 -> 545 ;
546 [label="gini = 0.0\nsamples = 75\nvalue = [0, 750]\nclass = edible", fillcolor="#399de5"] ;
545 -> 546 ;
547 [label="gill-attachment_x <= 0.5\ngini = 0.091\nsamples = 6\nvalue = [2, 40]\nclass = edible", fillcolor="#43a2e6"] ;
545 -> 547 ;
548 [label="gini = 0.0\nsamples = 4\nvalue = [0, 40]\nclass = edible", fillcolor="#399de5"] ;
547 -> 548 ;
549 [label="gini = 0.0\nsamples = 2\nvalue = [2, 0]\nclass = poisonous", fillcolor="#e58139"] ;
547 -> 549 ;
550 [label="season_w <= 0.5\ngini = 0.0\nsamples = 1117\nvalue = [1.0, 11160.0]\nclass = edible", fillcolor="#399de5"] ;
544 -> 550 ;
551 [label="gini = 0.0\nsamples = 1085\nvalue = [0, 10850]\nclass = edible", fillcolor="#399de5"] ;
550 -> 551 ;
552 [label="cap-surface_y <= 0.5\ngini = 0.006\nsamples = 32\nvalue = [1, 310]\nclass = edible", fillcolor="#3a9de5"] ;
550 -> 552 ;
553 [label="gini = 0.0\nsamples = 1\nvalue = [1, 0]\nclass = poisonous", fillcolor="#e58139"] ;
552 -> 553 ;
554 [label="gini = 0.0\nsamples = 31\nvalue = [0, 310]\nclass = edible", fillcolor="#399de5"] ;
552 -> 554 ;
555 [label="gini = 0.0\nsamples = 5\nvalue = [5, 0]\nclass = poisonous", fillcolor="#e58139"] ;
509 -> 555 ;
556 [label="gini = 0.0\nsamples = 9\nvalue = [9, 0]\nclass = poisonous", fillcolor="#e58139"] ;
508 -> 556 ;
557 [label="has-ring_f <= 0.5\ngini = 0.117\nsamples = 379\nvalue = [151, 2280]\nclass = edible", fillcolor="#46a3e7"] ;
507 -> 557 ;
558 [label="gini = 0.0\nsamples = 228\nvalue = [0, 2280]\nclass = edible", fillcolor="#399de5"] ;
557 -> 558 ;
559 [label="gini = 0.0\nsamples = 151\nvalue = [151, 0]\nclass = poisonous", fillcolor="#e58139"] ;
557 -> 559 ;
560 [label="gill-color_p <= 0.5\ngini = 0.183\nsamples = 452\nvalue = [240.0, 2120.0]\nclass = edible", fillcolor="#4fa8e8"] ;
506 -> 560 ;
561 [label="cap-surface_t <= 0.5\ngini = 0.121\nsamples = 355\nvalue = [145, 2100]\nclass = edible", fillcolor="#47a4e7"] ;
560 -> 561 ;
562 [label="gini = 0.0\nsamples = 160\nvalue = [0, 1600]\nclass = edible", fillcolor="#399de5"] ;
561 -> 562 ;
563 [label="has-ring_f <= 0.5\ngini = 0.349\nsamples = 195\nvalue = [145.0, 500.0]\nclass = edible", fillcolor="#72b9ed"] ;
561 -> 563 ;
564 [label="gini = 0.0\nsamples = 50\nvalue = [0, 500]\nclass = edible", fillcolor="#399de5"] ;
563 -> 564 ;
565 [label="gini = 0.0\nsamples = 145\nvalue = [145, 0]\nclass = poisonous", fillcolor="#e58139"] ;
563 -> 565 ;
566 [label="gill-attachment_d <= 0.5\ngini = 0.287\nsamples = 97\nvalue = [95, 20]\nclass = poisonous", fillcolor="#ea9c63"] ;
560 -> 566 ;
567 [label="gini = 0.0\nsamples = 2\nvalue = [0, 20]\nclass = edible", fillcolor="#399de5"] ;
566 -> 567 ;
568 [label="gini = 0.0\nsamples = 95\nvalue = [95, 0]\nclass = poisonous", fillcolor="#e58139"] ;
566 -> 568 ;
569 [label="cap-shape_x <= 0.5\ngini = 0.255\nsamples = 624\nvalue = [398, 2260]\nclass = edible", fillcolor="#5caeea"] ;
505 -> 569 ;
570 [label="gill-attachment_x <= 0.5\ngini = 0.096\nsamples = 347\nvalue = [121, 2260]\nclass = edible", fillcolor="#44a2e6"] ;
569 -> 570 ;
571 [label="gini = 0.0\nsamples = 121\nvalue = [121, 0]\nclass = poisonous", fillcolor="#e58139"] ;
570 -> 571 ;
572 [label="gini = 0.0\nsamples = 226\nvalue = [0, 2260]\nclass = edible", fillcolor="#399de5"] ;
570 -> 572 ;
573 [label="gini = 0.0\nsamples = 277\nvalue = [277, 0]\nclass = poisonous", fillcolor="#e58139"] ;
569 -> 573 ;
574 [label="gini = 0.0\nsamples = 42\nvalue = [42, 0]\nclass = poisonous", fillcolor="#e58139"] ;
504 -> 574 ;
575 [label="gini = 0.0\nsamples = 62\nvalue = [62, 0]\nclass = poisonous", fillcolor="#e58139"] ;
503 -> 575 ;
576 [label="gini = 0.0\nsamples = 111\nvalue = [111, 0]\nclass = poisonous", fillcolor="#e58139"] ;
498 -> 576 ;
577 [label="gill-attachment_x <= 0.5\ngini = 0.256\nsamples = 585\nvalue = [374, 2110]\nclass = edible", fillcolor="#5caeea"] ;
443 -> 577 ;
578 [label="cap-shape_f <= 0.5\ngini = 0.176\nsamples = 439\nvalue = [228, 2110]\nclass = edible", fillcolor="#4ea8e8"] ;
577 -> 578 ;
579 [label="cap-shape_b <= 0.5\ngini = 0.073\nsamples = 294\nvalue = [83, 2110]\nclass = edible", fillcolor="#41a1e6"] ;
578 -> 579 ;
580 [label="gini = 0.0\nsamples = 210\nvalue = [0, 2100]\nclass = edible", fillcolor="#399de5"] ;
579 -> 580 ;
581 [label="gill-color_g <= 0.5\ngini = 0.192\nsamples = 84\nvalue = [83, 10]\nclass = poisonous", fillcolor="#e89051"] ;
579 -> 581 ;
582 [label="gini = 0.0\nsamples = 1\nvalue = [0, 10]\nclass = edible", fillcolor="#399de5"] ;
581 -> 582 ;
583 [label="gini = 0.0\nsamples = 83\nvalue = [83, 0]\nclass = poisonous", fillcolor="#e58139"] ;
581 -> 583 ;
584 [label="gini = 0.0\nsamples = 145\nvalue = [145, 0]\nclass = poisonous", fillcolor="#e58139"] ;
578 -> 584 ;
585 [label="gini = 0.0\nsamples = 146\nvalue = [146, 0]\nclass = poisonous", fillcolor="#e58139"] ;
577 -> 585 ;
586 [label="habitat_d <= 0.5\ngini = 0.281\nsamples = 614\nvalue = [412.0, 2020.0]\nclass = edible", fillcolor="#61b1ea"] ;
442 -> 586 ;
587 [label="gini = 0.0\nsamples = 207\nvalue = [207, 0]\nclass = poisonous", fillcolor="#e58139"] ;
586 -> 587 ;
588 [label="season_w <= 0.5\ngini = 0.167\nsamples = 407\nvalue = [205, 2020]\nclass = edible", fillcolor="#4da7e8"] ;
586 -> 588 ;
589 [label="cap-shape_s <= 0.5\ngini = 0.101\nsamples = 316\nvalue = [114, 2020]\nclass = edible", fillcolor="#44a3e6"] ;
588 -> 589 ;
590 [label="gill-color_g <= 0.5\ngini = 0.06\nsamples = 266\nvalue = [64, 2020]\nclass = edible", fillcolor="#3fa0e6"] ;
589 -> 590 ;
591 [label="gill-color_p <= 0.5\ngini = 0.03\nsamples = 233\nvalue = [31, 2020]\nclass = edible", fillcolor="#3c9fe5"] ;
590 -> 591 ;
592 [label="gill-color_b <= 0.5\ngini = 0.018\nsamples = 220\nvalue = [18, 2020]\nclass = edible", fillcolor="#3b9ee5"] ;
591 -> 592 ;
593 [label="cap-diameter <= 1.071\ngini = 0.011\nsamples = 213\nvalue = [11, 2020]\nclass = edible", fillcolor="#3a9ee5"] ;
592 -> 593 ;
594 [label="cap-diameter <= 0.675\ngini = 0.009\nsamples = 211\nvalue = [9, 2020]\nclass = edible", fillcolor="#3a9de5"] ;
593 -> 594 ;
595 [label="gill-color_u <= 0.5\ngini = 0.004\nsamples = 197\nvalue = [4, 1930]\nclass = edible", fillcolor="#399de5"] ;
594 -> 595 ;
596 [label="gini = 0.0\nsamples = 141\nvalue = [0, 1410]\nclass = edible", fillcolor="#399de5"] ;
595 -> 596 ;
597 [label="cap-shape_x <= 0.5\ngini = 0.015\nsamples = 56\nvalue = [4, 520]\nclass = edible", fillcolor="#3b9ee5"] ;
595 -> 597 ;
598 [label="gini = 0.0\nsamples = 4\nvalue = [4, 0]\nclass = poisonous", fillcolor="#e58139"] ;
597 -> 598 ;
599 [label="gini = 0.0\nsamples = 52\nvalue = [0, 520]\nclass = edible", fillcolor="#399de5"] ;
597 -> 599 ;
600 [label="stem-height <= 0.294\ngini = 0.1\nsamples = 14\nvalue = [5, 90]\nclass = edible", fillcolor="#44a2e6"] ;
594 -> 600 ;
601 [label="gini = 0.0\nsamples = 4\nvalue = [4, 0]\nclass = poisonous", fillcolor="#e58139"] ;
600 -> 601 ;
602 [label="cap-color_u <= 0.5\ngini = 0.022\nsamples = 10\nvalue = [1, 90]\nclass = edible", fillcolor="#3b9ee5"] ;
600 -> 602 ;
603 [label="gini = 0.0\nsamples = 9\nvalue = [0, 90]\nclass = edible", fillcolor="#399de5"] ;
602 -> 603 ;
604 [label="gini = 0.0\nsamples = 1\nvalue = [1, 0]\nclass = poisonous", fillcolor="#e58139"] ;
602 -> 604 ;
605 [label="gini = 0.0\nsamples = 2\nvalue = [2, 0]\nclass = poisonous", fillcolor="#e58139"] ;
593 -> 605 ;
606 [label="gini = 0.0\nsamples = 7\nvalue = [7, 0]\nclass = poisonous", fillcolor="#e58139"] ;
592 -> 606 ;
607 [label="gini = 0.0\nsamples = 13\nvalue = [13, 0]\nclass = poisonous", fillcolor="#e58139"] ;
591 -> 607 ;
608 [label="gini = 0.0\nsamples = 33\nvalue = [33, 0]\nclass = poisonous", fillcolor="#e58139"] ;
590 -> 608 ;
609 [label="gini = 0.0\nsamples = 50\nvalue = [50, 0]\nclass = poisonous", fillcolor="#e58139"] ;
589 -> 609 ;
610 [label="gini = 0.0\nsamples = 91\nvalue = [91, 0]\nclass = poisonous", fillcolor="#e58139"] ;
588 -> 610 ;
611 [label="gini = 0.0\nsamples = 70\nvalue = [70, 0]\nclass = poisonous", fillcolor="#e58139"] ;
441 -> 611 ;
612 [label="stem-width <= -0.305\ngini = 0.175\nsamples = 565\nvalue = [559, 60]\nclass = poisonous", fillcolor="#e88f4e"] ;
440 -> 612 ;
613 [label="gill-color_p <= 0.5\ngini = 0.227\nsamples = 15\nvalue = [9, 60]\nclass = edible", fillcolor="#57ace9"] ;
612 -> 613 ;
614 [label="gini = 0.0\nsamples = 6\nvalue = [0, 60]\nclass = edible", fillcolor="#399de5"] ;
613 -> 614 ;
615 [label="gini = 0.0\nsamples = 9\nvalue = [9, 0]\nclass = poisonous", fillcolor="#e58139"] ;
613 -> 615 ;
616 [label="gini = 0.0\nsamples = 550\nvalue = [550, 0]\nclass = poisonous", fillcolor="#e58139"] ;
612 -> 616 ;
617 [label="cap-color_y <= 0.5\ngini = 0.179\nsamples = 6898\nvalue = [3617, 32810]\nclass = edible", fillcolor="#4fa8e8"] ;
439 -> 617 ;
618 [label="gill-attachment_s <= 0.5\ngini = 0.152\nsamples = 6250\nvalue = [2969, 32810]\nclass = edible", fillcolor="#4ba6e7"] ;
617 -> 618 ;
619 [label="cap-shape_c <= 0.5\ngini = 0.143\nsamples = 6047\nvalue = [2766, 32810]\nclass = edible", fillcolor="#4aa5e7"] ;
618 -> 619 ;
620 [label="cap-shape_o <= 0.5\ngini = 0.137\nsamples = 5903\nvalue = [2622, 32810]\nclass = edible", fillcolor="#49a5e7"] ;
619 -> 620 ;
621 [label="cap-surface_e <= 0.5\ngini = 0.131\nsamples = 5762\nvalue = [2481, 32810]\nclass = edible", fillcolor="#48a4e7"] ;
620 -> 621 ;
622 [label="cap-surface_y <= 0.5\ngini = 0.114\nsamples = 5283\nvalue = [2075, 32080]\nclass = edible", fillcolor="#46a3e7"] ;
621 -> 622 ;
623 [label="habitat_g <= 0.5\ngini = 0.093\nsamples = 4685\nvalue = [1595, 30900]\nclass = edible", fillcolor="#43a2e6"] ;
622 -> 623 ;
624 [label="cap-surface_t <= 0.5\ngini = 0.084\nsamples = 4473\nvalue = [1413, 30600]\nclass = edible", fillcolor="#42a2e6"] ;
623 -> 624 ;
625 [label="cap-diameter <= -0.225\ngini = 0.009\nsamples = 1452\nvalue = [66, 13860]\nclass = edible", fillcolor="#3a9de5"] ;
624 -> 625 ;
626 [label="stem-height <= 1.23\ngini = 0.173\nsamples = 37\nvalue = [19, 180]\nclass = edible", fillcolor="#4ea7e8"] ;
625 -> 626 ;
627 [label="cap-diameter <= -0.36\ngini = 0.011\nsamples = 19\nvalue = [1, 180]\nclass = edible", fillcolor="#3a9ee5"] ;
626 -> 627 ;
628 [label="cap-color_n <= 0.5\ngini = 0.165\nsamples = 2\nvalue = [1, 10]\nclass = edible", fillcolor="#4da7e8"] ;
627 -> 628 ;
629 [label="gini = 0.0\nsamples = 1\nvalue = [0, 10]\nclass = edible", fillcolor="#399de5"] ;
628 -> 629 ;
630 [label="gini = 0.0\nsamples = 1\nvalue = [1, 0]\nclass = poisonous", fillcolor="#e58139"] ;
628 -> 630 ;
631 [label="gini = 0.0\nsamples = 17\nvalue = [0, 170]\nclass = edible", fillcolor="#399de5"] ;
627 -> 631 ;
632 [label="gini = 0.0\nsamples = 18\nvalue = [18, 0]\nclass = poisonous", fillcolor="#e58139"] ;
626 -> 632 ;
633 [label="cap-diameter <= -0.025\ngini = 0.007\nsamples = 1415\nvalue = [47, 13680]\nclass = edible", fillcolor="#3a9de5"] ;
625 -> 633 ;
634 [label="stem-height <= 1.397\ngini = 0.048\nsamples = 188\nvalue = [38, 1500]\nclass = edible", fillcolor="#3e9fe6"] ;
633 -> 634 ;
635 [label="stem-height <= 1.294\ngini = 0.001\nsamples = 149\nvalue = [1, 1480]\nclass = edible", fillcolor="#399de5"] ;
634 -> 635 ;
636 [label="gini = 0.0\nsamples = 146\nvalue = [0, 1460]\nclass = edible", fillcolor="#399de5"] ;
635 -> 636 ;
637 [label="stem-height <= 1.346\ngini = 0.091\nsamples = 3\nvalue = [1, 20]\nclass = edible", fillcolor="#43a2e6"] ;
635 -> 637 ;
638 [label="gini = 0.0\nsamples = 1\nvalue = [1, 0]\nclass = poisonous", fillcolor="#e58139"] ;
637 -> 638 ;
639 [label="gini = 0.0\nsamples = 2\nvalue = [0, 20]\nclass = edible", fillcolor="#399de5"] ;
637 -> 639 ;
640 [label="cap-surface_w <= 0.5\ngini = 0.456\nsamples = 39\nvalue = [37, 20]\nclass = poisonous", fillcolor="#f3c5a4"] ;
634 -> 640 ;
641 [label="gini = 0.0\nsamples = 37\nvalue = [37, 0]\nclass = poisonous", fillcolor="#e58139"] ;
640 -> 641 ;
642 [label="gini = 0.0\nsamples = 2\nvalue = [0, 20]\nclass = edible", fillcolor="#399de5"] ;
640 -> 642 ;
643 [label="stem-color_n <= 0.5\ngini = 0.001\nsamples = 1227\nvalue = [9, 12180]\nclass = edible", fillcolor="#399de5"] ;
633 -> 643 ;
644 [label="cap-diameter <= 0.021\ngini = 0.001\nsamples = 1142\nvalue = [3, 11390]\nclass = edible", fillcolor="#399de5"] ;
643 -> 644 ;
645 [label="stem-height <= 1.529\ngini = 0.01\nsamples = 43\nvalue = [2.0, 410.0]\nclass = edible", fillcolor="#3a9de5"] ;
644 -> 645 ;
646 [label="gini = 0.0\nsamples = 41\nvalue = [0, 410]\nclass = edible", fillcolor="#399de5"] ;
645 -> 646 ;
647 [label="gini = 0.0\nsamples = 2\nvalue = [2, 0]\nclass = poisonous", fillcolor="#e58139"] ;
645 -> 647 ;
648 [label="cap-diameter <= 0.123\ngini = 0.0\nsamples = 1099\nvalue = [1, 10980]\nclass = edible", fillcolor="#399de5"] ;
644 -> 648 ;
649 [label="stem-height <= 1.602\ngini = 0.001\nsamples = 151\nvalue = [1, 1500]\nclass = edible", fillcolor="#399de5"] ;
648 -> 649 ;
650 [label="gini = 0.0\nsamples = 150\nvalue = [0, 1500]\nclass = edible", fillcolor="#399de5"] ;
649 -> 650 ;
651 [label="gini = 0.0\nsamples = 1\nvalue = [1, 0]\nclass = poisonous", fillcolor="#e58139"] ;
649 -> 651 ;
652 [label="gini = 0.0\nsamples = 948\nvalue = [0, 9480]\nclass = edible", fillcolor="#399de5"] ;
648 -> 652 ;
653 [label="gill-attachment_e <= 0.5\ngini = 0.015\nsamples = 85\nvalue = [6, 790]\nclass = edible", fillcolor="#3b9ee5"] ;
643 -> 653 ;
654 [label="gini = 0.0\nsamples = 79\nvalue = [0, 790]\nclass = edible", fillcolor="#399de5"] ;
653 -> 654 ;
655 [label="gini = 0.0\nsamples = 6\nvalue = [6, 0]\nclass = poisonous", fillcolor="#e58139"] ;
653 -> 655 ;
656 [label="cap-shape_p <= 0.5\ngini = 0.138\nsamples = 3021\nvalue = [1347, 16740]\nclass = edible", fillcolor="#49a5e7"] ;
624 -> 656 ;
657 [label="ring-type_g <= 0.5\ngini = 0.132\nsamples = 2950\nvalue = [1276, 16740]\nclass = edible", fillcolor="#48a4e7"] ;
656 -> 657 ;
658 [label="stem-height <= 0.583\ngini = 0.099\nsamples = 2367\nvalue = [843, 15240]\nclass = edible", fillcolor="#44a2e6"] ;
657 -> 658 ;
659 [label="stem-height <= -0.01\ngini = 0.206\nsamples = 1312\nvalue = [747, 5650]\nclass = edible", fillcolor="#53aae8"] ;
658 -> 659 ;
660 [label="stem-height <= -1.165\ngini = 0.143\nsamples = 930\nvalue = [425, 5050]\nclass = edible", fillcolor="#4aa5e7"] ;
659 -> 660 ;
661 [label="cap-diameter <= -0.202\ngini = 0.442\nsamples = 64\nvalue = [61.0, 30.0]\nclass = poisonous", fillcolor="#f2bf9a"] ;
660 -> 661 ;
662 [label="gini = 0.0\nsamples = 3\nvalue = [0, 30]\nclass = edible", fillcolor="#399de5"] ;
661 -> 662 ;
663 [label="gini = 0.0\nsamples = 61\nvalue = [61, 0]\nclass = poisonous", fillcolor="#e58139"] ;
661 -> 663 ;
664 [label="stem-width <= 0.65\ngini = 0.126\nsamples = 866\nvalue = [364, 5020]\nclass = edible", fillcolor="#47a4e7"] ;
660 -> 664 ;
665 [label="habitat_h <= 0.5\ngini = 0.066\nsamples = 586\nvalue = [153, 4330]\nclass = edible", fillcolor="#40a0e6"] ;
664 -> 665 ;
666 [label="stem-color_w <= 0.5\ngini = 0.06\nsamples = 571\nvalue = [138, 4330]\nclass = edible", fillcolor="#3fa0e6"] ;
665 -> 666 ;
667 [label="stem-width <= 0.345\ngini = 0.012\nsamples = 329\nvalue = [19, 3100]\nclass = edible", fillcolor="#3a9ee5"] ;
666 -> 667 ;
668 [label="stem-height <= -0.071\ngini = 0.006\nsamples = 320\nvalue = [10, 3100]\nclass = edible", fillcolor="#3a9de5"] ;
667 -> 668 ;
669 [label="stem-color_g <= 0.5\ngini = 0.001\nsamples = 310\nvalue = [2.0, 3080.0]\nclass = edible", fillcolor="#399de5"] ;
668 -> 669 ;
670 [label="gini = 0.0\nsamples = 277\nvalue = [0, 2770]\nclass = edible", fillcolor="#399de5"] ;
669 -> 670 ;
671 [label="cap-shape_x <= 0.5\ngini = 0.013\nsamples = 33\nvalue = [2, 310]\nclass = edible", fillcolor="#3a9ee5"] ;
669 -> 671 ;
672 [label="gini = 0.0\nsamples = 31\nvalue = [0, 310]\nclass = edible", fillcolor="#399de5"] ;
671 -> 672 ;
673 [label="gini = 0.0\nsamples = 2\nvalue = [2, 0]\nclass = poisonous", fillcolor="#e58139"] ;
671 -> 673 ;
674 [label="habitat_l <= 0.5\ngini = 0.408\nsamples = 10\nvalue = [8, 20]\nclass = edible", fillcolor="#88c4ef"] ;
668 -> 674 ;
675 [label="gini = 0.0\nsamples = 8\nvalue = [8, 0]\nclass = poisonous", fillcolor="#e58139"] ;
674 -> 675 ;
676 [label="gini = 0.0\nsamples = 2\nvalue = [0, 20]\nclass = edible", fillcolor="#399de5"] ;
674 -> 676 ;
677 [label="gini = 0.0\nsamples = 9\nvalue = [9, 0]\nclass = poisonous", fillcolor="#e58139"] ;
667 -> 677 ;
678 [label="cap-color_n <= 0.5\ngini = 0.161\nsamples = 242\nvalue = [119, 1230]\nclass = edible", fillcolor="#4ca6e8"] ;
666 -> 678 ;
679 [label="cap-color_p <= 0.5\ngini = 0.091\nsamples = 185\nvalue = [62, 1230]\nclass = edible", fillcolor="#43a2e6"] ;
678 -> 679 ;
680 [label="cap-color_g <= 0.5\ngini = 0.049\nsamples = 155\nvalue = [32, 1230]\nclass = edible", fillcolor="#3ea0e6"] ;
679 -> 680 ;
681 [label="stem-height <= -0.886\ngini = 0.038\nsamples = 147\nvalue = [24, 1230]\nclass = edible", fillcolor="#3d9fe6"] ;
680 -> 681 ;
682 [label="gini = 0.0\nsamples = 3\nvalue = [3, 0]\nclass = poisonous", fillcolor="#e58139"] ;
681 -> 682 ;
683 [label="stem-width <= 0.395\ngini = 0.033\nsamples = 144\nvalue = [21, 1230]\nclass = edible", fillcolor="#3c9fe5"] ;
681 -> 683 ;
684 [label="stem-height <= -0.251\ngini = 0.139\nsamples = 29\nvalue = [13, 160]\nclass = edible", fillcolor="#49a5e7"] ;
683 -> 684 ;
685 [label="stem-width <= -0.124\ngini = 0.036\nsamples = 19\nvalue = [3, 160]\nclass = edible", fillcolor="#3d9fe5"] ;
684 -> 685 ;
686 [label="gini = 0.0\nsamples = 11\nvalue = [0, 110]\nclass = edible", fillcolor="#399de5"] ;
685 -> 686 ;
687 [label="season_u <= 0.5\ngini = 0.107\nsamples = 8\nvalue = [3, 50]\nclass = edible", fillcolor="#45a3e7"] ;
685 -> 687 ;
688 [label="gini = 0.0\nsamples = 5\nvalue = [0, 50]\nclass = edible", fillcolor="#399de5"] ;
687 -> 688 ;
689 [label="gini = 0.0\nsamples = 3\nvalue = [3, 0]\nclass = poisonous", fillcolor="#e58139"] ;
687 -> 689 ;
690 [label="gini = 0.0\nsamples = 10\nvalue = [10, 0]\nclass = poisonous", fillcolor="#e58139"] ;
684 -> 690 ;
691 [label="stem-height <= -0.039\ngini = 0.015\nsamples = 115\nvalue = [8, 1070]\nclass = edible", fillcolor="#3a9ee5"] ;
683 -> 691 ;
692 [label="cap-diameter <= 0.172\ngini = 0.01\nsamples = 102\nvalue = [5, 970]\nclass = edible", fillcolor="#3a9ee5"] ;
691 -> 692 ;
693 [label="cap-diameter <= 0.167\ngini = 0.017\nsamples = 63\nvalue = [5.0, 580.0]\nclass = edible", fillcolor="#3b9ee5"] ;
692 -> 693 ;
694 [label="stem-height <= -0.167\ngini = 0.014\nsamples = 62\nvalue = [4, 580]\nclass = edible", fillcolor="#3a9ee5"] ;
693 -> 694 ;
695 [label="stem-width <= 0.426\ngini = 0.004\nsamples = 48\nvalue = [1, 470]\nclass = edible", fillcolor="#399de5"] ;
694 -> 695 ;
696 [label="stem-width <= 0.424\ngini = 0.02\nsamples = 11\nvalue = [1, 100]\nclass = edible", fillcolor="#3b9ee5"] ;
695 -> 696 ;
697 [label="gini = 0.0\nsamples = 10\nvalue = [0, 100]\nclass = edible", fillcolor="#399de5"] ;
696 -> 697 ;
698 [label="gini = 0.0\nsamples = 1\nvalue = [1, 0]\nclass = poisonous", fillcolor="#e58139"] ;
696 -> 698 ;
699 [label="gini = 0.0\nsamples = 37\nvalue = [0, 370]\nclass = edible", fillcolor="#399de5"] ;
695 -> 699 ;
700 [label="stem-height <= -0.164\ngini = 0.052\nsamples = 14\nvalue = [3, 110]\nclass = edible", fillcolor="#3ea0e6"] ;
694 -> 700 ;
701 [label="gini = 0.0\nsamples = 1\nvalue = [1, 0]\nclass = poisonous", fillcolor="#e58139"] ;
700 -> 701 ;
702 [label="stem-height <= -0.158\ngini = 0.035\nsamples = 13\nvalue = [2, 110]\nclass = edible", fillcolor="#3d9fe5"] ;
700 -> 702 ;
703 [label="stem-width <= 0.49\ngini = 0.165\nsamples = 2\nvalue = [1, 10]\nclass = edible", fillcolor="#4da7e8"] ;
702 -> 703 ;
704 [label="gini = 0.0\nsamples = 1\nvalue = [0, 10]\nclass = edible", fillcolor="#399de5"] ;
703 -> 704 ;
705 [label="gini = 0.0\nsamples = 1\nvalue = [1, 0]\nclass = poisonous", fillcolor="#e58139"] ;
703 -> 705 ;
706 [label="stem-width <= 0.486\ngini = 0.02\nsamples = 11\nvalue = [1, 100]\nclass = edible", fillcolor="#3b9ee5"] ;
702 -> 706 ;
707 [label="season_a <= 0.5\ngini = 0.165\nsamples = 2\nvalue = [1, 10]\nclass = edible", fillcolor="#4da7e8"] ;
706 -> 707 ;
708 [label="gini = 0.0\nsamples = 1\nvalue = [0, 10]\nclass = edible", fillcolor="#399de5"] ;
707 -> 708 ;
709 [label="gini = 0.0\nsamples = 1\nvalue = [1, 0]\nclass = poisonous", fillcolor="#e58139"] ;
707 -> 709 ;
710 [label="gini = 0.0\nsamples = 9\nvalue = [0, 90]\nclass = edible", fillcolor="#399de5"] ;
706 -> 710 ;
711 [label="gini = 0.0\nsamples = 1\nvalue = [1, 0]\nclass = poisonous", fillcolor="#e58139"] ;
693 -> 711 ;
712 [label="gini = 0.0\nsamples = 39\nvalue = [0, 390]\nclass = edible", fillcolor="#399de5"] ;
692 -> 712 ;
713 [label="stem-width <= 0.512\ngini = 0.057\nsamples = 13\nvalue = [3, 100]\nclass = edible", fillcolor="#3fa0e6"] ;
691 -> 713 ;
714 [label="gini = 0.0\nsamples = 3\nvalue = [3, 0]\nclass = poisonous", fillcolor="#e58139"] ;
713 -> 714 ;
715 [label="gini = 0.0\nsamples = 10\nvalue = [0, 100]\nclass = edible", fillcolor="#399de5"] ;
713 -> 715 ;
716 [label="gini = 0.0\nsamples = 8\nvalue = [8, 0]\nclass = poisonous", fillcolor="#e58139"] ;
680 -> 716 ;
717 [label="gini = 0.0\nsamples = 30\nvalue = [30, 0]\nclass = poisonous", fillcolor="#e58139"] ;
679 -> 717 ;
718 [label="gini = 0.0\nsamples = 57\nvalue = [57, 0]\nclass = poisonous", fillcolor="#e58139"] ;
678 -> 718 ;
719 [label="gini = 0.0\nsamples = 15\nvalue = [15, 0]\nclass = poisonous", fillcolor="#e58139"] ;
665 -> 719 ;
720 [label="gill-attachment_a <= 0.5\ngini = 0.359\nsamples = 280\nvalue = [211, 690]\nclass = edible", fillcolor="#76bbed"] ;
664 -> 720 ;
721 [label="cap-color_w <= 0.5\ngini = 0.203\nsamples = 154\nvalue = [87, 670]\nclass = edible", fillcolor="#53aae8"] ;
720 -> 721 ;
722 [label="cap-color_p <= 0.5\ngini = 0.026\nsamples = 76\nvalue = [9, 670]\nclass = edible", fillcolor="#3c9ee5"] ;
721 -> 722 ;
723 [label="stem-height <= -0.853\ngini = 0.009\nsamples = 70\nvalue = [3, 670]\nclass = edible", fillcolor="#3a9de5"] ;
722 -> 723 ;
724 [label="gini = 0.0\nsamples = 1\nvalue = [1, 0]\nclass = poisonous", fillcolor="#e58139"] ;
723 -> 724 ;
725 [label="cap-diameter <= 0.494\ngini = 0.006\nsamples = 69\nvalue = [2, 670]\nclass = edible", fillcolor="#3a9de5"] ;
723 -> 725 ;
726 [label="cap-diameter <= 0.39\ngini = 0.117\nsamples = 5\nvalue = [2, 30]\nclass = edible", fillcolor="#46a4e7"] ;
725 -> 726 ;
727 [label="cap-shape_x <= 0.5\ngini = 0.062\nsamples = 4\nvalue = [1, 30]\nclass = edible", fillcolor="#40a0e6"] ;
726 -> 727 ;
728 [label="gini = 0.0\nsamples = 3\nvalue = [0, 30]\nclass = edible", fillcolor="#399de5"] ;
727 -> 728 ;
729 [label="gini = 0.0\nsamples = 1\nvalue = [1, 0]\nclass = poisonous", fillcolor="#e58139"] ;
727 -> 729 ;
730 [label="gini = 0.0\nsamples = 1\nvalue = [1, 0]\nclass = poisonous", fillcolor="#e58139"] ;
726 -> 730 ;
731 [label="gini = 0.0\nsamples = 64\nvalue = [0, 640]\nclass = edible", fillcolor="#399de5"] ;
725 -> 731 ;
732 [label="gini = 0.0\nsamples = 6\nvalue = [6, 0]\nclass = poisonous", fillcolor="#e58139"] ;
722 -> 732 ;
733 [label="gini = 0.0\nsamples = 78\nvalue = [78, 0]\nclass = poisonous", fillcolor="#e58139"] ;
721 -> 733 ;
734 [label="cap-shape_x <= 0.5\ngini = 0.239\nsamples = 126\nvalue = [124, 20]\nclass = poisonous", fillcolor="#e99559"] ;
720 -> 734 ;
735 [label="gini = 0.0\nsamples = 124\nvalue = [124, 0]\nclass = poisonous", fillcolor="#e58139"] ;
734 -> 735 ;
736 [label="gini = 0.0\nsamples = 2\nvalue = [0, 20]\nclass = edible", fillcolor="#399de5"] ;
734 -> 736 ;
737 [label="stem-width <= 0.55\ngini = 0.455\nsamples = 382\nvalue = [322, 600]\nclass = edible", fillcolor="#a3d2f3"] ;
659 -> 737 ;
738 [label="season_w <= 0.5\ngini = 0.163\nsamples = 205\nvalue = [203, 20]\nclass = poisonous", fillcolor="#e88d4d"] ;
737 -> 738 ;
739 [label="stem-width <= 0.49\ngini = 0.089\nsamples = 204\nvalue = [203, 10]\nclass = poisonous", fillcolor="#e68743"] ;
738 -> 739 ;
740 [label="gini = 0.0\nsamples = 180\nvalue = [180, 0]\nclass = poisonous", fillcolor="#e58139"] ;
739 -> 740 ;
741 [label="stem-width <= 0.495\ngini = 0.422\nsamples = 24\nvalue = [23, 10]\nclass = poisonous", fillcolor="#f0b88f"] ;
739 -> 741 ;
742 [label="gini = 0.0\nsamples = 1\nvalue = [0, 10]\nclass = edible", fillcolor="#399de5"] ;
741 -> 742 ;
743 [label="gini = 0.0\nsamples = 23\nvalue = [23, 0]\nclass = poisonous", fillcolor="#e58139"] ;
741 -> 743 ;
744 [label="gini = 0.0\nsamples = 1\nvalue = [0, 10]\nclass = edible", fillcolor="#399de5"] ;
738 -> 744 ;
745 [label="cap-color_p <= 0.5\ngini = 0.283\nsamples = 177\nvalue = [119.0, 580.0]\nclass = edible", fillcolor="#62b1ea"] ;
737 -> 745 ;
746 [label="does-bruise-or-bleed_t <= 0.5\ngini = 0.219\nsamples = 141\nvalue = [83, 580]\nclass = edible", fillcolor="#55abe9"] ;
745 -> 746 ;
747 [label="gill-attachment_a <= 0.5\ngini = 0.177\nsamples = 121\nvalue = [63, 580]\nclass = edible", fillcolor="#4fa8e8"] ;
746 -> 747 ;
748 [label="stem-height <= 0.206\ngini = 0.287\nsamples = 93\nvalue = [63, 300]\nclass = edible", fillcolor="#63b2ea"] ;
747 -> 748 ;
749 [label="cap-color_n <= 0.5\ngini = 0.115\nsamples = 48\nvalue = [19, 290]\nclass = edible", fillcolor="#46a3e7"] ;
748 -> 749 ;
750 [label="stem-height <= -0.001\ngini = 0.046\nsamples = 36\nvalue = [7, 290]\nclass = edible", fillcolor="#3e9fe6"] ;
749 -> 750 ;
751 [label="gini = 0.0\nsamples = 2\nvalue = [2, 0]\nclass = poisonous", fillcolor="#e58139"] ;
750 -> 751 ;
752 [label="cap-shape_f <= 0.5\ngini = 0.033\nsamples = 34\nvalue = [5, 290]\nclass = edible", fillcolor="#3c9fe5"] ;
750 -> 752 ;
753 [label="stem-width <= 0.679\ngini = 0.071\nsamples = 18\nvalue = [5, 130]\nclass = edible", fillcolor="#41a1e6"] ;
752 -> 753 ;
754 [label="stem-width <= 0.619\ngini = 0.058\nsamples = 17\nvalue = [4, 130]\nclass = edible", fillcolor="#3fa0e6"] ;
753 -> 754 ;
755 [label="stem-height <= 0.148\ngini = 0.02\nsamples = 11\nvalue = [1, 100]\nclass = edible", fillcolor="#3b9ee5"] ;
754 -> 755 ;
756 [label="gini = 0.0\nsamples = 8\nvalue = [0, 80]\nclass = edible", fillcolor="#399de5"] ;
755 -> 756 ;
757 [label="stem-height <= 0.177\ngini = 0.091\nsamples = 3\nvalue = [1, 20]\nclass = edible", fillcolor="#43a2e6"] ;
755 -> 757 ;
758 [label="gini = 0.0\nsamples = 1\nvalue = [1, 0]\nclass = poisonous", fillcolor="#e58139"] ;
757 -> 758 ;
759 [label="gini = 0.0\nsamples = 2\nvalue = [0, 20]\nclass = edible", fillcolor="#399de5"] ;
757 -> 759 ;
760 [label="cap-diameter <= 0.295\ngini = 0.165\nsamples = 6\nvalue = [3, 30]\nclass = edible", fillcolor="#4da7e8"] ;
754 -> 760 ;
761 [label="gini = 0.0\nsamples = 3\nvalue = [3, 0]\nclass = poisonous", fillcolor="#e58139"] ;
760 -> 761 ;
762 [label="gini = 0.0\nsamples = 3\nvalue = [0, 30]\nclass = edible", fillcolor="#399de5"] ;
760 -> 762 ;
763 [label="gini = 0.0\nsamples = 1\nvalue = [1, 0]\nclass = poisonous", fillcolor="#e58139"] ;
753 -> 763 ;
764 [label="gini = 0.0\nsamples = 16\nvalue = [0, 160]\nclass = edible", fillcolor="#399de5"] ;
752 -> 764 ;
765 [label="gini = 0.0\nsamples = 12\nvalue = [12, 0]\nclass = poisonous", fillcolor="#e58139"] ;
749 -> 765 ;
766 [label="cap-diameter <= 0.344\ngini = 0.302\nsamples = 45\nvalue = [44, 10]\nclass = poisonous", fillcolor="#eb9e66"] ;
748 -> 766 ;
767 [label="gini = 0.0\nsamples = 33\nvalue = [33, 0]\nclass = poisonous", fillcolor="#e58139"] ;
766 -> 767 ;
768 [label="cap-diameter <= 0.353\ngini = 0.499\nsamples = 12\nvalue = [11, 10]\nclass = poisonous", fillcolor="#fdf4ed"] ;
766 -> 768 ;
769 [label="stem-width <= 0.955\ngini = 0.165\nsamples = 2\nvalue = [1, 10]\nclass = edible", fillcolor="#4da7e8"] ;
768 -> 769 ;
770 [label="gini = 0.0\nsamples = 1\nvalue = [0, 10]\nclass = edible", fillcolor="#399de5"] ;
769 -> 770 ;
771 [label="gini = 0.0\nsamples = 1\nvalue = [1, 0]\nclass = poisonous", fillcolor="#e58139"] ;
769 -> 771 ;
772 [label="gini = 0.0\nsamples = 10\nvalue = [10, 0]\nclass = poisonous", fillcolor="#e58139"] ;
768 -> 772 ;
773 [label="gini = 0.0\nsamples = 28\nvalue = [0, 280]\nclass = edible", fillcolor="#399de5"] ;
747 -> 773 ;
774 [label="gini = 0.0\nsamples = 20\nvalue = [20, 0]\nclass = poisonous", fillcolor="#e58139"] ;
746 -> 774 ;
775 [label="gini = 0.0\nsamples = 36\nvalue = [36, 0]\nclass = poisonous", fillcolor="#e58139"] ;
745 -> 775 ;
776 [label="stem-color_w <= 0.5\ngini = 0.02\nsamples = 1055\nvalue = [96, 9590]\nclass = edible", fillcolor="#3b9ee5"] ;
658 -> 776 ;
777 [label="stem-height <= 2.305\ngini = 0.455\nsamples = 51\nvalue = [43, 80]\nclass = edible", fillcolor="#a3d2f3"] ;
776 -> 777 ;
778 [label="gini = 0.0\nsamples = 43\nvalue = [43, 0]\nclass = poisonous", fillcolor="#e58139"] ;
777 -> 778 ;
779 [label="gini = 0.0\nsamples = 8\nvalue = [0, 80]\nclass = edible", fillcolor="#399de5"] ;
777 -> 779 ;
780 [label="cap-color_e <= 0.5\ngini = 0.011\nsamples = 1004\nvalue = [53, 9510]\nclass = edible", fillcolor="#3a9ee5"] ;
776 -> 780 ;
781 [label="cap-diameter <= -0.082\ngini = 0.01\nsamples = 999\nvalue = [48, 9510]\nclass = edible", fillcolor="#3a9de5"] ;
780 -> 781 ;
782 [label="ring-type_f <= 0.5\ngini = 0.213\nsamples = 50\nvalue = [29, 210]\nclass = edible", fillcolor="#54abe9"] ;
781 -> 782 ;
783 [label="gini = 0.0\nsamples = 20\nvalue = [0, 200]\nclass = edible", fillcolor="#399de5"] ;
782 -> 783 ;
784 [label="stem-width <= -0.223\ngini = 0.381\nsamples = 30\nvalue = [29, 10]\nclass = poisonous", fillcolor="#eeac7d"] ;
782 -> 784 ;
785 [label="gini = 0.0\nsamples = 1\nvalue = [0, 10]\nclass = edible", fillcolor="#399de5"] ;
784 -> 785 ;
786 [label="gini = 0.0\nsamples = 29\nvalue = [29, 0]\nclass = poisonous", fillcolor="#e58139"] ;
784 -> 786 ;
787 [label="cap-color_p <= 0.5\ngini = 0.004\nsamples = 949\nvalue = [19, 9300]\nclass = edible", fillcolor="#399de5"] ;
781 -> 787 ;
788 [label="cap-diameter <= -0.075\ngini = 0.003\nsamples = 946\nvalue = [16, 9300]\nclass = edible", fillcolor="#399de5"] ;
787 -> 788 ;
789 [label="has-ring_t <= 0.5\ngini = 0.074\nsamples = 7\nvalue = [2, 50]\nclass = edible", fillcolor="#41a1e6"] ;
788 -> 789 ;
790 [label="gini = 0.0\nsamples = 2\nvalue = [2, 0]\nclass = poisonous", fillcolor="#e58139"] ;
789 -> 790 ;
791 [label="gini = 0.0\nsamples = 5\nvalue = [0, 50]\nclass = edible", fillcolor="#399de5"] ;
789 -> 791 ;
792 [label="stem-height <= 0.742\ngini = 0.003\nsamples = 939\nvalue = [14, 9250]\nclass = edible", fillcolor="#399de5"] ;
788 -> 792 ;
793 [label="cap-color_g <= 0.5\ngini = 0.022\nsamples = 50\nvalue = [5, 450]\nclass = edible", fillcolor="#3b9ee5"] ;
792 -> 793 ;
794 [label="stem-width <= 0.124\ngini = 0.013\nsamples = 48\nvalue = [3, 450]\nclass = edible", fillcolor="#3a9ee5"] ;
793 -> 794 ;
795 [label="gini = 0.0\nsamples = 23\nvalue = [0, 230]\nclass = edible", fillcolor="#399de5"] ;
794 -> 795 ;
796 [label="stem-width <= 0.965\ngini = 0.027\nsamples = 25\nvalue = [3, 220]\nclass = edible", fillcolor="#3c9ee5"] ;
794 -> 796 ;
797 [label="gini = 0.0\nsamples = 3\nvalue = [3, 0]\nclass = poisonous", fillcolor="#e58139"] ;
796 -> 797 ;
798 [label="gini = 0.0\nsamples = 22\nvalue = [0, 220]\nclass = edible", fillcolor="#399de5"] ;
796 -> 798 ;
799 [label="gini = 0.0\nsamples = 2\nvalue = [2, 0]\nclass = poisonous", fillcolor="#e58139"] ;
793 -> 799 ;
800 [label="cap-diameter <= 0.089\ngini = 0.002\nsamples = 889\nvalue = [9, 8800]\nclass = edible", fillcolor="#399de5"] ;
792 -> 800 ;
801 [label="cap-shape_x <= 0.5\ngini = 0.012\nsamples = 89\nvalue = [5, 840]\nclass = edible", fillcolor="#3a9ee5"] ;
800 -> 801 ;
802 [label="gini = 0.0\nsamples = 78\nvalue = [0, 780]\nclass = edible", fillcolor="#399de5"] ;
801 -> 802 ;
803 [label="stem-height <= 1.456\ngini = 0.142\nsamples = 11\nvalue = [5, 60]\nclass = edible", fillcolor="#49a5e7"] ;
801 -> 803 ;
804 [label="gini = 0.0\nsamples = 6\nvalue = [0, 60]\nclass = edible", fillcolor="#399de5"] ;
803 -> 804 ;
805 [label="gini = 0.0\nsamples = 5\nvalue = [5, 0]\nclass = poisonous", fillcolor="#e58139"] ;
803 -> 805 ;
806 [label="stem-height <= 0.84\ngini = 0.001\nsamples = 800\nvalue = [4, 7960]\nclass = edible", fillcolor="#399de5"] ;
800 -> 806 ;
807 [label="stem-height <= 0.836\ngini = 0.01\nsamples = 43\nvalue = [2.0, 410.0]\nclass = edible", fillcolor="#3a9de5"] ;
806 -> 807 ;
808 [label="cap-shape_f <= 0.5\ngini = 0.005\nsamples = 42\nvalue = [1, 410]\nclass = edible", fillcolor="#399de5"] ;
807 -> 808 ;
809 [label="gini = 0.0\nsamples = 30\nvalue = [0, 300]\nclass = edible", fillcolor="#399de5"] ;
808 -> 809 ;
810 [label="stem-width <= 0.619\ngini = 0.018\nsamples = 12\nvalue = [1, 110]\nclass = edible", fillcolor="#3b9ee5"] ;
808 -> 810 ;
811 [label="gini = 0.0\nsamples = 11\nvalue = [0, 110]\nclass = edible", fillcolor="#399de5"] ;
810 -> 811 ;
812 [label="gini = 0.0\nsamples = 1\nvalue = [1, 0]\nclass = poisonous", fillcolor="#e58139"] ;
810 -> 812 ;
813 [label="gini = 0.0\nsamples = 1\nvalue = [1, 0]\nclass = poisonous", fillcolor="#e58139"] ;
807 -> 813 ;
814 [label="cap-diameter <= 0.185\ngini = 0.001\nsamples = 757\nvalue = [2, 7550]\nclass = edible", fillcolor="#399de5"] ;
806 -> 814 ;
